tree
version=v3
num_class=1
num_tree_per_iteration=1
label_index=0
max_feature_idx=11
objective=regression
feature_names=TurbID sin_tm cos_tm Etmp Itmp Wspd Wdir Patv_mean Etmp_median Itmp_median Wspd_mean mask_mean
feature_infos=-1:67:54:51:39:40:63:55:70:58:12:52:27:25:32:84:74:16:5:6:66:69:11:86:3:38:50:14:41:18:43:48:68:19:49:59:78:42:21:10:75:9:15:90:53:34:28:47:61:87:77:4:29:33:57:88:23:36:85:46:71:7:81:17:56:89:79:8:20:82:37:45:62:72:24:91:1:64:35:26:73:22:31:76:44:13:93:83:65:60:2:30:92:80 [-1:1] [-1:1] [4.3300000000000001:44.509999999999998] [10.1:53.289999999999999] [0.84999999999999998:15] [-60.390000000000001:152.50999999999999] [0.77000000000000002:1510.4891729323308] [5.6900000000000004:43.469999999999999] [14.199999999999999:49.190000000000005] [1.21:18.185984251968502] [0.007462686567164179:1]
tree_sizes=3102 3071 3173 3127 3179 3098 3164 3191 3194 3185 3282 3188 3207 3243 3250 3083 3211 3200 3210 3218 3200 3197 3191 3081 3183 3216 3152 3164 3280 3188 3180 3230 3202

Tree=0
num_leaves=31
num_cat=6
split_feature=7 5 7 5 7 5 5 5 7 7 5 7 5 5 5 5 5 0 0 5 5 7 0 5 5 7 0 0 0 5
split_gain=2.3565e+11 3.37886e+10 2.73897e+10 5.51215e+09 4.31615e+09 4.05636e+09 3.43363e+09 2.25412e+09 1.22472e+09 1.02183e+09 8.76591e+08 7.59775e+08 5.96806e+08 5.48086e+08 5.21513e+08 4.63971e+08 4.07534e+08 3.48219e+08 3.00436e+08 2.74103e+08 1.93475e+08 1.90731e+08 1.88535e+08 2.1724e+08 1.69162e+08 1.66009e+08 1.56877e+08 1.55314e+08 1.5055e+08 1.99229e+08
threshold=636.3045823317309 5.0950000000000006 1025.4387209302329 7.4650000000000007 411.49045313665846 3.8050000000000002 9.3950000000000014 6.4350000000000014 1289.4042748091606 834.55009650993168 6.4350000000000014 267.09431793478262 8.2150000000000016 2.9550000000000005 4.495000000000001 8.3650000000000002 5.8750000000000009 0 1 5.8150000000000004 5.5750000000000011 535.46799242424254 2 9.0950000000000006 8.5150000000000023 1153.9020301295398 3 4 5 8.5650000000000031
decision_type=2 2 2 2 2 2 2 2 2 2 2 2 2 2 2 2 2 9 9 2 2 2 9 2 2 2 9 9 9 2
left_child=1 5 3 10 11 13 12 19 25 18 20 -3 -4 -1 -7 -11 -13 28 -5 -6 -2 -19 24 -24 -18 -8 -12 -17 29 -9
right_child=2 4 6 9 7 14 8 17 -10 15 26 16 -14 -15 -16 27 22 21 -20 -21 -22 -23 23 -25 -26 -27 -28 -29 -30 -31
leaf_value=461.51638231774945 493.06356460920517 486.79998214795592 548.98205935199258 551.79621141546727 497.44870498827123 475.70487588229497 577.92797313139465 532.60164614419671 599.12928064091466 548.13277030485256 520.80027980861109 493.31035604617864 570.81569238352415 468.45564722169877 483.40039010560821 568.25703195404901 518.1753774350401 513.93644493965667 539.48990190706434 507.07085782981358 512.08399967156197 522.46359278509146 504.65283726108737 490.55617894989638 588.53421338100497 586.66294325904369 530.97500186396678 558.28710795791687 527.26007206990266 587.69790003339131
leaf_weight=228555 6947 84101 17057 28272 54883 191893 35751 1983 103567 35547 21648 79844 47069 226750 162755 26789 1541 53643 68417 64279 23232 51332 71632 12901 439 55636 51408 41224 38288 981
leaf_count=228555 6947 84101 17057 28272 54883 191893 35751 1983 103567 35547 21648 79844 47069 226750 162755 26789 1541 53643 68417 64279 23232 51332 71632 12901 439 55636 51408 41224 38288 981
internal_value=506.969 483.958 561.2 540.813 503.962 471.218 585.081 512.848 591.684 550.489 522.043 494.546 565.008 464.972 479.236 557.392 498.462 521.168 543.096 502.639 507.706 518.105 503.217 502.502 533.644 583.246 527.965 562.231 528.954 550.692
internal_weight=0 1.3258e+06 562564 303484 515847 809953 259080 265389 194954 200249 103235 250458 64126 455305 354648 103560 166357 146227 96689 119162 30179 104975 86513 84533 1980 91387 73056 68013 41252 2964
internal_count=1888364 1325800 562564 303484 515847 809953 259080 265389 194954 200249 103235 250458 64126 455305 354648 103560 166357 146227 96689 119162 30179 104975 86513 84533 1980 91387 73056 68013 41252 2964
cat_boundaries=0 3 6 9 12 15 18
cat_threshold=131080062 6656 524384 130088830 0 524384 2 0 524288 2283815364 3224446400 871419932 935591806 135202 134742240 2 0 524288
is_linear=0
shrinkage=1


Tree=1
num_leaves=31
num_cat=0
split_feature=7 5 7 5 5 7 5 5 7 7 5 7 10 5 10 5 5 5 5 10 5 5 5 10 10 5 5 5 5 7
split_gain=1.90903e+11 2.81132e+10 2.14686e+10 4.74359e+09 3.68361e+09 3.40404e+09 2.34206e+09 1.61555e+09 9.46013e+08 9.03121e+08 8.27932e+08 7.37562e+08 7.26977e+08 7.66035e+08 6.99467e+08 5.60559e+08 4.74498e+08 4.17504e+08 3.76384e+08 5.82361e+08 3.54006e+08 3.53155e+08 3.44514e+08 3.1325e+08 2.42231e+08 2.29588e+08 1.95207e+08 1.58376e+08 1.57493e+08 1.52044e+08
threshold=643.00095419847344 5.1850000000000014 1053.3943058206107 7.5950000000000006 3.9250000000000003 432.29861343265515 9.2750000000000004 6.5850000000000009 1313.47775990676 863.69846153846163 6.6250000000000009 273.06412713558717 7.1923255813953499 7.8650000000000011 8.2439940937615379 3.1150000000000007 8.5650000000000031 4.6150000000000011 5.9750000000000005 5.9936742424242428 7.1050000000000013 7.9650000000000007 8.5650000000000031 9.2098382867132891 5.0371383508926888 5.9750000000000005 5.7250000000000005 7.1850000000000014 9.4550000000000018 1218.9795075757577
decision_type=2 2 2 2 2 2 2 2 2 2 2 2 2 2 2 2 2 2 2 2 2 2 2 2 2 2 2 2 2 2
left_child=1 4 3 10 15 11 21 25 29 14 26 24 13 27 16 -1 -5 -6 -13 20 -20 -4 -11 28 -3 -7 -2 -9 -24 -8
right_child=2 5 6 9 17 7 8 12 -10 22 -12 18 -14 -15 -16 -17 -18 -19 19 -21 -22 -23 23 -25 -26 -27 -28 -29 -30 -31
leaf_value=-40.407373014691338 -10.173342701615333 -13.325415611215371 34.15017114627905 34.524620697031601 -26.952886187912352 -6.464798300316712 66.568639334198323 11.124707374810315 83.798378169975607 40.281719635670498 21.508008354231677 -10.858097491346442 3.1755910814091051 37.917381367041223 22.843010498153184 -33.599584260886054 52.479994555580973 -19.949527923463517 0.41870325013678378 -12.511661400173169 19.960149421225903 55.989727613232674 52.857554423382183 41.849762742027607 -24.579884786818841 2.5855386832348657 7.1426404980625264 20.929669891340353 65.661218349168848 74.333799621828348
leaf_weight=268620 8369 51252 9095 44778 191725 55251 59806 43142 91620 36858 73969 85654 38641 18175 34235 220028 21925 153099 49909 32493 11385 39842 27778 19040 30508 56892 29312 26651 14691 43621
leaf_count=268620 8369 51252 9095 44778 191725 55251 59806 43142 91620 36858 73969 85654 38641 18175 34235 220028 21925 153099 49909 32493 11385 39842 27778 19040 30508 56892 29312 26651 14691 43621
internal_value=0 -20.5116 49.2863 31.8638 -31.7574 -1.7637 71.4911 6.86701 76.3987 41.1081 15.3619 -9.65264 14.6088 19.6309 34.4628 -37.342 40.4265 -23.8435 -6.06571 -1.6889 4.04844 51.9309 47.9271 52.5084 -17.5249 -1.87341 3.29672 14.8688 57.2868 69.8437
internal_weight=0 1.33342e+06 554939 310955 833472 499953 243984 238752 195047 199305 111650 261201 126609 87968 100938 488648 66703 344824 179441 93787 61294 48937 98367 61509 81760 112143 37681 69793 42469 103427
internal_count=1888364 1333425 554939 310955 833472 499953 243984 238752 195047 199305 111650 261201 126609 87968 100938 488648 66703 344824 179441 93787 61294 48937 98367 61509 81760 112143 37681 69793 42469 103427
is_linear=0
shrinkage=0.1


Tree=2
num_leaves=31
num_cat=6
split_feature=5 5 5 11 5 5 5 5 11 0 2 0 11 0 0 2 0 9 5 5 5 8 9 11 9 10 11 5 8 0
split_gain=1.50106e+11 1.6209e+10 1.20478e+10 6.98376e+09 2.06637e+09 2.05082e+09 1.56305e+09 1.27971e+09 7.29057e+08 5.63745e+08 4.78412e+08 4.5793e+08 4.57692e+08 4.2495e+08 3.88015e+08 3.38078e+08 3.34342e+08 3.1562e+08 3.05955e+08 2.84736e+08 2.68224e+08 2.48933e+08 2.82821e+08 2.12962e+08 2.0503e+08 1.94815e+08 1.94686e+08 1.8972e+08 1.77802e+08 1.51324e+08
threshold=6.8650000000000011 4.8850000000000007 8.6150000000000002 0.88432835820895528 3.5950000000000002 5.9050000000000011 9.8850000000000033 7.7150000000000007 0.89925373134328368 0 -0.75166088996455105 1 0.89925373134328368 2 3 0.971110916704501 4 26.355000000000004 4.2550000000000008 5.4250000000000007 2.5550000000000002 27.862500000000008 39.952500000000008 0.97388059701492546 44.555000000000007 12.169981818181819 0.88432835820895528 6.3250000000000011 29.692500000000006 5
decision_type=2 2 2 2 2 2 2 2 2 9 2 9 2 9 9 2 9 2 2 2 2 2 2 2 2 2 2 2 2 9
left_child=1 4 7 9 20 19 13 12 -9 -4 17 -10 -2 -5 -14 23 -7 -8 -6 -3 -1 -17 -23 25 -11 -12 -18 -28 -19 -25
right_child=2 5 3 6 18 16 10 8 11 24 15 -13 14 -15 -16 21 26 28 -20 -21 -22 22 -24 29 -26 -27 27 -29 -30 -31
leaf_value=-38.279710413495103 -6.9036776175911401 -15.02678241584718 79.623686781631477 37.910867556925318 -27.209250794069312 -4.2371103224216231 30.801777969177603 -0.5947233151238982 22.571492635774472 6.7700578554843904 52.405361022525398 35.6197990676202 9.2164887235024509 49.727304699684112 20.700762724996935 61.911673016044404 -11.329153572988645 62.667853822604719 -21.36558776908582 -8.3916083814617846 -32.875875927133023 25.5685875953784 63.019725700834762 59.41282978489734 53.001900242969356 66.48077475099501 1.0676736718174806 8.8260883402029364 48.243275867945137 67.799910867872427
leaf_weight=144157 8362 142977 1119 47619 184177 70329 7207 7606 40324 38001 28890 81771 42459 86624 96217 7352 7546 13766 174475 118096 253192 6424 2939 31766 984 14911 59108 67526 22542 79898
leaf_count=144157 8362 142977 1119 47619 184177 70329 7207 7606 40324 38001 28890 81771 42459 86624 96217 7352 7546 13766 174475 118096 253192 6424 2939 31766 984 14911 59108 67526 22542 79898
internal_value=0 -20.8297 38.1616 49.4841 -29.8694 -6.15128 54.014 22.2035 29.4439 9.95738 59.2865 31.3152 15.8167 45.5423 17.1867 61.6542 1.34749 49.918 -24.3665 -12.0254 -34.8364 48.1395 37.3249 63.1072 7.93507 57.1971 4.2746 5.20476 53.7124 65.4254
internal_weight=0 1.22158e+06 666781 390042 756001 465582 349938 276739 129701 40104 215695 122095 147038 134243 138676 172180 204509 43515 358652 261073 397349 16715 9363 155465 38985 43801 134180 126634 36308 111664
internal_count=1888364 1221583 666781 390042 756001 465582 349938 276739 129701 40104 215695 122095 147038 134243 138676 172180 204509 43515 358652 261073 397349 16715 9363 155465 38985 43801 134180 126634 36308 111664
cat_boundaries=0 3 6 9 12 15 18
cat_threshold=2 0 524288 3357540740 3224446400 869580828 3355443588 3224462784 869650460 3357557188 3224446400 307281948 3358082500 3224446400 332447772 3355443328 2552324480 838324224
is_linear=0
shrinkage=0.1


Tree=3
num_leaves=31
num_cat=4
split_feature=5 5 5 5 5 2 5 5 9 9 8 8 9 0 0 8 9 0 2 0 5 8 9 1 8 9 8 9 5 9
split_gain=1.21621e+11 1.2729e+10 1.02081e+10 1.70826e+09 1.55376e+09 1.34343e+09 1.1911e+09 8.8677e+08 6.53139e+08 5.41852e+08 8.59445e+08 4.08482e+08 9.10407e+08 3.80626e+08 2.98644e+08 2.93331e+08 5.308e+08 2.85957e+08 2.73349e+08 2.7094e+08 2.49438e+08 2.43439e+08 4.67479e+08 3.63385e+08 2.90494e+08 2.64631e+08 2.31442e+08 2.73503e+08 2.22669e+08 2.09424e+08
threshold=6.8250000000000011 4.8250000000000011 8.4650000000000016 5.785000000000001 3.5050000000000003 -0.6913484944011038 9.5150000000000023 7.5550000000000006 33.405000000000008 35.627500000000005 28.792500000000008 21.807500000000001 29.732500000000005 0 1 25.645000000000007 33.257500000000014 2 0.971110916704501 3 4.1950000000000012 27.182500000000001 30.175000000000004 0.48087430661751701 22.865000000000006 27.462500000000002 29.692500000000006 35.542500000000011 6.2550000000000008 33.932500000000012
decision_type=2 2 2 2 2 2 2 2 2 2 2 2 2 9 9 2 2 9 2 9 2 2 2 2 2 2 2 2 2 2
left_child=1 4 7 -3 -1 8 17 19 21 10 11 -8 -13 -9 -5 -14 -17 -7 -11 -2 -6 22 23 25 -25 -4 -10 -28 -16 -12
right_child=2 3 5 14 20 6 9 13 26 18 29 12 15 -15 28 16 -18 -19 -20 -21 -22 -23 -24 24 -26 -27 27 -29 -30 -31
leaf_value=-31.668025702434235 5.1372335686984885 -11.839211177156601 12.201447893435871 -5.9971461534734862 -24.987348247131209 30.388416468337283 56.872186042546446 17.185497185029643 57.776171763674213 59.240229642779042 7.259141085998202 18.709066975531865 60.223104401276046 28.303564152935241 -1.4548287509028162 29.268860465532665 55.835930277392947 41.967384896948204 40.609553663332555 15.541743550983455 -19.76940689716697 9.198639842680377 49.985757170638131 53.471541527304424 11.650279385659974 36.915542352506769 17.691646926730254 41.755173194495683 5.847050438368055 33.517514996483058
leaf_weight=372387 33999 248862 19867 58091 192292 32594 47943 47692 7656 80262 5352 11152 18683 87627 80679 13272 17355 63513 8733 95205 174989 7502 8317 5931 2307 5541 5328 41629 86581 7023
leaf_count=372387 33999 248862 19867 58091 192292 32594 47943 47692 7656 80262 5352 11152 18683 87627 80679 13272 17355 63513 8733 95205 174989 7502 8317 5931 2307 5541 5328 41629 86581 7023
internal_value=0 -18.917 34.0462 -6.12784 -27.1163 43.9282 47.2674 18.7309 34.1144 51.4912 47.1284 49.9785 44.5121 24.3885 0.179404 50.3477 44.3234 38.048 57.4121 12.8055 -22.5013 25.7905 28.7567 23.5089 41.76 17.5912 41.6536 39.0248 2.3248 22.1613
internal_weight=0 1.21388e+06 674483 474213 739668 409960 305882 264523 104078 209775 120780 108405 60462 135319 225351 49310 30627 96107 88995 129204 367281 49465 41963 33646 8238 25408 54613 46957 167260 12375
internal_count=1888364 1213881 674483 474213 739668 409960 305882 264523 104078 209775 120780 108405 60462 135319 225351 49310 30627 96107 88995 129204 367281 49465 41963 33646 8238 25408 54613 46957 167260 12375
cat_boundaries=0 3 6 9 12
cat_threshold=3355460996 3224446400 869584924 2281701764 3224446400 307281948 3363848580 3224462784 844419096 2281701764 3224446400 282116124
is_linear=0
shrinkage=0.1


Tree=4
num_leaves=31
num_cat=6
split_feature=5 5 5 11 5 5 11 5 5 0 0 0 0 5 5 1 11 5 8 4 2 8 0 1 2 5 4 2 0 11
split_gain=9.8603e+10 1.13221e+10 7.3461e+09 5.05298e+09 1.52336e+09 1.35638e+09 1.04313e+09 9.51809e+08 8.47288e+08 4.5367e+08 3.21223e+08 3.17721e+08 3.00605e+08 2.51036e+08 2.43515e+08 2.39297e+08 2.14587e+08 2.12976e+08 2.06558e+08 3.0927e+08 2.24938e+08 2.63063e+08 2.03197e+08 1.80589e+08 1.54927e+08 1.52677e+08 1.41932e+08 1.38705e+08 1.36059e+08 1.29246e+08
threshold=6.9450000000000012 4.9750000000000005 8.7750000000000004 0.88432835820895528 3.6850000000000005 6.0750000000000011 0.91417910447761208 7.9150000000000009 10.155000000000003 0 1 2 3 5.5150000000000006 2.6750000000000003 -0.42261826174069955 0.91417910447761208 4.3750000000000009 26.092500000000005 33.382500000000014 -0.8765181184813301 21.682500000000005 4 0.62577451934763006 -0.73727733681012408 12.195000000000002 43.502500000000005 -0.97111091670450078 5 0.90671641791044788
decision_type=2 2 2 2 2 2 2 2 2 9 9 9 9 2 2 2 2 2 2 2 2 2 9 2 2 2 2 2 9 2
left_child=1 4 6 9 14 13 -2 10 11 -4 -8 -5 -9 -3 -1 25 -7 -6 20 27 21 -17 -18 -21 -13 29 -11 -20 -15 -10
right_child=2 5 3 8 17 16 7 12 15 26 -12 24 -14 28 -16 18 22 -19 19 23 -22 -23 -24 -25 -26 -27 -28 -29 -30 -31
leaf_value=-30.9417456038084 -4.1108203602748885 -11.422450328097417 69.979635541520054 32.232965716047481 -21.366158665977405 -9.598085403249037 9.518971214368074 19.991338221934555 8.7594546361024808 3.7584212331729532 19.139273993983508 34.629737236303583 31.335358513343689 -9.9330476921743251 -26.030637145001165 17.730980906982293 -2.6085796624610014 -16.475300435349805 61.57974066842052 41.405762715149933 53.981690992345136 56.323965971747157 5.5876939257696518 52.827337166760323 44.558495618041796 59.744887097275686 41.97721105953363 23.090628231020109 -3.1584274963299235 50.836263351304979
leaf_weight=167110 17789 141432 1088 48434 192901 13208 53410 33577 742 36719 99518 20277 78030 44175 255095 3987 39658 165362 1040 37712 42789 3171 127419 21876 69900 25982 998 9387 90197 45381
leaf_count=167110 17789 141432 1088 48434 192901 13208 53410 33577 742 36719 99518 20277 78030 44175 255095 3987 39658 165362 1040 37712 42789 3171 127419 21876 69900 25982 998 9387 90197 45381
internal_value=0 -16.59 31.4742 40.7542 -23.9048 -4.07272 19.3293 20.9056 44.7602 6.61635 15.7813 38.8016 27.9271 -8.48177 -27.9745 49.0604 2.67235 -19.1087 46.3237 42.8187 51.2369 34.8283 3.64237 45.5989 42.3213 53.6135 4.76854 26.9301 -5.38657 50.1594
internal_weight=0 1.23656e+06 651807 369483 780468 456089 282324 264535 330678 38805 152928 138611 111607 275804 422205 192067 180285 358263 119962 70015 49947 7158 167077 59588 90177 72105 37717 10427 134372 46123
internal_count=1888364 1236557 651807 369483 780468 456089 282324 264535 330678 38805 152928 138611 111607 275804 422205 192067 180285 358263 119962 70015 49947 7158 167077 59588 90177 72105 37717 10427 134372 46123
cat_boundaries=0 3 6 9 12 15 18
cat_threshold=2 0 524288 3358082500 3224446400 324063260 3357540740 3492897216 838193176 2281701764 3224446400 854638620 2281701764 3224445376 273727516 3358081476 3224446400 315674652
is_linear=0
shrinkage=0.1


Tree=5
num_leaves=31
num_cat=4
split_feature=7 7 7 5 5 5 7 10 5 7 0 10 5 5 5 10 5 7 0 5 5 5 7 0 5 5 10 10 5 0
split_gain=9.00034e+10 1.21636e+10 9.39403e+09 1.90022e+09 1.76495e+09 1.62885e+09 1.0258e+09 8.65878e+08 1.14227e+09 5.8264e+08 5.81858e+08 4.55183e+08 3.1809e+08 3.13748e+08 2.99392e+08 2.69996e+08 4.58595e+08 2.64542e+08 2.43632e+08 2.28857e+08 2.21655e+08 2.18207e+08 2.01753e+08 1.85581e+08 1.74631e+08 1.56054e+08 1.5203e+08 1.3456e+08 1.26498e+08 1.18943e+08
threshold=683.3999251233264 322.47617187500003 1077.717370975379 5.6950000000000012 4.0150000000000006 7.3450000000000006 1259.3185849163276 7.4331053894425994 7.2250000000000005 911.07790659340674 0 8.4251159738753607 8.2150000000000016 8.9250000000000025 3.0550000000000002 5.4885506993007001 5.3050000000000006 501.50086466165419 1 6.3650000000000011 4.6750000000000007 8.2650000000000023 1393.3890246449459 2 6.3650000000000011 8.2650000000000023 9.0099271561771577 10.197977272727275 9.1550000000000029 3
decision_type=2 2 2 2 2 2 2 2 2 2 9 2 2 2 2 2 2 2 9 2 2 2 2 9 2 2 2 2 2 9
left_child=1 4 5 20 14 24 13 8 19 11 -9 12 -7 -4 -1 16 -6 -12 -17 -5 -3 -10 29 -13 -2 -11 28 -15 -27 -8
right_child=2 3 6 7 15 9 22 10 21 25 17 23 -14 27 -16 18 -18 -19 -20 -21 -22 -23 -24 -25 -26 26 -28 -29 -30 -31
leaf_value=-26.887109710166982 1.879837352866176 -15.872605855890548 33.299022580564355 -1.1654541158272502 -16.487506938565947 21.599180664909831 46.910978899646246 57.457586467572483 13.904323571230506 26.715962264386111 -16.346252045910472 61.694193829507412 33.58113906649173 49.122009265265625 -21.99039523750028 29.426645169403798 -7.7469317915645695 -2.8793649076003103 -24.45811506268501 5.5145919681143578 -7.543392635542884 27.233814836821637 61.581641228363367 12.468740903309655 13.253953699701661 35.050317043121566 29.688524026658019 40.345431774503197 45.683997665420009 55.993252238142375
leaf_weight=250297 18139 43079 24105 105302 254220 48541 21194 1340 50723 23798 26547 775 40763 54521 249164 852 78583 32377 37684 99983 123674 16205 50941 34027 52764 26991 24339 25711 19110 52615
leaf_count=250297 18139 43079 24105 105302 254220 48541 21194 1340 50723 23798 26547 775 40763 54521 249164 852 78583 32377 37684 99983 123674 16205 50941 34027 52764 26991 24339 25711 19110 52615
internal_value=0 -13.4281 35.4937 -0.983633 -20.5624 23.5129 50.6208 3.38562 5.78678 27.7892 -7.46045 23.2878 27.0684 43.3038 -24.4443 -15.3412 -14.4236 -8.94509 -23.2654 2.08803 -9.69517 17.1318 56.7406 13.5864 10.3441 33.7173 36.0826 46.3095 39.4583 53.3993
internal_weight=0 1.37003e+06 518334 499230 870800 289247 229087 332477 272213 218344 60264 124106 89304 104337 499461 371339 332803 58924 38536 205285 166753 66928 124750 34802 70903 94238 70440 80232 46101 73809
internal_count=1888364 1370030 518334 499230 870800 289247 229087 332477 272213 218344 60264 124106 89304 104337 499461 371339 332803 58924 38536 205285 166753 66928 124750 34802 70903 94238 70440 80232 46101 73809
cat_boundaries=0 3 6 9 12
cat_threshold=2 0 524288 2 0 524288 2 0 524288 2164260864 2552324224 904384539
is_linear=0
shrinkage=0.1


Tree=6
num_leaves=31
num_cat=8
split_feature=7 7 7 5 5 5 10 5 7 0 10 5 5 7 5 5 5 10 7 5 7 0 0 0 5 0 0 0 0 10
split_gain=7.29223e+10 1.07279e+10 6.81032e+09 1.61913e+09 1.61854e+09 1.29162e+09 9.39472e+08 6.95247e+08 6.76433e+08 4.70651e+08 4.19744e+08 3.84458e+08 3.1881e+08 2.82649e+08 2.73993e+08 2.68846e+08 2.63341e+08 2.39256e+08 2.37866e+08 2.33814e+08 2.12267e+08 1.99274e+08 1.91642e+08 1.8467e+08 1.6075e+08 1.55206e+08 1.46831e+08 1.46545e+08 1.17221e+08 1.10908e+08
threshold=705.53865174299392 339.01750469924821 1102.2169549791295 6.1450000000000005 4.0750000000000011 7.8150000000000004 7.4331053894425994 7.3850000000000007 1313.47775990676 0 9.3442264752791093 9.0350000000000019 5.2750000000000012 242.85850508624506 3.2350000000000008 8.9850000000000012 7.0250000000000012 5.9618772753963603 560.74232824427497 5.6050000000000013 945.40816830184121 1 2 3 8.9250000000000025 4 5 6 7 4.820953379953381
decision_type=2 2 2 2 2 2 2 2 2 9 2 2 2 2 2 2 2 2 2 2 2 9 9 9 2 9 9 9 9 2
left_child=1 4 5 12 14 16 7 25 15 -8 11 21 -3 29 -1 -4 -2 19 -11 -15 26 -7 -19 -9 -25 -5 -12 -17 -13 -6
right_child=2 3 8 6 13 10 9 23 -10 18 20 28 -14 17 -16 27 -18 22 -20 -21 -22 -23 -24 24 -26 -27 -28 -29 -30 -31
leaf_value=-23.846559652962402 7.2358260647584078 -10.796391072022207 31.37163048099821 0.3485131501076657 -14.907231211552139 19.729489574813073 52.056063325478419 10.192497911763299 52.665524650503905 -12.129585666395801 62.92967725310146 30.608326698171652 -3.0428066995443319 -11.332727800178457 -19.19365121835822 37.922332433423712 17.816914241225216 40.481099749499499 0.52366741146073548 -2.579072281014064 26.849809940426212 29.67965828286076 -21.679923290165306 19.497497853260967 40.841362951094538 7.1251136588198776 11.651638078407103 46.359675894795181 40.929962266931483 -21.730257290072867
leaf_weight=296406 40763 90854 21991 51288 177110 30096 1379 22152 95426 35378 563 17271 127383 115765 220867 31282 55609 500 25613 41435 19513 62026 21160 34708 3928 99146 23882 64986 32357 27527
leaf_count=296406 40763 90854 21991 51288 177110 30096 1379 22152 95426 35378 563 17271 127383 115765 220867 31282 55609 500 25613 41435 19513 62026 21160 34708 3928 99146 23882 64986 32357 27527
internal_value=0 -11.7245 32.9359 0.153544 -18.21 22.7348 5.27799 8.46225 46.4021 -5.50581 27.6094 30.2569 -6.2707 -13.287 -21.8598 41.3479 13.3414 -10.3831 -6.81478 -9.02543 19.072 26.4344 -20.2361 17.4876 21.662 4.81524 12.8634 43.6268 37.3524 -15.825
internal_weight=0 1.3926e+06 495765 491829 900770 282080 273592 211222 213685 62370 185708 141750 218237 383497 517273 118259 96372 178860 60991 157200 43958 92122 21660 60788 38636 150434 24445 96268 49628 204637
internal_count=1888364 1392599 495765 491829 900770 282080 273592 211222 213685 62370 185708 141750 218237 383497 517273 118259 96372 178860 60991 157200 43958 92122 21660 60788 38636 150434 24445 96268 49628 204637
cat_boundaries=0 3 6 9 12 15 18 21 24
cat_threshold=2 0 524288 2283798916 3224446336 938856476 2 0 524288 3623879040 3601932673 813166592 2281701760 3526436289 871682076 2 0 524288 2166358016 1478584576 938988059 3355443328 3673235841 838332416
is_linear=0
shrinkage=0.1


Tree=7
num_leaves=31
num_cat=9
split_feature=7 7 7 5 5 7 5 7 7 5 7 0 5 0 5 5 7 5 0 0 0 5 5 0 5 0 5 0 0 5
split_gain=5.91363e+10 7.77048e+09 6.39544e+09 1.36301e+09 9.95322e+08 9.84516e+08 9.27404e+08 5.47614e+08 3.11288e+08 2.82146e+08 2.03444e+08 1.80724e+08 1.79971e+08 2.50927e+08 1.71146e+08 1.68348e+08 1.63014e+08 1.61587e+08 1.46192e+08 1.37679e+08 1.27348e+08 1.15455e+08 1.05614e+08 1.30074e+08 1.01425e+08 9.51119e+07 8.93672e+07 8.68941e+07 8.15972e+07 7.70029e+07
threshold=675.43715267175583 304.50936789772737 1025.4387209302329 5.6350000000000007 3.7450000000000006 1247.0786376055642 7.2250000000000005 501.50086466165419 788.59968992248071 8.7250000000000032 202.50336017282015 0 8.8750000000000018 1 4.4350000000000014 2.3550000000000004 1376.7519106986629 6.6650000000000009 2 3 4 6.0050000000000008 7.9650000000000007 5 4.7650000000000006 6 8.1150000000000002 7 8 7.3450000000000006
decision_type=2 2 2 2 2 2 2 2 2 2 2 9 2 9 2 2 2 2 9 9 9 2 2 9 2 9 2 9 9 2
left_child=1 4 6 14 15 9 21 12 27 29 -6 -10 19 -14 -3 -1 25 -9 -11 -5 -19 -2 24 -24 -12 -7 -13 -8 -16 -4
right_child=2 3 5 7 10 16 8 17 11 18 22 26 13 -15 28 -17 -18 20 -20 -21 -22 -23 23 -25 -26 -27 -28 -29 -30 -31
leaf_value=-23.763343072985354 -2.6006450812886643 -14.666912218306628 11.092590972244148 3.8313678205587838 -15.902354371555715 36.949452619687143 20.591904662311038 2.1947289654971747 18.475280066048789 30.377711904578838 -13.299913299907832 21.233896085388459 53.142430910286407 -11.622126445107389 -10.44433607922992 -19.213336104886508 49.669325385860162 13.486465938128688 38.707502846429229 -2.4927308333916494 6.1627498152831048 8.9961379202847827 53.614364915439694 -21.714225578120363 -8.8662763907672009 44.969665226602118 28.154946626208989 12.700565199830146 -5.369758841519026 26.738545911510894
leaf_weight=109305 10206 36208 3579 50915 185916 21846 20575 60899 45706 31824 94379 26027 605 22452 46543 317617 58551 36053 65700 106236 69728 54049 225 12291 113828 51592 65900 44033 99588 25988
leaf_count=109305 10206 36208 3579 50915 185916 21846 20575 60899 45706 31824 94379 26027 605 22452 46543 317617 58551 36053 65700 106236 69728 54049 225 12291 113828 51592 65900 44033 99588 25988
internal_value=0 -10.9891 28.4964 -1.51239 -17.0058 39.6843 17.6199 2.16698 20.945 33.4021 -13.4652 23.633 -1.6542 -9.90452 -8.51214 -20.3783 45.7333 6.29829 35.9964 -0.443714 8.66074 7.15415 -11.4124 -20.3341 -10.876 42.5951 26.1926 15.2188 -6.98711 24.8447
internal_weight=0 1.36279e+06 525576 529227 833561 259080 266496 346888 202241 127091 406639 137633 180208 23057 182339 426922 131989 166680 97524 157151 105781 64255 220723 12516 208207 73438 91927 64608 146131 29567
internal_count=1888364 1362788 525576 529227 833561 259080 266496 346888 202241 127091 406639 137633 180208 23057 182339 426922 131989 166680 97524 157151 105781 64255 220723 12516 208207 73438 91927 64608 146131 29567
cat_boundaries=0 3 6 9 12 15 16 19 22 25
cat_threshold=2149580800 3659606272 938995742 2 0 524288 2149842944 3626066176 938987551 131145342 23056 134742243 131202686 6704 134742112 2 2164260864 2552325248 904384542 130154366 4640 524384 2284323204 3224479168 921751580
is_linear=0
shrinkage=0.1


Tree=8
num_leaves=31
num_cat=9
split_feature=7 5 7 7 7 5 5 10 5 10 5 0 5 10 5 5 0 7 0 5 7 0 0 0 0 10 0 5 5 0
split_gain=4.79131e+10 5.99739e+09 5.56939e+09 1.29284e+09 9.26345e+08 7.25403e+08 6.92963e+08 5.82752e+08 4.01881e+08 3.43479e+08 3.85284e+08 2.87518e+08 2.76709e+08 5.59836e+08 2.81739e+08 2.35218e+08 2.04221e+08 1.87886e+08 1.81547e+08 1.7693e+08 1.36681e+08 1.31455e+08 1.30205e+08 1.30167e+08 1.16056e+08 1.07675e+08 9.85988e+07 9.7325e+07 9.34758e+07 8.52804e+07
threshold=659.74817257593099 5.0050000000000008 1002.1626282761167 442.42452212121219 1218.9795075757577 7.1850000000000014 3.4150000000000005 6.046269230769231 6.4750000000000005 8.8931790865384617 8.3150000000000031 0 6.4750000000000005 7.1488422778771623 8.0650000000000031 8.4150000000000009 1 187.16989939637827 2 10.535000000000002 788.59968992248071 3 4 5 6 9.7914263907734078 7 6.1750000000000007 2.2550000000000003 8
decision_type=2 2 2 2 2 2 2 2 2 2 2 9 2 2 2 2 9 2 9 2 2 9 9 9 9 2 9 2 2 9
left_child=1 6 5 7 15 27 28 8 22 10 23 -9 -5 14 26 -4 -15 -8 -11 -6 -20 -17 -3 -7 -12 -23 -14 -2 -1 -10
right_child=2 3 4 12 19 9 17 11 29 18 24 -13 13 16 -16 21 -18 -19 20 -21 -22 25 -24 -25 -26 -27 -28 -29 -30 -31
leaf_value=-21.723666452652896 -0.9827811074486249 -9.7026773061635723 20.181193458729972 -0.68496274509183686 35.416665791260023 10.162594525778402 -15.384737642906771 31.453722905696601 -1.2249466114865071 52.36275772956381 20.346690700454364 -16.667556949801455 3.1289307394370844 42.724908481176982 22.823590479579554 25.934962410643916 -4.93271188867869 -11.218466362212123 2.2173349305824046 42.933219421096823 13.668951863554085 36.242884575991447 -4.4491272470072207 18.437113837925097 29.050586168650369 27.656258759190237 10.245416015040947 7.9916963809115096 -18.04435714752557 8.2145420853561646
leaf_weight=94961 15815 69703 24688 105440 45357 28136 194966 1262 15320 990 24455 55774 29296 910 14706 34067 39747 243351 16966 101189 27024 47380 146183 59268 42265 21114 58208 51219 253103 25501
leaf_count=94961 15815 69703 24688 105440 45357 28136 194966 1262 15320 990 24455 55774 29296 910 14706 34067 39747 243351 16966 101189 27024 47380 146183 59268 42265 21114 58208 51219 253103 25501
internal_value=0 -10.0788 25.1734 -2.19026 35.1866 14.872 -15.717 -6.45695 -4.42548 17.9014 20.1452 -15.6002 3.20083 6.06866 10.0167 28.9444 -3.85662 -13.0717 10.2129 40.6068 9.25022 31.0538 -6.146 15.7768 25.8678 33.5911 7.86438 5.87439 -19.0482 4.67365
internal_weight=0 1.34843e+06 539933 562050 273795 266138 786381 313743 256707 199104 154124 57036 248307 142867 102210 127249 40657 438317 44980 146546 43990 102561 215886 87404 66720 68494 87504 67034 348064 40821
internal_count=1888364 1348431 539933 562050 273795 266138 786381 313743 256707 199104 154124 57036 248307 142867 102210 127249 40657 438317 44980 146546 43990 102561 215886 87404 66720 68494 87504 67034 348064 40821
cat_boundaries=0 3 6 9 12 15 18 21 24 27
cat_threshold=2 0 524288 2 0 524288 2 0 524288 2149580800 3626069248 938987550 3355443584 3492880832 871419932 2284323204 3223397824 938790940 3221488000 1521557953 838324232 3355705728 3667992960 838324248 4160749952 519119297 819449856
is_linear=0
shrinkage=0.1


Tree=9
num_leaves=31
num_cat=7
split_feature=7 7 7 7 5 5 10 5 7 10 5 0 5 0 7 7 10 0 5 0 5 5 10 5 0 5 7 0 5 0
split_gain=3.89084e+10 5.56588e+09 4.02666e+09 8.53541e+08 8.02632e+08 7.08482e+08 5.51864e+08 5.61486e+08 4.98555e+08 3.51364e+08 3.64998e+08 2.96159e+08 2.32617e+08 1.68733e+08 1.58366e+08 1.5525e+08 1.49352e+08 1.38541e+08 1.30198e+08 1.21819e+08 1.18829e+08 1.15055e+08 1.69713e+08 1.1173e+08 1.08629e+08 1.0358e+08 1.00655e+08 9.92007e+07 9.43022e+07 9.29796e+07
threshold=604.24399500660058 978.45688983769389 269.91427627715802 1218.9795075757577 5.4850000000000012 7.1050000000000013 6.8956219548872193 7.0650000000000004 129.31950290803346 8.6004606576629481 8.1650000000000009 0 8.8750000000000018 1 762.28896690213071 1363.4000249559601 9.7914263907734078 2 9.2150000000000016 3 4.3150000000000004 4.3150000000000004 5.0371383508926888 8.3150000000000031 4 5.3350000000000009 477.6894306526807 5 5.6650000000000009 6
decision_type=2 2 2 2 2 2 2 2 2 2 2 9 2 9 2 2 2 9 2 9 2 2 2 2 9 2 2 9 2 9
left_child=2 5 8 12 20 25 7 17 -1 10 24 -8 -3 -11 -15 29 -14 -6 27 -9 -4 -10 28 -21 -7 -2 -13 -12 -23 -5
right_child=1 3 4 15 6 9 11 19 21 13 18 26 16 14 -16 -17 -18 -19 -20 23 -22 22 -24 -25 -26 -27 -28 -29 -30 -31
leaf_value=-17.280242373362267 -8.2029636993094392 20.032725820358976 -12.51427688428052 27.540750304591995 -3.8972453550257087 7.9893156010691788 36.827100193100925 4.9918587039438407 -13.604689125495671 44.942744913547386 13.061643122611537 -13.385913351149913 31.518186052612329 0.25328732006377702 11.481390180367343 40.142825636085938 23.131632907168377 1.4272511001672568 29.669862590683262 12.310919621376485 -6.7267734661234506 -9.8576905276224807 -16.744255190381804 28.438635656284919 15.375293351948589 5.1628137420252438 -5.2114237244885384 22.707510632002784 -2.5811041548366749 35.545292030994261
leaf_weight=334990 6243 48371 45657 19654 74038 29559 1395 20732 232967 1189 14993 32740 60582 20934 31409 65982 32697 143696 18793 28124 159106 135825 33527 5070 61550 81347 27899 37887 20498 60910
leaf_count=334990 6243 48371 45657 19654 74038 29559 1395 20732 232967 1189 14993 32740 60582 20934 31409 65982 32697 143696 18793 28124 159106 135825 33527 5070 61550 81347 27899 37887 20498 60910
internal_value=0 21.2395 -9.70051 31.1957 -3.08856 11.7979 -0.0641948 1.87912 -14.3986 14.8703 17.1815 -8.57439 25.6603 7.84227 6.98951 36.5461 28.5785 -0.383398 22.5203 11.0144 -8.01725 -12.1155 -10.2882 14.7699 12.9816 4.21016 -9.62339 19.9794 -8.90354 33.6004
internal_weight=0 592100 1.29626e+06 288196 538457 303904 333694 271660 757807 216314 162782 62034 141650 53532 52343 146546 93279 217734 71673 53926 204763 422817 189850 33194 91109 87590 60639 52880 156323 80564
internal_count=1888364 592100 1296264 288196 538457 303904 333694 271660 757807 216314 162782 62034 141650 53532 52343 146546 93279 217734 71673 53926 204763 422817 189850 33194 91109 87590 60639 52880 156323 80564
cat_boundaries=0 3 6 9 12 15 18 21
cat_threshold=2 0 524288 2 0 524288 2283798912 3492881857 871682076 3623879040 1588797889 813101056 2282488196 3224446336 938790940 3355705728 1084301696 879804444 2164260864 404774912 937906202
is_linear=0
shrinkage=0.1


Tree=10
num_leaves=31
num_cat=13
split_feature=5 5 5 11 5 5 5 5 11 0 0 0 0 11 0 0 0 0 0 1 11 0 0 0 9 5 0 2 2 2
split_gain=2.83417e+10 2.80836e+09 2.55587e+09 1.25998e+09 3.98105e+08 3.77911e+08 3.47553e+08 2.49754e+08 2.06915e+08 1.80253e+08 1.75122e+08 1.72194e+08 1.42689e+08 1.38216e+08 1.36684e+08 1.35508e+08 1.2018e+08 9.0569e+07 8.84363e+07 8.31892e+07 8.16841e+07 7.87062e+07 7.5122e+07 7.05969e+07 7.01645e+07 6.51493e+07 5.09719e+07 4.18237e+07 4.1009e+07 4.88212e+07
threshold=6.745000000000001 4.7350000000000012 8.8750000000000018 0.88432835820895528 7.8650000000000011 5.7250000000000005 3.3250000000000006 10.015000000000002 0.86194029850746279 0 1 2 3 0.8544776119402987 4 5 6 7 8 0.55543802234893513 0.92910447761194048 9 10 11 20.812500000000004 2.1450000000000005 12 -0.75166088996455105 -0.48087430661751701 0.971110916704501
decision_type=2 2 2 2 2 2 2 2 2 9 9 9 9 2 9 9 9 9 9 2 2 9 9 9 2 2 9 2 2 2
left_child=1 6 4 11 9 16 25 14 -6 -2 -10 -4 17 -11 -5 -7 -3 -9 -15 24 -8 -12 -14 -17 -16 -1 -22 -19 -24 -30
right_child=2 5 3 7 8 15 20 12 10 13 21 -13 22 18 19 23 -18 27 -20 -21 26 -23 28 -25 -26 -27 -28 -29 29 -31
leaf_value=-18.193473204054097 0.35766562511754552 -9.0838117890836525 40.368378318682048 12.893944454248212 -1.8340458096909895 3.0013189471587651 -13.536201380418099 43.823453215637699 7.0276852013886248 -5.0354659487871078 19.803658589666284 3.5359737975715371 17.33947122787826 12.09524372755606 4.2232868694287777 -6.8437411110993285 -4.5013262045713338 23.769183085805317 7.1065585273209635 26.046931893630319 -12.282910440485175 14.298136465461281 22.133537276907575 -1.1527353356945109 20.526732975270768 -14.893192432740305 -9.3948879115957507 30.088964772732592 27.092117812909272 19.41556722588534
leaf_weight=79159 34511 85377 1305 20394 7866 76784 113033 4386 23489 7377 44429 36705 14374 56998 2763 26581 173868 12985 94792 32497 91531 63520 34175 120997 59194 244806 186195 54157 74798 9318
leaf_count=79159 34511 85377 1305 20394 7866 76784 113033 4386 23489 7377 44429 36705 14374 56998 2763 26581 173868 12985 94792 32497 91531 63520 34175 120997 59194 244806 186195 54157 74798 9318
internal_value=0 -9.29563 16.1453 22.0226 9.84311 -3.41044 -13.2778 24.073 13.9202 6.91066 14.863 4.8122 26.1714 8.33095 20.3423 -0.405542 -6.011 29.7859 8.98111 21.9468 -11.2699 16.5657 24.2184 -2.17817 19.7997 -15.6996 -10.3475 28.8625 25.0528 26.2418
internal_weight=0 1.19833e+06 690033 357051 332982 483607 714724 319041 139304 193678 131438 38010 204193 159167 114848 224362 259245 71528 151790 94454 390759 107949 132665 147578 61957 323965 277726 67142 118291 84116
internal_count=1888364 1198331 690033 357051 332982 483607 714724 319041 139304 193678 131438 38010 204193 159167 114848 224362 259245 71528 151790 94454 390759 107949 132665 147578 61957 323965 277726 67142 118291 84116
cat_boundaries=0 3 6 9 12 15 18 21 24 27 30 33 36 39
cat_threshold=2281701760 2171264 273727512 2281701760 2171264 810598408 2 0 2621440 115596914 101193257 134750284 2281701760 2171136 810668032 122690074 554455614 134754051 3358097796 3224446400 852545564 2 0 524288 122755608 554439230 134745857 106011194 558633534 134745857 2147483648 134225920 805634048 2147484032 2171264 269484040 3358097796 3491866048 869318684
is_linear=0
shrinkage=0.1


Tree=11
num_leaves=31
num_cat=9
split_feature=7 7 7 7 5 10 5 5 10 7 0 10 5 5 0 0 5 0 7 5 0 7 0 0 0 7 5 0 5 5
split_gain=2.66035e+10 4.05179e+09 2.40829e+09 6.20686e+08 4.98849e+08 6.05544e+08 4.61511e+08 3.05484e+08 2.86852e+08 2.37926e+08 2.18851e+08 2.10042e+08 2.91775e+08 1.72315e+08 1.4393e+08 1.15826e+08 1.15341e+08 1.12017e+08 1.04256e+08 1.02458e+08 1.0148e+08 9.23798e+07 8.99244e+07 8.93413e+07 8.53394e+07 8.481e+07 8.21275e+07 7.87129e+07 7.49635e+07 7.30432e+07
threshold=721.6370436730125 358.92268841832328 1128.9376871023717 158.28281962864725 6.1750000000000007 7.4858554077501456 8.0150000000000023 7.6350000000000007 9.3442264752791093 1349.6700273079634 0 5.6785395585537612 5.245000000000001 9.3950000000000014 1 2 6.5850000000000009 3 80.431098484848505 4.7950000000000008 4 932.38366996276648 5 6 7 577.53652255639111 6.3950000000000005 8 9.0350000000000019 4.1350000000000007
decision_type=2 2 2 2 2 2 2 2 2 2 9 2 2 2 9 9 2 9 2 2 9 2 9 9 9 2 2 9 2 2
left_child=1 3 6 18 19 7 16 23 13 15 -7 12 29 17 -13 -4 -2 -8 -1 -3 -10 -22 -9 -6 -18 -12 -14 -21 -24 -5
right_child=2 4 9 11 5 10 8 22 20 -11 25 14 26 -15 -16 -17 24 -19 -20 27 21 -23 28 -25 -26 -27 -28 -29 -30 -31
leaf_value=-15.475308972795165 1.9396431777121219 -8.0656106721500791 21.853100231789377 -10.808619548430215 -0.90830778714249583 34.013611921016178 12.780925925251266 7.1762440430216037 41.147021126997736 33.264468424785171 -9.3129925436949001 23.23475176698679 -4.52551529218018 25.90310343345509 -15.886214570916184 28.291626884778452 14.568496708654374 20.097294075024323 -12.284410322807025 0.72374984996956881 5.1609972857610957 14.196635228725047 14.43488607711695 5.0597989614835335 8.1154266914846822 -1.8098742637054686 2.5471073078817494 -3.8539208352327692 29.555255585715798 -7.8742811996910866
leaf_weight=163506 18495 35464 42927 148607 30952 1382 31377 16924 1065 73328 35053 955 92355 34911 41951 82754 33741 63848 273969 60385 20998 24538 26852 132330 52518 26419 19968 99379 3735 197678
leaf_count=163506 18495 35464 42927 148607 30952 1382 31377 16924 1065 73328 35053 955 92355 34911 41951 82754 33741 63848 273969 60385 20998 24538 26852 132330 52518 26419 19968 99379 3735 197678
internal_value=0 -6.93334 20.3178 -10.7242 0.658454 3.41352 14.3652 5.98223 17.4825 28.7377 -5.20116 -8.32296 -7.69699 19.8933 -15.0137 26.0965 9.10575 17.69 -13.477 -3.20326 10.7501 10.0279 13.0395 3.92873 10.6422 -6.08737 -3.26819 -2.12392 16.276 -9.13355
internal_weight=0 1.40786e+06 480500 938989 468875 273647 281491 210793 176737 199009 62854 501514 458608 130136 42906 125681 104754 95225 437475 195228 46601 45536 47511 163282 86259 61472 112323 159764 30587 346285
internal_count=1888364 1407864 480500 938989 468875 273647 281491 210793 176737 199009 62854 501514 458608 130136 42906 125681 104754 95225 437475 195228 46601 45536 47511 163282 86259 61472 112323 159764 30587 346285
cat_boundaries=0 3 6 9 12 15 18 21 24 27
cat_threshold=2 0 524288 2 0 524288 2164260864 1478585600 938987582 2282488192 3223414144 905433116 2 0 524288 3355467904 3602063745 809234432 2147484032 2171264 816893976 123025936 692851262 134745857 122960400 562844223 134745857
is_linear=0
shrinkage=0.1


Tree=12
num_leaves=31
num_cat=10
split_feature=7 7 7 7 5 10 5 5 5 10 10 5 0 5 0 7 7 0 5 5 0 0 0 0 0 5 0 0 7 5
split_gain=2.15633e+10 3.37207e+09 1.87191e+09 5.18621e+08 4.13795e+08 4.71462e+08 3.12459e+08 2.81837e+08 2.57758e+08 1.89966e+08 1.84868e+08 2.37849e+08 1.79916e+08 1.51847e+08 1.15395e+08 1.06982e+08 1.06828e+08 9.43718e+07 9.36555e+07 8.05524e+07 8.03844e+07 7.87456e+07 7.81632e+07 7.41485e+07 7.1491e+07 7.07085e+07 7.06803e+07 6.95582e+07 6.95361e+07 6.30577e+07
threshold=730.16597084313855 362.84809979494196 1102.2169549791295 173.54435221837377 6.1050000000000013 7.5294792429792432 7.7650000000000006 7.3450000000000006 9.7050000000000018 9.3442264752791093 5.596423752884788 5.3650000000000011 0 9.1550000000000029 1 95.810250000000011 1408.3517161598095 2 8.9250000000000025 4.1350000000000007 3 4 5 6 7 6.5850000000000009 8 9 577.53652255639111 4.4050000000000011
decision_type=2 2 2 2 2 2 2 2 2 2 2 2 9 2 9 2 2 9 2 2 9 9 9 9 9 2 9 9 2 2
left_child=1 3 6 15 19 7 26 23 24 13 11 29 -7 17 -12 -1 20 -8 22 -3 -10 -11 -9 -6 -4 -13 -2 -21 -14 -5
right_child=2 4 8 10 5 12 9 18 16 21 14 25 28 -15 -16 -17 -18 -19 -20 27 -22 -23 -24 -25 -26 -27 -28 -29 -30 -31
leaf_value=-13.539198459422209 2.7518049168558774 -11.172097561458846 23.802592947364783 -9.2203141611064101 5.8793948802062062 30.777237977054753 18.867864995730073 -0.84449218911955004 29.270514710925053 37.576658807474161 20.038517181511715 -3.2678976350015478 -8.3208651465815748 21.883411831549566 -13.961433106599783 -10.561911980068162 31.666213786427807 12.345802672067036 20.754267995263032 -5.5102735781001666 23.84248586282196 8.4337493795536282 10.414848242117611 1.2590197748307188 16.175894506143333 4.3811707414372822 9.4056098337857694 -1.1093928270290399 -1.6127962791911654 -6.3948165012847618
leaf_weight=215913 22213 11312 20803 160923 52941 1405 34640 6931 43816 941 1014 80370 34162 41820 44880 273664 42731 62457 7863 51742 75553 40225 56265 101010 30782 14224 57005 117413 28217 155129
leaf_count=215913 22213 11312 20803 160923 52941 1405 34640 6931 43816 941 1014 80370 34162 41820 44880 273664 42731 62457 7863 51742 75553 40225 56265 101010 30782 14224 57005 117413 28217 155129
internal_value=0 -6.17652 18.4861 -9.61406 0.754173 3.10159 12.7752 5.25281 25.4161 15.0776 -7.18954 -6.51682 -4.48723 16.8456 -13.2089 -11.875 27.3754 14.6758 10.4621 -3.0023 25.8394 9.11118 9.1815 2.84835 19.2594 -2.11771 7.5414 -2.45595 -5.28565 -7.83347
internal_weight=0 1.41538e+06 472986 946117 469261 288794 259301 225010 213685 180083 456540 410646 63784 138917 45894 489577 162100 97097 71059 180467 119369 41166 63196 153951 51585 94594 79218 169155 62379 316052
internal_count=1888364 1415378 472986 946117 469261 288794 259301 225010 213685 180083 456540 410646 63784 138917 45894 489577 162100 97097 71059 180467 119369 41166 63196 153951 51585 94594 79218 169155 62379 316052
cat_boundaries=0 3 6 9 12 15 18 21 24 27 30
cat_threshold=2 0 524288 2 0 524288 122796600 621580862 134219329 650371058 101323305 134743104 2 0 524288 1073741952 2105600 269500416 122763832 554439230 134221603 1108851216 633868863 134221569 2292712910 2174400 919638044 2284323276 3223430592 919654428
is_linear=0
shrinkage=0.1


Tree=13
num_leaves=31
num_cat=13
split_feature=7 7 7 5 5 5 5 7 7 7 5 0 5 0 11 5 0 0 5 0 0 0 0 0 6 7 0 0 0 0
split_gain=1.74668e+10 2.74187e+09 1.5344e+09 4.6473e+08 3.2885e+08 3.12668e+08 1.48273e+08 1.42715e+08 1.38765e+08 1.35772e+08 8.85271e+07 8.80055e+07 8.54868e+07 1.01931e+08 7.98228e+07 7.33928e+07 9.22662e+07 7.26232e+07 7.23669e+07 7.22578e+07 6.72899e+07 6.71461e+07 6.20726e+07 6.06784e+07 5.81854e+07 4.99645e+07 4.75786e+07 4.74104e+07 4.66632e+07 4.4491e+07
threshold=730.16597084313855 376.83819924812036 1153.9020301295398 3.8650000000000007 8.0650000000000031 6.2150000000000007 10.375000000000002 911.07790659340674 554.14712297392543 239.57919904723644 6.785000000000001 0 8.4650000000000016 1 0.86940298507462688 8.8750000000000018 2 3 5.3050000000000006 4 5 6 7 8 -10.504999999999997 1421.3168384615387 9 10 11 12
decision_type=2 2 2 2 2 2 2 2 2 2 2 9 2 9 2 2 9 9 2 9 9 9 9 9 2 2 9 9 9 9
left_child=1 3 4 14 10 18 17 22 15 24 -2 -9 19 -14 -1 28 -17 -4 -3 -11 -10 -8 -6 -12 -5 -23 -26 -20 -7 -13
right_child=2 5 6 9 7 8 21 11 20 12 23 29 13 -15 -16 16 -18 -19 27 -21 -22 25 -24 -25 26 -27 -28 -29 -30 -31
leaf_value=-12.226287441820633 2.2397265241361448 -4.9272125687141823 14.868988501777791 -21.356665504429454 17.43126108591651 5.2513316020167444 17.69238609063737 20.48472873693801 9.2896282049660979 -1.9850099356891484 4.9449227227851891 3.8538260881353374 36.78677133734903 -13.331790627413435 -9.6020083163770273 28.298824848731599 -5.4165974104710912 22.156028401210015 -3.7818062072420982 -5.6195687313757654 4.073999836033571 25.168243833915824 9.4982252351150098 10.941084788148295 -5.9910742663497087 29.853243385213773 -8.9650914263528634 0.61066242967459283 0.49541872519728802 15.260879664464779
leaf_weight=216162 23638 65821 20177 3283 12095 29031 9547 41084 32002 82759 23917 3617 408 15250 249914 831 23460 43865 35761 161536 109223 79106 54383 57812 81768 31967 158417 78491 71261 71778
leaf_count=216162 23638 65821 20177 3283 12095 29031 9547 41084 32002 82759 23917 3617 408 15250 249914 831 23460 43865 35761 161536 109223 79106 54383 57812 81768 31967 158417 78491 71261 71778
internal_value=0 -5.55884 16.6379 -8.54369 12.0797 0.931252 23.7549 14.6426 3.11083 -6.43705 7.62949 16.7526 -4.84772 -12.0106 -10.8191 0.678162 -4.25365 19.866 -2.28605 -4.38861 5.25683 25.8197 10.9456 9.18833 -8.13399 26.5142 -7.95325 -0.764465 1.87266 14.7142
internal_weight=0 1.41538e+06 472986 969497 288324 445881 184662 182957 265808 503421 105367 116479 259953 15658 466076 124583 24291 64042 180073 244295 141225 120620 66478 81729 243468 111073 240185 114252 100292 75395
internal_count=1888364 1415378 472986 969497 288324 445881 184662 182957 265808 503421 105367 116479 259953 15658 466076 124583 24291 64042 180073 244295 141225 120620 66478 81729 243468 111073 240185 114252 100292 75395
cat_boundaries=0 3 6 9 12 15 18 21 24 27 30 33 36 39
cat_threshold=113377146 84415022 134743360 2 0 524288 2 0 2621440 2829058444 2188544 913690686 131079806 554457626 134217953 130095742 528896 524321 0 134242432 805634048 71309950 4096 524352 2150106566 3223397824 922009628 131209854 553671224 134750433 2284454340 3223397824 921751580 130095742 6672 134742115 0 2105344 268435456
is_linear=0
shrinkage=0.1


Tree=14
num_leaves=31
num_cat=12
split_feature=7 7 7 7 5 5 7 5 0 7 0 0 0 7 0 0 5 0 5 5 5 0 0 0 7 5 0 5 6 0
split_gain=1.41712e+10 2.46688e+09 1.04153e+09 3.92302e+08 2.87681e+08 2.19859e+08 1.24306e+08 1.2317e+08 1.07763e+08 9.56214e+07 7.85928e+07 7.16975e+07 6.89851e+07 6.8249e+07 6.57277e+07 6.54948e+07 6.52693e+07 7.75456e+07 5.0256e+07 4.77395e+07 4.49043e+07 4.28191e+07 4.15941e+07 4.13391e+07 4.09353e+07 4.06189e+07 3.99867e+07 3.95303e+07 3.85897e+07 3.76539e+07
threshold=762.28896690213071 381.67130513291107 1153.9020301295398 195.04803403858486 6.285000000000001 8.0650000000000031 560.74232824427497 9.8250000000000011 0 97.464255141559846 1 2 3 945.40816830184121 4 5 8.8750000000000018 6 8.4150000000000009 4.5850000000000009 4.5550000000000006 7 8 9 1349.6700273079634 7.0650000000000004 10 5.3950000000000005 15.110000000000001 11
decision_type=2 2 2 2 2 2 2 2 9 2 9 9 9 2 9 9 2 9 2 2 2 9 9 9 2 2 9 2 2 9
left_child=1 3 5 9 14 15 16 23 -7 -1 20 21 -8 -10 -3 -2 22 -18 19 -12 -5 -9 -6 -4 -13 -17 -15 -16 29 -14
right_child=2 4 7 10 6 8 12 11 13 -11 18 24 28 26 27 25 17 -19 -20 -21 -22 -23 -24 -25 -26 -27 -28 -29 -30 -31
leaf_value=-11.000789538521026 10.789994751708868 0.4834755811174789 11.116295379198124 -5.8336368687601547 -2.4094524087501568 18.378700900284922 2.0877076180037193 -0.77774429359641761 9.5356696305836461 -8.3259975629034866 -7.8072729645548611 22.189264151267835 10.878161947282162 10.505836064641549 -5.7474712485274413 0.92344610031739549 25.626295442540481 -4.8165003633084931 -12.590946562202907 -5.0190674383759672 -2.1510782681537388 19.476969906452361 2.9557284927082712 18.418993720361211 26.088026341860967 7.0227696733827445 15.506069743836253 -1.9106945227598615 -52.397373507110842 5.743496111377663
leaf_weight=222885 34817 73040 10669 51377 17695 37291 52947 1084 53812 333841 97349 56533 17044 22290 43101 15656 857 24137 12288 166335 93142 35251 78662 29681 51444 36083 58598 71235 111 89109
leaf_count=222885 34817 73040 10669 51377 17695 37291 52947 1084 53812 333841 97349 56533 17044 22290 43101 15656 857 24137 12288 166335 93142 35251 78662 29681 51444 36083 58598 71235 111 89109
internal_value=0 -4.79655 15.6437 -7.65556 1.17406 11.5468 3.20036 21.3797 13.6155 -9.39685 -5.3501 22.7454 5.03803 12.2945 -1.85996 7.43616 0.789361 -3.76425 -6.33953 -6.04844 -3.46 18.8727 1.97052 16.4954 24.0446 5.17615 14.1314 -3.35675 6.50724 6.5695
internal_weight=0 1.44516e+06 443209 977217 467938 258547 280562 184662 171991 556726 420491 144312 159211 134700 187376 86556 121351 24994 275972 263684 144519 36335 96357 40350 107977 51739 80888 114336 106264 106153
internal_count=1888364 1445155 443209 977217 467938 258547 280562 184662 171991 556726 420491 144312 159211 134700 187376 86556 121351 24994 275972 263684 144519 36335 96357 40350 107977 51739 80888 114336 106264 106153
cat_boundaries=0 3 6 9 12 15 18 21 24 27 30 33 36
cat_threshold=104963706 528896 524352 131341950 554195480 134742241 2281701388 3626066048 837242880 1076101248 3667927297 938995736 89405968 600592927 134745857 106281488 768086559 134743809 2 0 2621440 0 0 268435456 1073741952 262152449 274190336 2292712910 2150720896 911573016 2147483648 136405248 838193176 4201018 4096 524288
is_linear=0
shrinkage=0.1


Tree=15
num_leaves=31
num_cat=0
split_feature=7 7 7 7 5 10 5 5 10 5 5 10 5 10 5 11 7 5 5 5 6 5 7 5 6 11 5 5 5 5
split_gain=1.14984e+10 1.79382e+09 1.11857e+09 3.0975e+08 2.16478e+08 3.56096e+08 2.66672e+08 1.8469e+08 2.89732e+08 1.49168e+08 1.46934e+08 9.47711e+07 9.39337e+07 1.59351e+08 7.33683e+07 6.19001e+07 6.58782e+07 6.08203e+07 5.90701e+07 5.39972e+07 5.29258e+07 5.24614e+07 4.68086e+07 4.62564e+07 4.60845e+07 4.56537e+07 4.43561e+07 4.35953e+07 4.11073e+07 3.74616e+07
threshold=596.50161205074005 955.6167803030304 267.09431793478262 1247.0786376055642 5.3650000000000011 6.733847117794487 7.2650000000000006 7.0650000000000004 8.3684134615384647 8.8750000000000018 3.2950000000000004 4.9542900763358784 9.0950000000000006 10.026469824789098 5.4850000000000012 0.89179104477611959 805.75064409069557 6.5450000000000008 10.375000000000002 10.925000000000002 -10.504999999999997 8.4150000000000009 491.04057144817182 5.0650000000000004 10.915000000000001 0.87686567164179119 7.2650000000000006 8.0150000000000023 3.9850000000000008 2.0250000000000004
decision_type=2 2 2 2 2 2 2 2 2 2 2 2 2 2 2 2 2 2 2 2 2 2 2 2 2 2 2 2 2 2
left_child=2 7 10 12 28 6 17 23 9 27 29 14 26 18 20 -10 -17 -6 -14 -5 -12 -8 25 -2 -22 -7 -3 -9 -4 -1
right_child=1 3 4 19 5 22 21 8 15 -11 11 -13 13 -15 -16 16 -18 -19 -20 -21 24 -23 -24 -25 -26 -27 -28 -29 -30 -31
leaf_value=-11.698143045549429 -8.2261898640825208 3.0667177804355665 -8.1164774788727083 17.887451373074668 -0.89836813035266339 -5.2821041069041783 7.2911745771052843 7.0251746083035904 7.7578911081610729 16.934667652595405 -16.925338641136172 -11.518014884776841 17.051937188289404 10.53419590249403 -1.2389287230662633 -4.0536351760506735 3.5558315626195824 2.7872634480701342 23.782231301087901 22.06345433293329 -6.3243906274722121 17.008134387843036 -3.893239802726673 2.5710707648018385 -16.959188708327357 -12.254936702495478 11.984616760900076 10.874216400708718 -3.9611662068847973 -8.9440705049284528
leaf_weight=61861 4166 6121 27961 49620 186527 16666 30518 79826 12484 24741 4878 36726 48941 35261 27631 22412 23107 58916 17779 82369 370169 6793 29230 83340 4120 21508 62806 46608 160267 245012
leaf_count=61861 4166 6121 27961 49620 186527 16666 30518 79826 12484 24741 4878 36726 48941 35261 27631 22412 23107 58916 17779 82369 370169 6793 29230 83340 4120 21508 62806 46608 160267 245012
internal_value=0 11.4413 -5.32157 16.8546 -1.84349 -0.373308 1.1837 5.9146 7.52835 9.83364 -7.81698 -6.65302 14.0444 15.9717 -6.2138 1.52 -0.19081 -0.0136704 18.8454 20.4935 -6.57634 9.06033 -6.90481 2.05702 -6.44146 -9.21076 11.1927 8.44407 -4.57844 -9.49925
internal_weight=0 599581 1.28878e+06 302897 538386 350158 282754 296684 209178 151175 750397 443524 170908 101981 406798 58003 45519 245443 66720 131989 379167 37311 67404 87506 374289 38174 68927 126434 188228 306873
internal_count=1888364 599581 1288783 302897 538386 350158 282754 296684 209178 151175 750397 443524 170908 101981 406798 58003 45519 245443 66720 131989 379167 37311 67404 87506 374289 38174 68927 126434 188228 306873
is_linear=0
shrinkage=0.1


Tree=16
num_leaves=31
num_cat=10
split_feature=7 7 7 7 10 5 5 10 5 10 0 5 5 0 5 0 0 5 0 0 11 7 0 6 0 0 0 10 1 5
split_gain=9.33266e+09 1.63567e+09 6.88556e+08 2.96389e+08 1.82811e+08 4.06739e+08 1.64432e+08 1.61239e+08 1.62019e+08 1.53172e+08 1.23898e+08 1.18285e+08 9.70731e+07 8.87202e+07 8.74099e+07 8.49103e+07 8.02978e+07 7.95172e+07 6.479e+07 6.16887e+07 6.08446e+07 5.95112e+07 5.92994e+07 5.82116e+07 5.75955e+07 5.75812e+07 5.31048e+07 5.10951e+07 4.72508e+07 4.66054e+07
threshold=762.28896690213071 399.02592594818776 1179.3142680395019 216.2793402306649 7.662878787878789 7.0650000000000004 8.1150000000000002 5.7641536458333347 6.1750000000000007 9.653604845446953 0 9.7050000000000018 8.2650000000000023 1 5.5750000000000011 2 3 2.7950000000000004 4 5 0.88432835820895528 1338.5648541128942 6 -9.5549999999999979 7 8 9 4.5914730006835276 0.19504389580251663 4.705000000000001
decision_type=2 2 2 2 2 2 2 2 2 2 9 2 2 9 2 9 9 2 9 9 2 2 9 2 9 9 9 2 2 2
left_child=1 3 6 17 5 14 24 8 19 11 -6 15 25 -9 -3 -8 -4 -1 -16 -5 -12 -18 -11 -19 -2 -7 -14 -25 -17 -21
right_child=2 4 16 7 10 12 9 13 -10 22 20 -13 26 -15 18 28 21 23 -20 29 -22 -23 -24 27 -26 -27 -28 -29 -30 -31
leaf_value=-9.2141007927622489 9.1810375631886796 -2.866845085453134 10.49390871293453 -5.9715190983913624 25.279392727758264 -0.68815084399907922 4.6555841832594167 18.931067269956625 3.020460121665153 29.898161137728085 0.56835138208536939 18.335011282455621 6.7857418138899739 -9.9900915917317263 -1.6430490869412506 10.59609272849373 16.497116858413793 -14.502933106955588 2.3740839020808178 -4.6627342739483479 -6.3034935178448182 20.414141957107745 5.7374859561557372 -6.3238681382146105 4.0647457768453554 6.6543362825771526 16.301475849386534 -11.654374195233181 15.264501477743167 -1.6092268515664914
leaf_weight=185103 36930 78491 14288 101234 1433 12552 15975 1077 37391 1031 17977 31871 9558 47526 58543 50834 81714 9438 127741 89061 45486 73841 44339 402599 54580 71816 15382 18823 37806 113924
leaf_count=185103 36930 78491 14288 101234 1433 12552 15975 1077 37391 1031 17977 31871 9558 47526 58543 50834 81714 9438 127741 89061 45486 73841 44339 402599 54580 71816 15382 18823 37806 113924
internal_value=0 -3.89242 12.6952 -6.11458 1.20095 2.05092 9.58836 -3.95822 -3.19148 11.3281 -3.69858 13.0014 7.18292 -9.34735 -0.067739 11.3765 17.6957 -7.48063 1.11167 -3.95498 -4.35624 18.3553 6.29444 -6.73591 6.13094 5.56265 12.664 -6.56196 12.5858 -2.94883
internal_weight=0 1.44516e+06 443209 1.00618e+06 438979 374083 273366 390213 341610 181856 64896 136486 109308 48603 264775 104615 169843 615963 186284 304219 63463 155555 45370 430860 91510 84368 24940 421422 88640 202985
internal_count=1888364 1445155 443209 1006176 438979 374083 273366 390213 341610 181856 64896 136486 109308 48603 264775 104615 169843 615963 186284 304219 63463 155555 45370 430860 91510 84368 24940 421422 88640 202985
cat_boundaries=0 3 6 9 12 15 18 21 24 27 30
cat_threshold=2 0 524288 2 0 524288 2147484032 2171136 812695560 0 134242304 809828352 2284323270 1075914176 938528796 2283798916 3491833280 938790940 2 0 524288 72694288 768348735 528129 2147484032 2171136 269500424 3623903616 2545360897 807399424
is_linear=0
shrinkage=0.1


Tree=17
num_leaves=31
num_cat=11
split_feature=5 5 5 11 0 0 0 5 11 5 0 0 0 0 0 1 2 11 0 0 8 9 0 2 5 9 8 8 10 1
split_gain=6.63102e+09 6.44516e+08 6.40803e+08 2.22103e+08 1.71237e+08 1.33404e+08 1.12101e+08 1.06496e+08 8.75438e+07 8.58314e+07 7.64027e+07 7.39959e+07 6.7535e+07 5.00065e+07 4.37385e+07 3.95401e+07 3.87359e+07 3.87051e+07 3.22294e+07 3.06551e+07 3.05944e+07 4.33354e+07 2.86285e+07 2.79027e+07 2.7409e+07 2.63268e+07 3.76986e+07 2.9442e+07 2.48565e+07 2.47296e+07
threshold=6.6650000000000009 4.5550000000000006 8.9850000000000012 0.91417910447761208 0 1 2 7.4250000000000007 0.92910447761194048 5.5450000000000008 3 4 5 6 7 0.32136297141497111 -0.5 0.84701492537313439 8 9 24.962500000000002 30.527500000000007 10 0.42261826174069955 10.535000000000002 35.627500000000005 28.265000000000004 35.522500000000015 7.872237924865833 -0.2376293295203116
decision_type=2 2 2 2 9 9 9 2 2 2 9 9 9 9 9 2 2 2 9 9 2 2 9 2 2 2 2 2 2 2
left_child=1 8 4 10 -2 -3 13 18 -1 19 -4 15 -8 -5 -11 23 -14 -13 -6 -7 -18 -22 -10 -9 -15 26 -23 -27 -12 -28
right_child=2 5 3 6 7 9 12 11 22 14 28 17 16 24 -16 -17 20 -19 -20 -21 21 25 -24 -25 -26 27 29 -29 -30 -31
leaf_value=-7.8264544922793808 -3.4384212352747507 -5.9579982464970165 26.124279689094493 0.50817782830275027 5.139219871118339 -0.40513929250914943 18.103395572947338 5.3092830061027056 -6.8752696794980768 2.9943247555447345 20.342973392349098 -1.933358773691374 10.131252015163271 7.5575893091929167 -0.57052788151859002 12.105676315856416 15.510812563769671 5.6962373806561404 1.8675513952656808 -3.2402134983593309 -5.3085911728415347 12.575603524873461 -4.9110613638256773 10.275204975285442 11.157824399895169 14.885337791985075 10.539969215778545 9.6187139675170048 2.9787761224669005 -0.1067693999986547
leaf_weight=320455 23932 70968 1513 6722 47517 48361 23309 26826 108560 42853 841 7020 54202 39669 174669 29108 42611 125845 82286 180687 1384 17590 236009 19569 45290 46458 3894 13759 41496 4961
leaf_count=320455 23932 70968 1513 6722 47517 48361 23309 26826 108560 42853 841 7020 54202 39669 174669 29108 42611 125845 82286 180687 1384 17590 236009 19569 45290 46458 3894 13759 41496 4961
internal_value=0 -4.57724 7.67117 10.7639 4.73558 -1.93086 11.7361 5.314 -6.63672 -1.29071 4.11648 6.71479 13.02 8.81834 0.13188 9.21532 12.3781 5.29272 3.06575 -2.64178 13.3111 12.2466 -5.53025 7.40388 9.4757 12.5269 9.89673 13.682 3.32297 4.57522
internal_weight=0 1.18256e+06 705802 343699 362103 517538 299849 338171 665024 446570 43850 208368 208168 91681 217522 75503 184859 132865 129803 229048 130657 88046 344569 46395 84959 86662 26445 60217 42337 8855
internal_count=1888364 1182562 705802 343699 362103 517538 299849 338171 665024 446570 43850 208368 208168 91681 217522 75503 184859 132865 129803 229048 130657 88046 344569 46395 84959 86662 26445 60217 42337 8855
cat_boundaries=0 3 6 9 12 15 18 21 24 27 30 33
cat_threshold=128 2105600 269484032 2147484032 2171328 269484056 3372220544 2552324544 838324224 2 0 2621440 89233946 558404158 134745635 6690 4096 524288 0 8192 268435456 5247504 554177052 134218241 122755610 554439198 134753187 5247506 554177050 134217793 3894444492 1345430976 852496412
is_linear=0
shrinkage=0.1


Tree=18
num_leaves=31
num_cat=11
split_feature=5 5 5 11 0 0 0 5 5 5 0 11 0 0 0 6 6 6 0 0 5 10 1 0 1 6 10 0 5 1
split_gain=5.37276e+09 5.41297e+08 5.04783e+08 1.77163e+08 1.44774e+08 1.0534e+08 9.07682e+07 8.63082e+07 8.35152e+07 6.4724e+07 6.19534e+07 6.16258e+07 5.26311e+07 5.1794e+07 4.03418e+07 3.96653e+07 3.93161e+07 3.80942e+07 3.59287e+07 3.57817e+07 3.336e+07 5.07748e+07 3.42362e+07 3.23207e+07 3.17681e+07 3.17337e+07 3.00564e+07 2.94299e+07 2.77218e+07 2.68141e+07
threshold=6.705000000000001 4.6750000000000007 9.0950000000000006 0.91417910447761208 0 1 2 3.3550000000000004 7.6350000000000007 5.6050000000000013 3 0.84701492537313439 4 5 6 -5.9949999999999992 -6.2649999999999988 -14.444999999999999 7 8 10.615 10.276844129554657 0.59116893267988357 9 0.36235178784537941 -10.504999999999997 5.9936742424242428 10 2.0850000000000004 -0.19504389580251705
decision_type=2 2 2 2 9 9 9 2 2 2 9 2 9 9 9 2 2 2 9 9 2 2 2 9 2 2 2 9 2 2
left_child=1 7 4 10 27 -3 18 28 16 -7 -4 26 -13 -8 -9 -11 -6 -15 -5 -17 22 -22 -19 -18 -14 -12 -10 -2 -1 -23
right_child=2 5 3 6 8 9 13 14 11 15 25 12 24 17 -16 19 23 20 -20 -21 21 29 -24 -25 -26 -27 -28 -29 -30 -31
leaf_value=-8.7969017818476356 0.98239021313694741 -5.5868314618822374 23.778412790106941 20.709609040172339 -4.0140851552590053 -2.2304366689289026 0.68694393626977113 -6.2835288011315926 20.933576951753789 -5.5758905424254834 -28.088052680390515 10.356468220963045 4.8891205225067011 -68.498444080205218 -4.0631594739639194 3.0355271416356828 6.5034536735565176 7.1348548368417672 12.814784715058966 -0.16832293516651486 15.617558827534163 11.860282535334363 11.266627712563293 2.8772157038257431 8.0695274177243643 3.32637694319211 -2.3307806195713314 -4.6858795234496062 -6.5658852368425116 8.227777763536114
leaf_weight=70775 20939 56990 1489 6260 6954 218390 6441 123815 589 11242 324 36304 85032 62 242082 44461 31658 62557 81490 161282 19899 39308 29518 110208 49802 41045 9689 16271 261414 42074
leaf_count=70775 20939 56990 1489 6260 6954 218390 6441 123815 589 11242 324 36304 85032 62 242082 44461 31658 62557 81490 161282 19899 39308 29518 110208 49802 41045 9689 16271 261414 42074
internal_value=0 -4.08344 6.96715 9.80301 4.41669 -1.54437 10.6968 -5.87425 5.08289 -1.01507 3.80498 6.52338 6.97505 9.51743 -4.81479 0.208122 3.32723 9.81144 13.3803 0.524169 9.83709 11.0895 8.45946 3.68709 6.06338 3.07953 -0.997381 -1.4968 -7.04122 9.98231
internal_weight=0 1.19045e+06 697913 330467 367446 492365 287609 698086 330236 435375 42858 181416 171138 199859 365897 216985 148820 193418 87750 205743 193356 101281 92075 141866 134834 41369 10278 37210 332189 81382
internal_count=1888364 1190451 697913 330467 367446 492365 287609 698086 330236 435375 42858 181416 171138 199859 365897 216985 148820 193418 87750 205743 193356 101281 92075 141866 134834 41369 10278 37210 332189 81382
cat_boundaries=0 3 6 9 12 15 18 21 24 27 30 33
cat_threshold=2147484032 2105600 269484040 2147484032 2171264 269484040 105111162 621285929 134742080 2 0 2621440 72423960 17306116 134742529 0 8192 268435456 3357573508 3492913600 854642716 2 0 524288 22024720 554177052 134218497 22026776 554177052 134218241 2147483904 256 1048584
is_linear=0
shrinkage=0.1


Tree=19
num_leaves=31
num_cat=12
split_feature=7 7 7 10 5 7 10 5 0 0 0 7 10 5 8 10 5 7 0 0 0 5 0 0 5 0 0 0 8 0
split_gain=5.44287e+09 8.86182e+08 4.26264e+08 2.2207e+08 2.44971e+08 1.52065e+08 1.93325e+08 1.12604e+08 9.4011e+07 8.4076e+07 7.24986e+07 7.14932e+07 7.94387e+07 6.51737e+07 6.31196e+07 5.93006e+07 5.96562e+07 5.69739e+07 5.43942e+07 5.33601e+07 5.29149e+07 4.9194e+07 4.61275e+07 4.19643e+07 4.00417e+07 3.71783e+07 3.64075e+07 3.48486e+07 3.35561e+07 3.29629e+07
threshold=772.36613325563337 399.02592594818776 1179.3142680395019 7.6205761099365761 7.2650000000000006 148.22541666666669 5.8238867053998646 6.1050000000000013 0 1 2 945.40816830184121 8.3017355396541461 9.2750000000000004 21.405000000000005 9.5012684182496034 9.5750000000000011 1421.3168384615387 3 4 5 8.2650000000000023 6 7 4.285000000000001 8 9 10 23.892500000000005 11
decision_type=2 2 2 2 2 2 2 2 9 9 9 2 2 2 2 2 2 2 9 9 9 2 9 9 2 9 9 9 2 9
left_child=1 5 8 4 14 -1 7 19 26 -5 -8 12 21 18 23 16 28 20 -6 -7 -4 -10 -16 -3 -21 -9 -2 -22 -13 -20
right_child=2 3 17 9 13 6 10 25 11 -11 -12 15 -14 -15 22 -17 -18 -19 29 24 27 -23 -24 -25 -26 -27 -28 -29 -30 -31
leaf_value=-6.0955301449593335 -1.5913878099435959 -0.58975672133421408 15.502532015310472 18.739428743464103 9.2566166322084751 -4.9184682766835452 15.542458198402542 5.252658980896058 6.3265689018585958 -4.9795633921793048 -10.024206635789731 14.204455748563545 1.3569495350367791 16.727932499460511 1.5831074871325903 6.2094674704774393 17.209068932703573 17.21501605534068 -3.9589834347723092 -4.04074985610941 0.097222898577369071 12.308177184793976 -1.8134636741282115 3.7968020932929827 -1.828025425321566 -0.55217233794119158 5.3322601452541596 11.659595961328165 8.6850799677064181 4.5643347193457791
leaf_weight=401020 8363 32604 46115 1519 27223 170083 1127 17762 39981 67337 50119 15863 21861 5584 57499 23231 16921 36515 4961 139696 2700 20956 131202 65869 197269 29100 82788 84513 36047 52536
leaf_count=401020 8363 32604 46115 1519 27223 170083 1127 17762 39981 67337 50119 15863 21861 5584 57499 23231 16921 36515 4961 139696 2700 20956 131202 65869 197269 29100 82788 84513 36047 52536
internal_value=0 -2.94024 9.80143 0.768348 1.72101 -4.58535 -3.5846 -3.04095 7.30256 -4.45428 -9.46084 8.66007 6.5284 6.26388 0.292471 10.5782 12.0526 13.7152 5.57417 -3.4744 12.7567 8.38364 -0.778508 2.34476 -2.74528 1.64903 4.69692 11.3017 10.3718 3.82835
internal_weight=0 1.45251e+06 435854 446334 377478 1.00618e+06 605156 553910 266011 68856 51246 174860 82798 90304 287174 92062 68831 169843 84720 507048 133328 60937 188701 98473 336965 46862 91151 87213 51910 57497
internal_count=1888364 1452510 435854 446334 377478 1006176 605156 553910 266011 68856 51246 174860 82798 90304 287174 92062 68831 169843 84720 507048 133328 60937 188701 98473 336965 46862 91151 87213 51910 57497
cat_boundaries=0 3 6 9 12 15 18 21 24 27 30 33 36
cat_threshold=3223322752 1211196672 938987550 2 0 524288 2 0 524288 91462202 537434676 201327331 2283798916 3626051008 938528796 1447157490 663228985 134218816 1140931088 701239870 134284289 1076364678 2560634336 382832668 33231422 7712 201859327 0 2105344 268435456 0 0 805306368 128 2105344 268435456
is_linear=0
shrinkage=0.1


Tree=20
num_leaves=31
num_cat=8
split_feature=7 7 7 10 7 10 5 5 5 10 5 11 0 10 7 10 5 0 0 11 0 8 0 11 7 0 5 8 0 0
split_gain=4.41123e+09 7.08051e+08 3.64915e+08 1.68213e+08 1.65656e+08 2.01407e+08 1.51087e+08 1.08163e+08 8.59116e+07 7.7175e+07 1.17075e+08 6.89154e+07 6.36567e+07 5.92729e+07 6.79514e+07 5.75183e+07 5.18713e+07 5.18069e+07 4.85108e+07 4.76088e+07 4.5481e+07 4.44264e+07 4.26388e+07 4.10729e+07 4.09519e+07 3.76172e+07 3.66421e+07 3.31706e+07 3.28847e+07 3.24671e+07
threshold=762.28896690213071 451.82086551606295 1089.7334283216785 7.8222122342831311 234.20356102551759 6.1094128244274817 7.1450000000000005 6.4350000000000014 9.5750000000000011 8.8931790865384617 8.8250000000000011 0.89179104477611959 0 4.6945106422244107 109.79731201550389 7.0218063199005867 8.3650000000000002 1 2 0.89179104477611959 3 21.405000000000005 4 0.90671641791044788 955.6167803030304 5 7.6350000000000007 20.457500000000003 6 7
decision_type=2 2 2 2 2 2 2 2 2 2 2 2 9 2 2 2 2 9 9 2 9 2 9 2 2 9 2 2 9 9
left_child=1 4 9 6 13 7 21 22 26 10 18 -5 -7 14 -1 16 29 -13 -2 -11 -10 -3 -6 -14 -21 -12 -4 -20 -28 -8
right_child=2 3 8 11 5 12 15 -9 20 19 25 17 23 -15 -16 -17 -18 -19 27 24 -22 -23 -24 -25 -26 -27 28 -29 -30 -31
leaf_value=-5.930747757365296 2.3695167587652906 2.660511118865859 -2.0806719614282119 1.9677098182523498 -0.66879159675164523 15.059624116441222 10.102946178431644 3.1380786308207798 9.6997877649331485 9.5447435471943614 7.859560757147344 19.238639852964411 -5.7919649926631678 -9.386997638505731 -3.8401111244234829 2.4444764084585686 13.385757756303022 -6.772250628873322 10.074699006825249 -2.5093056734214527 13.56525634683886 -0.45924167254392262 -3.0334540291431304 -11.570671541933809 3.6683254641520833 13.902488007026111 11.937021372247944 5.5504806124977906 6.5241625436290107 4.2013681071539803
leaf_weight=266801 37763 69496 3386 14039 117650 1131 13161 42785 39979 8227 17603 773 23179 28328 372570 38341 11712 37031 21475 17520 131311 133005 216821 26206 27691 25225 18767 66048 28214 32126
leaf_count=266801 37763 69496 3386 14039 117650 1131 13161 42785 39979 8227 17603 773 23179 28328 372570 38341 11712 37031 21475 17520 131311 133005 216821 26206 27691 25225 18767 66048 28214 32126
internal_value=0 -2.67597 8.72813 1.24179 -3.92655 -2.39021 2.15684 -1.59619 11.5969 5.85804 6.91031 -4.01521 -8.31993 -4.91083 -4.71251 5.43928 7.45376 -6.23704 5.36738 2.54766 12.6644 0.611422 -2.2018 -8.85664 1.27439 11.4239 7.96623 6.65981 8.69033 5.91962
internal_weight=0 1.44516e+06 443209 349684 1.09547e+06 427772 297841 377256 221657 221552 168114 51843 50516 667699 639371 95340 56999 37804 125286 53438 171290 202501 334471 49385 45211 42828 50367 87523 46981 45287
internal_count=1888364 1445155 443209 349684 1095471 427772 297841 377256 221657 221552 168114 51843 50516 667699 639371 95340 56999 37804 125286 53438 171290 202501 334471 49385 45211 42828 50367 87523 46981 45287
cat_boundaries=0 3 6 9 12 15 18 21 24
cat_threshold=2 0 524288 2 0 524288 2292188614 1075916160 921997340 2281701388 3626066048 828723200 130300464 554455614 134221665 4161028480 1085481409 813481984 1113045520 1036522031 1793 89233944 537696820 134360995
is_linear=0
shrinkage=0.1


Tree=21
num_leaves=31
num_cat=12
split_feature=5 5 5 6 6 0 0 11 5 0 6 0 6 6 6 0 0 0 5 0 1 0 6 5 0 0 6 0 8 2
split_gain=2.92274e+09 3.20432e+08 2.68056e+08 9.75014e+07 8.93442e+07 8.58994e+07 7.66622e+07 6.52952e+07 6.38479e+07 6.21341e+07 5.91319e+07 4.87764e+07 4.79599e+07 4.77087e+07 4.46871e+07 4.2487e+07 4.24226e+07 4.17099e+07 4.00035e+07 3.7318e+07 3.21562e+07 3.05324e+07 2.96364e+07 2.50805e+07 2.71304e+07 2.47816e+07 2.47341e+07 2.1943e+07 2.16497e+07 2.11806e+07
threshold=6.5450000000000008 8.3150000000000031 4.9150000000000009 10.915000000000001 -14.444999999999999 0 1 0.91417910447761208 2.8350000000000004 2 -6.9349999999999996 3 10.915000000000001 -8.9649999999999981 10.915000000000001 4 5 6 9.7650000000000023 7 0.40265084705289472 8 -10.504999999999997 10.845000000000001 9 10 -14.444999999999999 11 21.682500000000005 0.42261826174069955
decision_type=2 2 2 2 2 9 9 2 2 9 2 9 2 2 2 9 9 9 2 9 2 9 2 2 9 9 2 9 2 2
left_child=2 6 8 4 -3 21 -2 17 -1 27 26 -9 15 -10 16 -12 -15 -7 20 -11 29 -6 -21 24 -23 -18 -8 -4 -17 -13
right_child=1 3 9 -5 5 7 10 11 13 19 12 18 -14 14 -16 28 25 -19 -20 22 -22 23 -24 -25 -26 -27 -28 -29 -30 -31
leaf_value=-5.7460401293364871 -2.3415853607798622 -45.408984869478296 5.8578513797176655 -37.874047061534007 -5.1229825676565355 19.092517181579545 -31.804337566721689 11.661715608490498 -9.9942965869412568 -5.5950320851247701 5.6861440172901858 3.2760820365272787 -27.057034872612689 -5.5942429610178355 -11.630417542186049 4.1895389135122612 -1.939702917724262 2.9326148140988257 8.696359085666634 -17.719411170970023 8.3441212207036113 -1.3920988716785607 -1.4430407711664992 6.5582357081135045 4.2685646953340273 -3.5423900274233064 -4.0586038023133897 0.41396452532643879 1.9372565147659107 6.898912775233379
leaf_weight=200780 30106 328 7850 490 3334 1663 334 33989 11678 24876 58396 38515 521 78012 6736 61342 136361 35710 147138 1124 41481 10171 232576 39490 50520 330665 8385 127746 140271 27776
leaf_count=200780 30106 328 7850 490 3334 1663 334 33989 11678 24876 58396 38515 521 78012 6736 61342 136361 35710 147138 1124 41481 10171 232576 39490 50520 330665 8385 127746 140271 27776
internal_value=0 4.95665 -3.12237 6.70356 6.75436 6.79418 2.4438 7.5906 -4.21485 -1.00424 2.97886 8.09965 3.25007 -3.66922 -3.53536 3.31081 -3.43531 3.65763 7.62393 -1.91338 6.16047 4.28274 -1.52127 4.59625 3.32039 -3.07449 -5.12182 0.729538 2.6224 4.79406
internal_weight=0 729960 1.1584e+06 430605 430115 429787 299355 326272 764232 394172 269249 288899 260530 563452 551774 260009 545038 37373 254910 258576 107772 103515 233700 100181 60691 467026 8719 135596 201613 66291
internal_count=1888364 729960 1158404 430605 430115 429787 299355 326272 764232 394172 269249 288899 260530 563452 551774 260009 545038 37373 254910 258576 107772 103515 233700 100181 60691 467026 8719 135596 201613 66291
cat_boundaries=0 3 6 9 12 15 18 21 24 27 29 32 35
cat_threshold=3355443328 2283888768 827838464 2147484032 2105600 269484040 131078714 554441278 134743873 6706 4096 524288 22092312 554177052 513 2147484032 2171328 806354968 2 0 2621440 128 2105600 269484032 0 0 268435456 128 2105344 81007154 554193434 134218817 0 4096 1
is_linear=0
shrinkage=0.1


Tree=22
num_leaves=31
num_cat=8
split_feature=7 7 7 5 5 6 0 0 0 6 0 8 6 7 6 0 6 5 5 11 0 0 6 8 5 8 9 0 7 5
split_gain=3.0704e+09 5.42767e+08 2.13727e+08 1.12689e+08 8.45578e+07 6.69567e+07 6.35684e+07 6.09281e+07 6.0077e+07 5.85971e+07 5.2236e+07 4.64793e+07 4.23048e+07 3.70007e+07 3.32411e+07 3.27117e+07 3.26601e+07 3.24682e+07 3.09954e+07 3.02295e+07 3.00225e+07 2.75782e+07 2.4129e+07 2.37045e+07 2.33978e+07 2.3017e+07 2.25737e+07 4.82381e+07 1.97961e+07 1.97781e+07
threshold=805.75064409069557 466.66290702973691 1205.8322399188739 3.6550000000000007 8.4650000000000016 -10.504999999999997 0 1 2 -6.7449999999999992 3 22.295000000000005 10.915000000000001 1421.3168384615387 15.110000000000001 4 -14.444999999999999 7.2650000000000006 5.1550000000000011 0.93656716417910457 5 6 -14.444999999999999 35.042500000000011 1.9650000000000001 25.192500000000006 41.912500000000009 7 334.75162257824149 6.0050000000000008
decision_type=2 2 2 2 2 2 9 9 9 2 9 2 2 2 2 9 2 2 2 2 9 9 2 2 2 2 2 9 2 2
left_child=1 3 8 24 5 -5 -6 21 25 16 -11 -12 18 15 29 -4 -3 -10 -9 -8 -19 -7 -22 -24 -1 -2 -17 -28 -21 -13
right_child=2 9 13 4 6 7 19 12 17 10 11 14 -14 -15 -16 26 -18 20 -20 28 22 -23 23 -25 -26 -27 27 -29 -30 -31
leaf_value=-6.4433196857315709 10.330163847679735 -36.801350365763142 12.057644436985369 -13.104377918195429 16.703984729605235 -6.1902754293736191 -5.6331011496521999 -2.0484508671972814 0.53337640809577713 -0.20224539082217979 4.3082391240967581 -1.0788369907083186 -14.128990929715478 13.407898287075779 -34.322029756394805 9.173563355009831 -4.597694466178079 -2.570339299552451 -0.33235790412189453 -16.981270682745464 -67.631632985441044 -2.9899333162994606 6.0596418417002553 2.4487708346523656 -4.2241247783055531 6.8814518541846077 -6.1843529478046566 9.1417048089889352 -8.9255441483557743 1.92364686429219
leaf_weight=54805 28985 323 40843 5586 1040 31105 17447 254119 16229 120770 80254 26684 2601 36515 261 68001 12451 4759 179657 4951 45 201264 122738 21342 356945 58237 3127 5947 7948 123385
leaf_count=54805 28985 323 40843 5586 1040 31105 17447 254119 16229 120770 80254 26684 2601 36515 261 68001 12451 4759 179657 4951 45 201264 122738 21342 356945 58237 3127 5947 7948 123385
internal_value=0 -2.11225 7.69625 -3.20482 -2.43777 -2.20162 -7.51153 -2.11055 5.903 1.24074 1.48263 2.365 -1.41391 10.6263 1.32775 9.76493 -5.41227 4.78043 -1.3377 -8.34423 5.24369 -3.41858 5.50151 5.52478 -4.51951 8.02659 8.5473 3.86343 -12.0177 1.38977
internal_weight=0 1.4816e+06 406768 1.11747e+06 705718 674332 31386 668746 252335 364128 351354 230584 436377 154433 150330 117918 12774 165113 433776 30346 148884 232369 144125 144080 411750 87222 77075 9074 12899 150069
internal_count=1888364 1481596 406768 1117468 705718 674332 31386 668746 252335 364128 351354 230584 436377 154433 150330 117918 12774 165113 433776 30346 148884 232369 144125 144080 411750 87222 77075 9074 12899 150069
cat_boundaries=0 3 6 9 12 15 18 21 24
cat_threshold=2 0 2621440 3221225856 1458643393 871813128 105119354 625480252 524609 3223322752 1521557760 938987548 1984028386 660083241 134218816 0 8192 268435456 128 2105344 268435456 2299797760 1476552838 805372160
is_linear=0
shrinkage=0.1


Tree=23
num_leaves=31
num_cat=0
split_feature=7 7 10 5 10 5 7 5 10 5 11 11 11 9 5 8 6 11 10 6 10 7 7 10 5 5 6 6 7 7
split_gain=2.49981e+09 4.83316e+08 1.75362e+08 2.83854e+08 1.32887e+08 1.19389e+08 8.48283e+07 7.97129e+07 7.04711e+07 1.05117e+08 6.912e+07 6.32101e+07 6.20644e+07 4.32372e+07 4.23222e+07 3.75971e+07 3.5582e+07 3.34853e+07 3.28783e+07 3.14889e+07 3.02066e+07 2.81596e+07 2.76716e+07 5.31144e+07 2.7093e+07 2.55856e+07 2.4304e+07 2.48202e+07 2.37853e+07 2.30396e+07
threshold=572.06031180270122 966.60451127819567 6.698884253506125 5.245000000000001 8.4831064862104206 7.9650000000000007 1327.2605980148885 7.4650000000000007 10.568912711466167 10.225000000000003 0.90671641791044788 0.93656716417910457 0.89925373134328368 27.107500000000005 9.8850000000000033 21.545000000000005 -5.754999999999999 0.86940298507462688 7.2325290732889167 15.110000000000001 6.2153232708767066 737.74944031496079 242.85850508624506 4.5632753537735864 4.8550000000000013 7.3050000000000006 -9.5549999999999979 10.915000000000001 491.04057144817182 874.88563149933839
decision_type=2 2 2 2 2 2 2 2 2 2 2 2 2 2 2 2 2 2 2 2 2 2 2 2 2 2 2 2 2 2
left_child=2 4 3 11 5 13 8 16 9 15 -6 26 -4 -2 18 -3 -5 -10 -7 22 -9 -20 23 -18 -15 -17 -1 -28 -22 -12
right_child=1 6 12 7 10 14 -8 20 17 -11 29 -13 -14 24 -16 25 19 -19 21 -21 28 -23 -24 -25 -26 -27 27 -29 -30 -31
leaf_value=-8.6819793978596955 4.4915263126913363 9.77230435798851 -4.0411320189344186 -4.2916898416521141 4.2911960054105629 9.6533151693059907 10.695403598085155 7.9194664693518808 13.829764342271799 12.371531733900184 -5.1572293943152001 -2.5025527318145722 -9.8441676468253689 -8.3743557932347326 14.530583942720279 -2.209079041399189 0.56094556236877879 2.5569000722378292 -0.43314791182419948 -25.718972713318507 -8.2820991285960766 5.7150089712429022 0.42140498625830924 -7.0594762275286431 1.3325577605098213 5.9169729380366327 -3.9610965057192971 -9.1793557953587079 3.7739775187064617 -0.29209526043948442
leaf_weight=11965 52964 27384 33110 20625 14467 18431 87838 17228 2826 40107 31321 478337 41570 2939 6212 4040 23044 38976 8707 475 2213 51588 255772 15166 132621 94662 344010 9363 6280 14123
leaf_count=11965 52964 27384 33110 20625 14467 18431 87838 17228 2826 40107 31321 478337 41570 2939 6212 4040 23044 38976 8707 475 2213 51588 255772 15166 132621 94662 344010 9363 6280 14123
internal_value=0 5.14753 -2.57144 -2.27512 2.53671 3.47121 8.08965 0.160559 6.98922 7.91236 -1.7288 -3.25901 -7.27135 2.06871 6.58411 6.49393 -0.276405 3.31903 5.95706 0.00484386 5.51334 4.82717 0.0464158 -2.4637 1.1221 5.58436 -4.24945 -4.09936 0.632494 -3.64526
internal_weight=0 629206 1.25916e+06 1.18448e+06 333373 273462 295833 340803 207995 166193 59911 843675 74680 188524 84938 126086 315082 41802 78726 294457 25721 60295 293982 38210 135560 98702 365338 353373 8493 45444
internal_count=1888364 629206 1259158 1184478 333373 273462 295833 340803 207995 166193 59911 843675 74680 188524 84938 126086 315082 41802 78726 294457 25721 60295 293982 38210 135560 98702 365338 353373 8493 45444
is_linear=0
shrinkage=0.1


Tree=24
num_leaves=31
num_cat=10
split_feature=7 7 10 10 5 7 5 5 0 10 5 0 0 0 0 0 8 0 0 5 5 6 6 0 5 0 3 6 5 5
split_gain=2.02934e+09 3.84719e+08 1.55981e+08 1.46596e+08 1.48624e+08 1.29166e+08 1.20618e+08 5.92097e+07 5.8694e+07 5.83626e+07 8.52282e+07 4.85806e+07 4.83356e+07 4.80491e+07 4.07787e+07 3.62704e+07 3.55139e+07 3.3188e+07 3.2323e+07 3.0937e+07 2.90074e+07 2.66265e+07 2.65223e+07 2.53878e+07 2.4748e+07 2.46327e+07 2.46325e+07 2.41924e+07 2.39352e+07 2.39316e+07
threshold=825.72377537132388 477.6894306526807 7.712829801777171 6.3145422717098096 4.4350000000000014 1193.7196654426768 8.0150000000000023 6.6250000000000009 0 9.5870769230769231 9.6450000000000014 1 2 3 4 5 17.592500000000005 6 7 2.4550000000000005 9.6450000000000014 -6.7449999999999992 10.915000000000001 8 9.5150000000000023 9 26.812500000000004 10.915000000000001 8.3650000000000002 6.745000000000001
decision_type=2 2 2 2 2 2 2 2 9 2 2 9 9 9 9 9 2 9 9 2 2 2 2 9 2 9 2 2 2 2
left_child=1 3 6 4 19 9 11 14 -5 10 13 -3 24 -2 -6 -8 -13 -7 -9 -1 -17 -16 23 -11 -4 -15 -21 -23 -19 -18
right_child=5 2 12 8 7 17 15 18 -10 22 -12 16 -14 25 21 20 29 28 -20 26 -22 27 -24 -25 -26 -27 -28 -29 -30 -31
leaf_value=-4.7127036620849969 7.0479517753466503 -0.66375496312653759 -0.53165976949137395 13.351809783434048 -3.9338559924700762 5.3940101542296626 3.7927526133997262 6.1461723041000393 -7.9070242294220741 17.099692916354154 10.404098803613904 5.1579963970626714 -3.4896765558845915 -2.447533427983613 -4.9474824848768995 8.6682105844563377 0.38719866580447504 -0.078970709257658256 0.52274331398159535 -2.1978032823585187 21.580001389912713 -0.68076818116440929 -51.879511379936758 1.4796119185284915 25.214358094882357 3.789427079746956 -3.607512817819543 -13.862658158348196 9.408210356010585 3.0677725278410231
leaf_weight=126328 55330 82428 640 1321 51630 27467 18656 15903 57866 1055 31688 34523 68429 6813 15713 21778 75834 2714 28599 228968 1891 334094 92 45645 896 89168 270250 1398 131859 59388
leaf_count=126328 55330 82428 640 1321 51630 27467 18656 15903 57866 1055 31688 34523 68429 6813 15713 21778 75834 2714 28599 228968 1891 334094 92 45645 896 89168 270250 1398 131859 59388
internal_value=0 -1.67694 1.14884 -2.58668 -2.31941 6.40709 2.15718 -0.927594 -7.4316 4.88244 5.6883 1.32807 -3.09549 4.7007 -1.30998 7.09704 2.2952 8.56921 2.53381 -3.31471 9.69577 -0.924113 1.73078 1.8365 14.3938 3.3465 -2.96095 -0.735701 9.21619 1.56448
internal_weight=0 1.49653e+06 364463 1.13207e+06 1.07288e+06 391831 294498 447337 59187 229791 182999 252173 69965 151311 402835 42325 169745 162040 44502 625546 23669 351205 46792 46700 1536 95981 499218 335492 134573 135222
internal_count=1888364 1496533 364463 1132070 1072883 391831 294498 447337 59187 229791 182999 252173 69965 151311 402835 42325 169745 162040 44502 625546 23669 351205 46792 46700 1536 95981 499218 335492 134573 135222
cat_boundaries=0 3 6 9 12 15 18 21 24 27 30
cat_threshold=2 0 524288 2284323206 3223399808 938528796 2 0 524288 1180023344 759960126 1793 2147484032 2105728 269500424 4160775552 66265545 809091072 2147483660 134242432 879050754 33260090 56864 201335039 2 0 524288 384 8448 269484032
is_linear=0
shrinkage=0.1


Tree=25
num_leaves=31
num_cat=10
split_feature=7 7 7 5 6 8 0 5 6 0 0 0 0 8 0 0 6 0 7 5 1 5 5 0 0 8 6 6 6 6
split_gain=1.65348e+09 2.9598e+08 1.38786e+08 6.67651e+07 5.07812e+07 4.27579e+07 4.78989e+07 4.21464e+07 4.17345e+07 4.17949e+07 3.92573e+07 3.41251e+07 3.34432e+07 3.32193e+07 3.25826e+07 3.02134e+07 2.85479e+07 2.70745e+07 2.33849e+07 2.22078e+07 2.219e+07 2.21376e+07 2.58768e+07 2.23892e+07 2.08981e+07 2.03432e+07 1.99282e+07 1.98878e+07 1.82232e+07 1.57957e+07
threshold=596.50161205074005 945.40816830184121 286.43170300751882 9.2150000000000016 -10.504999999999997 34.472500000000004 0 7.7150000000000007 15.110000000000001 1 2 3 4 24.842500000000005 5 6 -4.6649999999999991 7 1437.1351759375002 3.1750000000000003 0.69134849440110402 9.5150000000000023 5.3950000000000005 8 9 23.892500000000005 15.110000000000001 -8.5149999999999988 10.915000000000001 -14.444999999999999
decision_type=2 2 2 2 2 2 9 2 2 9 9 9 9 2 9 9 2 9 2 2 2 2 2 9 9 2 2 2 2 2
left_child=2 8 7 11 -4 14 -7 12 9 -2 -6 -3 19 24 -5 -9 -12 -16 -19 -1 29 22 -18 -24 -11 -13 -25 -14 -29 -15
right_child=1 3 4 5 10 6 -8 15 -10 13 16 25 27 20 17 -17 21 18 -20 -21 -22 -23 23 26 -26 -27 -28 28 -30 -31
leaf_value=-3.0247143109112367 -0.38571695510247472 0.97587058123667347 -16.091068893617692 -7.3593554383384987 1.1270318640161097 -2.5717584839571681 6.1484802412401649 16.322982958544522 -40.905804636371926 6.2020647990915236 -3.4875663572066333 8.0042132175538914 -6.8860173292938462 -41.904571244523339 9.8253548229045151 -9.3116515994602871 -1.8082577520927643 6.6748173157628985 10.668431157165987 -1.1451017434019644 4.6259084704086364 -3.92897742030843 -4.0642943965380658 0.35890653578461296 3.0380535372825239 4.1460363156389484 -28.05727298667874 -3.0368547294667358 -8.2406012608739854 1.1936107123538324
leaf_weight=99592 55766 24492 2134 1356 100810 7813 32460 469 226 32031 43947 20080 14335 85 64257 12881 112056 99459 17198 170427 21891 20993 12333 200202 60176 42789 247 491534 6823 119502
leaf_count=99592 55766 24492 2134 1356 100810 7813 32460 469 226 32031 43947 20080 14335 85 64257 12881 112056 99459 17198 170427 21891 20993 12333 200202 60176 42789 247 491534 6823 119502
internal_value=0 4.33878 -2.01787 6.48686 -0.69884 7.40649 4.45763 -2.83429 2.04071 2.07425 -0.631882 4.1442 -2.73926 2.6612 8.05805 -8.40571 -1.0868 8.17357 7.26296 -1.8383 1.69877 -0.781748 -0.578354 0.0693427 4.13818 5.37747 0.323861 -3.21367 -3.1081 1.16294
internal_weight=0 599581 1.28878e+06 309904 492722 222543 40273 796061 289677 289451 490588 87361 782711 233685 182270 13350 389778 180914 116657 270019 141478 345831 324838 212782 92207 62869 200449 512692 498357 119587
internal_count=1888364 599581 1288783 309904 492722 222543 40273 796061 289677 289451 490588 87361 782711 233685 182270 13350 389778 180914 116657 270019 141478 345831 324838 212782 92207 62869 200449 512692 498357 119587
cat_boundaries=0 3 6 9 12 15 18 21 24 27 30
cat_threshold=2299535616 1476419654 809500928 1073742208 2171136 818991132 71309882 554177040 524385 145229262 2190784 911249500 131537466 553671226 134218977 0 0 268435456 10 0 524288 121757538 881463854 134743360 128 2105344 268435456 591698558 577553 525121
is_linear=0
shrinkage=0.1


Tree=26
num_leaves=31
num_cat=7
split_feature=5 5 5 6 6 0 0 6 0 0 10 0 8 6 0 6 5 10 10 10 6 1 11 5 6 10 0 5 6 6
split_gain=1.07523e+09 1.14665e+08 1.04162e+08 6.86676e+07 6.57694e+07 5.34216e+07 5.06707e+07 4.03532e+07 3.64386e+07 3.63781e+07 4.35869e+07 3.18549e+07 2.87776e+07 2.63213e+07 2.47595e+07 2.37985e+07 2.33794e+07 6.09883e+07 2.44503e+07 2.06992e+07 1.99885e+07 1.94077e+07 1.93461e+07 1.86073e+07 1.78285e+07 1.76257e+07 2.52663e+07 2.30792e+07 1.72093e+07 1.69382e+07
threshold=6.5450000000000008 8.1650000000000009 4.1650000000000009 -10.504999999999997 10.915000000000001 0 1 -5.544999999999999 2 3 6.5799973976405282 4 17.592500000000005 10.915000000000001 5 -14.444999999999999 10.225000000000003 10.276844129554657 8.6004606576629481 5.0371383508926888 15.110000000000001 0.518649804173412 0.74253731343283602 11.165000000000001 -4.294999999999999 8.6004606576629481 6 10.765000000000002 -14.444999999999999 -14.444999999999999
decision_type=2 2 2 2 2 9 9 2 9 9 2 9 2 2 9 2 2 2 2 2 2 2 2 2 2 2 9 2 2 2
left_child=2 7 22 28 5 25 -4 29 -9 -7 -11 -8 -13 14 -10 -14 18 23 -12 -16 24 -20 -1 -18 -17 -5 27 -27 -3 -2
right_child=1 3 6 4 -6 9 11 8 13 10 16 12 15 -15 19 20 17 -19 21 -21 -22 -23 -24 -25 -26 26 -28 -29 -30 -31
leaf_value=-3.8238040578389518 -24.255763605906967 -37.454665047219585 -2.8226125894104435 9.2798631994782514 -31.378929617463729 1.2762296698683491 2.2472044800946627 -2.3392046437723297 5.1534061868772403 11.837909722073125 4.4991756035456003 0.8843179427699468 -15.562425216835488 -20.6260032299576 7.6525241567172735 -2.8222366529351048 7.0421414075549267 3.6496928903160488 0.9994241199530256 1.6254079762093714 -15.79074383027076 4.0344612864747171 -2.5117309649336903 12.296141509413209 -0.78659519641834108 5.5713449108276425 4.8510756067431693 16.730996007274157 -11.749203111234316 -2.5439967190059449
leaf_weight=156289 366 344 119837 17983 523 56498 38159 20162 24403 6993 66013 85581 1143 509 5859 50051 25610 115984 64138 207464 925 31376 399974 9149 306445 3716 48705 3697 1072 19396
leaf_count=156289 366 344 119837 17983 523 56498 38159 20162 24403 6993 66013 85581 1143 509 5859 50051 25610 115984 64138 207464 925 31376 399974 9149 306445 3716 48705 3697 1072 19396
internal_value=0 3.00641 -1.89379 3.98983 4.05896 4.10016 -0.982376 1.40909 1.74218 3.61589 4.02987 -0.525067 -0.763294 2.0876 2.13633 -1.15656 3.85514 4.75083 3.01925 1.79086 -1.11049 1.99643 -2.88037 8.42509 -1.07239 6.5545 5.68231 11.122 -17.9962 -2.94623
internal_weight=0 729960 1.1584e+06 451801 450385 449862 602141 278159 258397 375761 319263 482304 444145 238235 237726 358564 312270 150743 161527 213323 357421 95514 556263 34759 356496 74101 56118 7413 1416 19762
internal_count=1888364 729960 1158404 451801 450385 449862 602141 278159 258397 375761 319263 482304 444145 238235 237726 358564 312270 150743 161527 213323 357421 95514 556263 34759 356496 74101 56118 7413 1416 19762
cat_boundaries=0 3 6 9 12 15 18 21
cat_threshold=37853754 528896 524288 2281701764 2171328 810582044 2147483776 2105600 269484032 2147483776 136323072 809848832 4112 553652224 1 4198928 17306112 1 2 0 524288
is_linear=0
shrinkage=0.1


Tree=27
num_leaves=31
num_cat=10
split_feature=5 5 6 6 0 1 0 5 2 5 0 10 11 10 5 10 0 0 0 0 0 6 0 0 2 6 10 9 6 9
split_gain=8.74386e+08 1.17229e+08 7.3669e+07 6.9794e+07 6.6682e+07 3.84371e+07 3.69004e+07 3.66725e+07 3.65354e+07 3.61251e+07 4.04536e+07 3.43273e+07 2.96114e+07 2.86924e+07 2.88992e+07 2.83318e+07 2.38931e+07 2.3133e+07 2.28031e+07 2.03389e+07 1.88773e+07 1.88367e+07 1.8298e+07 1.74891e+07 1.63199e+07 1.5674e+07 1.48829e+07 1.47218e+07 1.41384e+07 1.40339e+07
threshold=6.9850000000000012 5.0650000000000004 -10.504999999999997 10.915000000000001 0 0.55543802234893513 1 9.7650000000000023 0.42261826174069955 10.695000000000002 2 8.6553276955602545 0.86194029850746279 10.75596348826612 9.5750000000000011 10.665324221233314 3 4 5 6 7 -4.9849999999999994 8 9 0.23762932952031185 -4.9849999999999994 6.6539564329475844 22.662500000000005 -4.6649999999999991 35.362500000000004
decision_type=2 2 2 2 9 2 9 2 2 2 9 2 2 2 2 2 9 9 9 9 9 2 9 9 2 2 2 2 2 2
left_child=1 12 24 4 9 7 23 8 -6 10 -4 -9 -1 14 19 -11 -14 -13 -8 -7 -10 -20 -15 -3 -2 -12 -16 -24 -22 -29
right_child=2 6 3 -5 5 13 18 11 20 15 25 17 16 22 26 -17 -18 -19 21 -21 28 -23 27 -25 -26 -27 -28 29 -30 -31
leaf_value=-3.1523253598958147 -25.319813016029311 7.4902579908718652 -3.1530441692751112 -24.806415198971813 1.0090952142632852 7.8824274464791415 -3.8903490894429993 14.627800586859763 7.2546149242266171 6.9658009424556599 -1.9522563696117083 12.079320386604314 -0.97077766690354295 13.752509231303115 26.050047296176725 2.3511141070234163 -2.3457867794077436 4.0320010808395406 -3.3204745517958294 3.9971790142121479 -0.1087092311580643 -0.36863991988793571 8.5161504907292525 0.85041025743201226 -7.6159807044381296 1.8465794478965982 8.4220464752914026 -0.47132875710401506 3.8544079436337215 5.0752016961413178
leaf_weight=256451 960 4067 21282 898 97714 18070 23405 3321 13881 18911 11865 3694 197566 1347 487 44874 350949 105010 23755 53388 10827 240324 2936 147421 1138 128372 28685 17156 53396 6214
leaf_count=256451 960 4067 21282 898 97714 18070 23405 3321 13881 18911 11865 3694 197566 1347 487 44874 350949 105010 23755 53388 10827 240324 2936 147421 1138 128372 28685 17156 53396 6214
internal_value=0 -1.54842 2.99004 3.05114 3.09015 3.8404 -0.233839 3.19888 2.29789 1.70422 0.908565 4.61294 -2.26531 5.28014 6.06412 3.71929 -1.85059 4.30696 -0.899372 4.98134 3.91027 -0.634147 2.42719 1.02916 -15.7177 1.52506 8.71642 1.8413 3.18579 1.00349
internal_weight=0 1.24394e+06 644426 642328 641430 416126 438972 287843 175818 225304 161519 112025 804966 128283 100630 63785 548515 108704 287484 71458 78104 264079 27653 151488 2098 140237 29172 26306 64223 23370
internal_count=1888364 1243938 644426 642328 641430 416126 438972 287843 175818 225304 161519 112025 804966 128283 100630 63785 548515 108704 287484 71458 78104 264079 27653 151488 2098 140237 29172 26306 64223 23370
cat_boundaries=0 3 6 9 12 15 18 21 24 27 29
cat_threshold=3355443588 3635503552 836227080 131078682 554457630 134229825 128 2105344 268435456 81033776 596136507 134816833 2 0 524288 128 2105600 268435456 22092312 528900 524800 4200984 4612 3 2 0 2621440 0 4096
is_linear=0
shrinkage=0.1


Tree=28
num_leaves=31
num_cat=12
split_feature=7 7 7 6 7 0 6 8 0 8 8 6 0 1 0 0 11 6 8 0 0 0 6 0 6 0 7 7 0 0
split_gain=1.02358e+09 1.84894e+08 7.25607e+07 5.10233e+07 3.96687e+07 3.67287e+07 3.3589e+07 2.9704e+07 2.96577e+07 2.27026e+07 2.22462e+07 2.21352e+07 2.18132e+07 2.09097e+07 2.07604e+07 2.04213e+07 1.81595e+07 1.7597e+07 1.75165e+07 1.78958e+07 1.71868e+07 1.61592e+07 1.60326e+07 1.55985e+07 1.47849e+07 1.31496e+07 1.30614e+07 1.17301e+07 1.16845e+07 1.15535e+07
threshold=851.98442478146592 513.22624060150395 1303.6289936680237 -7.5849999999999991 255.15477000244681 0 -6.7449999999999992 31.267500000000009 1 22.295000000000005 33.402500000000011 9.6450000000000014 2 -0.72219205899833561 3 4 0.88432835820895528 -14.444999999999999 15.597500000000002 5 6 7 15.110000000000001 8 -14.444999999999999 9 1451.0729374855428 60.987190827190837 10 11
decision_type=2 2 2 2 2 9 2 2 9 2 2 2 9 2 9 9 2 2 2 9 9 9 2 9 2 9 2 2 9 9
left_child=1 3 5 24 11 13 17 8 -8 15 16 14 -4 -2 -5 -6 -7 -3 19 -10 -12 -18 29 -11 -1 -9 -14 -16 -29 -20
right_child=2 6 12 4 9 10 7 25 18 23 20 -13 26 -15 27 -17 21 -19 22 -21 -22 -23 -24 -25 -26 -27 -28 28 -30 -31
leaf_value=-9.3142308321063449 2.830768075582923 -31.961587394302953 3.9654479098817883 -2.7674493059175518 1.652167104953713 9.9111558872644707 -1.0896718085452231 1.2388025519420021 6.7075779107974087 -0.39552080103071036 -4.7672969683140831 -6.0114964366030517 7.0375416551341452 6.3185773806580805 -2.891143322819496 -0.73462192977694096 1.2485800831941152 -3.8970521762277586 3.3070994145219768 2.3924089719314461 1.6894562360364311 3.9813152488866432 -29.266513278511457 -1.9316827778070413 -4.2795109000067981 -1.3049057636802683 10.116667059326424 1.7490313548872316 -1.4917417779273086 1.2646170752627075
leaf_weight=6910 22807 228 19572 232331 54536 4435 32478 31020 15371 101028 4639 14056 65479 69779 60686 104559 27470 10897 35756 25731 36424 102473 167 191294 37413 58889 17448 11464 370031 122993
leaf_count=6910 22807 228 19572 232331 54536 4435 32478 31020 15371 101028 4639 14056 65479 69779 60686 104559 27470 10897 35756 25731 36424 102473 167 191294 37413 58889 17448 11464 370031 122993
internal_value=0 -1.14995 4.71255 -1.73566 -1.60623 3.84716 0.929813 1.11623 1.71313 -0.877683 2.99614 -2.08386 6.97548 5.45883 -2.00201 0.083601 3.61879 -4.4725 2.16818 4.00839 0.959259 3.40402 1.69236 -1.40086 -5.06445 -0.427294 7.68448 -1.59974 -1.39435 1.72495
internal_weight=0 1.51784e+06 370526 1.18431e+06 1.13998e+06 268027 333530 322405 232496 451417 175441 688568 102499 92586 674512 159095 134378 11125 200018 41102 41063 129943 158916 292322 44323 89909 82927 442181 381495 158749
internal_count=1888364 1517838 370526 1184308 1139985 268027 333530 322405 232496 451417 175441 688568 102499 92586 674512 159095 134378 11125 200018 41102 41063 129943 158916 292322 44323 89909 82927 442181 381495 158749
cat_boundaries=0 3 6 9 12 15 18 21 24 27 30 32 35
cat_threshold=373423730 625480255 1089 1073741952 2106624 273682460 524334 2550153344 875364354 4160749952 410067397 854642716 592746878 536975889 134742979 2739182206 118801 537412576 2147483648 134242304 805306624 0 2106624 810831896 1154036282 688397950 2623521 1412112914 2840338046 33562657 2 4096 6714 537416204 2621697
is_linear=0
shrinkage=0.1


Tree=29
num_leaves=31
num_cat=10
split_feature=7 7 10 10 5 5 7 10 5 11 11 11 0 11 0 8 5 5 0 8 0 0 0 10 7 0 5 0 0 0
split_gain=8.29107e+08 1.49769e+08 1.76717e+08 1.45766e+08 9.68612e+07 7.36026e+07 5.99217e+07 6.4003e+07 6.25084e+07 5.73439e+07 4.72678e+07 3.87597e+07 3.66081e+07 3.25068e+07 2.94495e+07 2.8162e+07 2.8152e+07 2.80438e+07 2.45249e+07 2.39215e+07 2.34275e+07 2.29849e+07 2.18936e+07 2.16721e+07 3.99931e+07 2.08427e+07 2.06939e+07 2.0526e+07 2.0273e+07 1.87919e+07
threshold=851.98442478146592 513.22624060150395 6.3491355721393044 7.8222122342831311 6.035000000000001 7.8150000000000004 1275.5003478913782 10.376202510176393 10.015000000000002 0.89179104477611959 0.89925373134328368 0.95895522388059706 0 0.90671641791044788 1 21.545000000000005 8.0150000000000023 9.3950000000000014 2 20.745000000000005 3 4 5 4.7207992135091379 251.96155468750001 6 6.8650000000000011 7 8 9
decision_type=2 2 2 2 2 2 2 2 2 2 2 2 9 2 9 2 2 2 9 2 9 9 9 2 2 9 2 9 9 9
left_child=1 2 4 5 11 15 7 8 12 -5 25 -1 -2 -9 -11 27 23 20 -17 -14 -7 -12 -13 -6 -25 -4 -23 -3 -15 -8
right_child=6 3 10 9 16 17 29 13 -10 14 21 22 19 28 -16 18 -18 -19 -20 -21 -22 26 -24 24 -26 -27 -28 -29 -30 -31
leaf_value=-2.2138440368703143 1.0444960806646071 5.0349904638387102 10.465091912672047 2.1484527836433847 5.2124646843541571 -3.3849545125860772 3.3099271224438525 7.4050233163975676 7.5489801064260069 11.34318975750605 2.8488246697187867 -0.065287398595722176 7.1183027540670682 14.658602315565517 -5.1741877650674608 1.9522055940568692 7.7022632136146036 11.178146576296696 -0.80558330299213121 3.5087984213840375 4.8365269634916856 -5.0541885840881697 -1.4519310909308105 -7.3018081461559667 1.0618740339305366 -3.980289551774673 -10.527499778942152 1.3898511888544027 -1.7066487271432582 6.6799203205659996
leaf_weight=491363 53269 23989 1024 15115 11177 3730 20013 4824 41454 1094 1651 176030 22732 764 52009 50685 6674 6576 88603 95487 48296 9094 322456 6065 99697 30338 28739 43433 34455 97528
leaf_count=491363 53269 23989 1024 15115 11177 3730 20013 4824 41454 1094 1651 176030 22732 764 52009 50685 6674 6576 88603 95487 48296 9094 322456 6065 99697 30338 28739 43433 34455 97528
internal_value=0 -1.03495 -1.5621 0.836868 -1.25397 1.89693 4.24131 3.37449 4.06423 -3.28591 -6.40479 -1.58357 3.22185 -0.293434 -4.83272 1.01009 1.38533 5.02512 0.198021 4.20251 4.24736 -8.70685 -0.962297 1.02481 0.582246 -3.50653 -9.20945 2.68776 -1.34792 6.10699
internal_weight=0 1.51784e+06 1.18431e+06 333530 1.11346e+06 265312 370526 252985 212942 68218 70846 989849 171488 40043 53103 206710 123613 58602 139288 118219 52026 39484 498486 116939 105762 31362 37833 67422 35219 117541
internal_count=1888364 1517838 1184308 333530 1113462 265312 370526 252985 212942 68218 70846 989849 171488 40043 53103 206710 123613 58602 139288 118219 52026 39484 498486 116939 105762 31362 37833 67422 35219 117541
cat_boundaries=0 3 6 9 12 15 18 21 24 27 30
cat_threshold=2292188550 3237312 914145308 2 0 524288 1409364496 1036785214 134423553 1073741952 2105344 268451840 2 0 271056896 131340848 587993662 134221761 2 0 2621440 668244496 571330589 19393 2 0 524288 46 2281726080 808255490
is_linear=0
shrinkage=0.1


Tree=30
num_leaves=31
num_cat=11
split_feature=7 7 10 10 5 5 5 0 8 0 5 0 0 0 10 0 5 0 5 5 10 7 5 0 5 0 10 7 0 0
split_gain=6.73386e+08 1.29209e+08 1.38067e+08 1.34207e+08 6.85611e+07 6.8294e+07 4.78317e+07 3.49565e+07 3.27249e+07 3.67939e+07 3.27181e+07 3.18492e+07 2.87373e+07 2.77064e+07 2.6324e+07 2.57656e+07 2.71773e+07 2.45586e+07 2.31104e+07 2.25519e+07 2.14883e+07 7.6488e+07 2.91895e+07 2.98315e+07 2.33403e+07 2.12417e+07 2.09988e+07 2.3404e+07 1.77545e+07 1.7496e+07
threshold=874.88563149933839 491.04057144817182 6.3145422717098096 7.9336162405303039 7.3050000000000006 5.3350000000000009 8.7250000000000032 0 35.132500000000014 1 9.2750000000000004 2 3 4 8.8931790865384617 5 3.3850000000000002 6 7.3050000000000006 4.3450000000000006 10.197977272727275 1275.5003478913782 10.845000000000001 7 11.085000000000003 8 6.8956219548872193 650.60131782945746 9 10
decision_type=2 2 2 2 2 2 2 9 2 9 2 9 9 9 2 9 2 9 2 2 2 2 2 9 2 9 2 2 9 9
left_child=1 2 5 4 19 15 14 -4 17 -10 13 -5 18 -6 -2 -1 -17 -8 -7 -3 22 28 23 -19 -23 -21 -15 -28 -22 -18
right_child=6 3 7 11 10 12 8 -9 9 -11 -12 -13 -14 26 -16 16 29 20 -20 25 21 24 -24 -25 -26 -27 27 -29 -30 -31
leaf_value=-2.9471612115881838 2.8838476574497833 -6.7121082428543932 9.4843094240153558 10.810660888779537 1.0636335254944342 1.2708507956450932 -6.6532145355344587 -6.3006396381348715 -3.8199172061705635 3.5299483540654495 9.1301950214243544 -3.5054881587042956 -0.49357561495234514 7.3634189888720103 -1.150449640718308 -2.1089417630632012 5.1963780084132951 7.9928202882556896 6.946388274109542 1.9712113130702251 15.202053412875612 3.3448404999168009 10.21552556825973 4.20388000376912 6.8509196425372059 -0.22249344075704192 -3.1109585972899261 4.0572758243284941 -0.35707963110188901 -0.93224477070166678
leaf_weight=119816 64032 4298 1428 1580 42639 77536 1776 62578 8667 31693 9596 70390 152988 17053 21640 294134 4699 31469 7906 71345 741 27868 15194 61493 59585 115732 5133 40427 31105 433823
leaf_count=119816 64032 4298 1428 1580 42639 77536 1776 62578 8667 31693 9596 70390 152988 17053 21640 294134 4699 31469 7906 71345 741 27868 15194 61493 59585 115732 5133 40427 31105 433823
internal_value=0 -0.908703 -1.43405 0.695569 1.60881 -1.1692 3.92316 -5.94796 4.57727 1.95154 3.54034 -3.19017 0.326886 3.0307 1.86482 -1.58765 -1.36526 5.03957 1.79581 0.449666 5.13094 4.20569 6.15198 5.48781 5.73367 0.614207 4.36938 3.24966 0.00966159 -0.866475
internal_weight=0 1.5331e+06 1.15491e+06 378193 306223 1.0909e+06 355263 64006 269591 40360 114848 71970 238430 105252 85672 852472 732656 229231 85442 191375 227455 119299 108156 92962 87453 187077 62613 45560 31846 438522
internal_count=1888364 1533101 1154908 378193 306223 1090902 355263 64006 269591 40360 114848 71970 238430 105252 85672 852472 732656 229231 85442 191375 227455 119299 108156 92962 87453 187077 62613 45560 31846 438522
cat_boundaries=0 3 6 9 12 15 18 21 24 27 30 32
cat_threshold=2 0 524288 2299797888 1476550662 805830912 2 0 524288 133175934 7680 234881791 3355722182 3287491009 272154632 2147484032 2171328 269500440 0 0 268435456 55818808 424186414 134221059 121909776 734810687 69377 2 0 524288 0 4096
is_linear=0
shrinkage=0.1


Tree=31
num_leaves=31
num_cat=8
split_feature=7 10 5 11 5 0 5 0 8 10 7 10 3 0 5 0 0 0 0 7 7 10 7 7 0 10 7 8 11 10
