tree
version=v3
num_class=1
num_tree_per_iteration=1
label_index=0
max_feature_idx=6
objective=regression
feature_names=TurbID Wspd Wdir Etmp Itmp Ndir Prtv
feature_infos=-1:94:93:76:91:92:1:68:32:53:15:95:84:52:16:58:67:7:47:63:33:90:11:48:54:21:75:12:61:40:28:51:77:65:86:24:45:31:43:70:39:59:8:38:55:3:19:66:5:49:71:36:26:18:4:42:88:37:17:23:46:57:69:87:89:25:30:35:6:56:72:50:82:73:62:78:74:14:29:34:13:85:9:81:64:79:27:41:10:44:2:22:20:60:83 [0:24.870000000000001] [-170.59999999999999:168.69] [-272.73000000000002:324.56] [-272.95999999999998:109.98999999999999] [-545.60000000000002:700.62] [-500.06:399.61000000000001]
tree_sizes=3236 3221 3219 3215 3189 3136 3266 3232 3196 3163 3303 3165 3186 3057 3195 3062 3034 3051 3316 3040 3037 3246 3188 3221 3199 3203 3229 3238 3206 3254 3170 3271 3176 3156 3200 3179 3221 3148 3122 3230 3199 3140 3220 3138 3179 3164 3181 3133 3006 3173 3209 3244 3233 3168 3185 3279 3259 3059 3248 3189 3190 3255 3241 3179 3288 3060 3267 3070 3063

Tree=0
num_leaves=31
num_cat=10
split_feature=1 1 1 1 1 1 1 4 3 0 1 1 1 0 0 1 0 0 0 0 1 1 0 3 0 3 4 4 0 3
split_gain=2.96678e+11 3.17943e+10 2.38065e+10 4.26371e+09 3.96105e+09 2.3516e+09 2.29218e+09 7.92699e+08 1.14807e+09 5.79916e+08 5.59415e+08 5.58959e+08 5.24161e+08 5.08362e+08 4.97741e+08 4.80295e+08 4.54053e+08 3.35844e+08 2.96948e+08 2.32057e+08 2.14663e+08 1.92601e+08 1.87257e+08 1.7491e+08 1.67382e+08 1.65552e+08 2.96599e+08 2.60593e+08 2.69259e+08 1.76479e+08
threshold=6.7650000000000006 4.6850000000000014 8.5050000000000008 3.2650000000000001 5.7750000000000012 9.6850000000000005 7.6050000000000013 36.655000000000008 14.275000000000002 0 2.5150000000000001 4.0250000000000012 5.2550000000000008 1 2 6.285000000000001 3 4 5 6 7.1750000000000007 8.0050000000000008 7 5.1250000000000009 8 25.962500000000002 28.965000000000003 34.065000000000005 9 21.575000000000003
decision_type=2 2 2 2 2 2 2 2 2 9 2 2 2 9 9 2 9 9 9 9 2 2 9 2 9 2 2 2 9 2
left_child=1 3 6 10 12 13 14 8 17 -8 -1 -5 -3 -4 -2 22 24 -7 -9 -17 -16 -11 -6 -15 -10 26 29 28 -27 -18
right_child=2 4 5 11 15 7 9 18 16 21 -12 -13 -14 23 20 19 25 -19 -20 -21 -22 -23 -24 -25 -26 27 -28 -29 -30 -31
leaf_value=464.61286126125418 493.79886280558281 478.70260078467669 510.96482609008513 471.05014398870668 484.43779690965482 513.36027794755466 501.86953822268009 522.62467506118492 536.14418536640892 506.41771108852566 468.09800664917913 474.70822403755523 482.84829359513162 525.82845912745711 497.72903395240746 488.45925170653584 516.67533917951812 528.81110951396545 527.67521272460226 493.37815416678387 502.07782772143787 510.76957695781113 488.52001615217341 516.54284071264874 521.33919115766707 514.08263326370866 521.82544527917389 517.86080867985822 501.86970520509783 507.46963987583098
leaf_weight=310646 48461 165308 53283 223317 41972 3993 44047 51773 2081 47445 182964 196157 141517 5355 57996 36233 20851 41037 72506 70932 55565 54788 84908 96094 54509 12509 25748 18880 7201 6940
leaf_count=310646 48461 165308 53283 223317 41972 3993 44047 51773 2081 47445 182964 196157 141517 5355 57996 36233 20851 41037 72506 70932 55565 54788 84908 96094 54509 12509 25748 18880 7201 6940
internal_value=488.097 474.745 512.951 469.054 484.352 520.001 502.142 522.46 520.461 506.679 465.905 472.761 480.615 514.945 498.045 489.251 518.343 527.456 525.577 491.716 499.856 508.748 487.169 517.03 521.892 516.156 517.959 513.663 509.641 514.377
internal_weight=0 1.45395e+06 781062 913084 540870 472760 308302 318028 193749 146280 493610 419474 306825 154732 162022 234045 148719 45030 124279 107165 113561 102233 126880 101449 56590 92129 53539 38590 19710 27791
internal_count=2235016 1453954 781062 913084 540870 472760 308302 318028 193749 146280 493610 419474 306825 154732 162022 234045 148719 45030 124279 107165 113561 102233 126880 101449 56590 92129 53539 38590 19710 27791
cat_boundaries=0 3 6 9 12 15 18 21 24 27 30
cat_threshold=3355443588 3224446400 4065378332 3355443588 3224724928 4065644572 3357557124 3224446400 2454765596 132433718 1082395225 145227864 32 3407872 2483290112 2843738248 1511645317 4030858083 3358082500 3224446400 2463154204 3358082500 3224446400 2463154204 2 0 524288 202880 68157696 3847270432
is_linear=0
shrinkage=1


Tree=1
num_leaves=31
num_cat=8
split_feature=1 1 6 1 1 1 1 0 6 6 6 1 1 1 1 1 1 1 0 0 0 0 0 6 6 1 0 3 0 1
split_gain=2.67778e+11 2.78584e+10 2.41215e+10 6.79296e+09 3.78262e+09 3.55143e+09 3.45313e+09 1.92725e+09 1.03032e+09 7.28284e+08 8.11485e+08 7.12282e+08 5.91388e+08 5.1787e+08 5.02437e+08 4.77307e+08 4.43688e+08 4.14496e+08 3.43359e+08 3.3506e+08 3.10597e+08 2.83286e+08 2.22057e+08 2.20527e+08 1.9961e+08 1.81712e+08 1.66838e+08 1.45975e+08 1.27453e+08 1.22317e+08
threshold=6.7250000000000005 4.5950000000000006 73.27500000000002 8.0050000000000008 5.6750000000000007 8.9250000000000025 3.1750000000000003 0 139.65000000000001 32.155000000000008 -136.02499999999998 7.3150000000000004 9.1650000000000009 6.205000000000001 7.8550000000000013 3.9250000000000003 5.1350000000000007 2.4750000000000005 1 2 3 4 5 109.16000000000001 5.4850000000000012 10.805000000000001 6 11.407500000000002 7 10.395000000000001
decision_type=2 2 2 2 2 2 2 9 2 2 2 2 2 2 2 2 2 2 9 9 9 9 9 2 2 2 9 2 9 2
left_child=1 6 3 11 16 14 17 12 23 10 -9 21 -5 26 -4 -8 -3 -1 -13 -14 27 -2 -15 -7 25 -22 -6 -12 -18 -10
right_child=2 4 5 7 13 8 15 9 29 -11 20 18 19 22 -16 -17 28 -19 -20 -21 24 -23 -24 -25 -26 -27 -28 -29 -30 -31
leaf_value=-22.359280510538536 3.6426233360184677 -9.6213406204423748 16.164049981365132 23.183648365419863 -4.1394839599519084 33.642587480517186 -16.614462752521977 25.284943789923901 39.005041190875168 24.803655470387991 27.685286102661202 9.2498228688001074 43.91795440966915 -0.20676291439612618 26.990741013040477 -13.233341199890347 -7.9046220424926545 -19.253149998662952 15.306749456636158 31.15419900301384 14.499264414405715 9.2479582488279348 4.4200952685293897 37.753125664551604 18.700007562989011 7.6342008505561827 -0.3917372606311823 18.580710493201131 -4.7894618487873011 43.596565263047403
leaf_weight=301318 31433 157952 15808 23912 44411 68783 218799 33925 18431 57185 4743 34569 6137 38514 33271 199608 49073 166904 73299 37212 45450 80071 79398 62104 21375 12234 89606 61395 99816 68280
leaf_count=301318 31433 157952 15808 23912 44411 68783 218799 33925 18431 57185 4743 34569 6137 38514 33271 199608 49073 166904 73299 37212 45450 80071 79398 62104 21375 12234 89606 61395 99816 68280
internal_value=0 -12.7917 23.4156 17.1749 -4.04776 35.6532 -18.3024 22.0192 38.3935 19.8901 18.3226 10.4712 29.492 0.492359 23.5036 -15.0014 -7.77538 -21.2521 13.3679 32.9786 16.6958 7.66897 2.90917 35.593 14.5709 13.0433 -1.63402 19.2308 -5.81706 42.6207
internal_weight=0 1.4454e+06 789617 522940 558770 266677 886629 303568 217598 236307 179122 219372 67261 251929 49079 418407 306841 468222 107868 43349 145197 111504 117912 130887 79059 57684 134017 66138 148889 86711
internal_count=2235016 1445399 789617 522940 558770 266677 886629 303568 217598 236307 179122 219372 67261 251929 49079 418407 306841 468222 107868 43349 145197 111504 117912 130887 79059 57684 134017 66138 148889 86711
cat_boundaries=0 3 6 9 12 15 18 21 24
cat_threshold=2531330 33560074 524358 3357540740 3224446400 3000025116 2 0 524288 2547081212 1073809588 4194448 3355459972 3224446400 2421211164 3355985348 3224446400 2463154204 3358082436 3224446400 2463158300 3358082436 3224446400 2463158300
is_linear=0
shrinkage=0.05


Tree=2
num_leaves=31
num_cat=8
split_feature=1 1 6 1 1 1 1 0 6 6 6 1 1 1 1 1 4 1 0 0 0 0 1 6 0 6 0 1 0 4
split_gain=2.4168e+11 2.59099e+10 2.1291e+10 5.96348e+09 3.74418e+09 2.99122e+09 2.96852e+09 1.70921e+09 9.02995e+08 7.63194e+08 7.02117e+08 6.60092e+08 5.38693e+08 5.00867e+08 4.58184e+08 4.55428e+08 3.60319e+08 3.49406e+08 3.18157e+08 3.05933e+08 2.97282e+08 2.84476e+08 2.48973e+08 2.3597e+08 2.2158e+08 1.75122e+08 1.29559e+08 1.23098e+08 1.17972e+08 1.08732e+08
threshold=6.7650000000000006 4.745000000000001 76.165000000000006 8.0550000000000015 3.3550000000000004 5.8550000000000013 8.8050000000000015 0 139.65000000000001 38.025000000000013 -139.43499999999997 7.4050000000000011 2.5150000000000001 9.3450000000000006 5.3150000000000004 4.1450000000000005 35.875000000000007 7.7550000000000008 1 2 3 4 6.3650000000000011 6.4250000000000007 5 109.16000000000001 6 10.315000000000003 7 38.935000000000009
decision_type=2 2 2 2 2 2 2 9 2 2 2 2 2 2 2 2 2 2 9 9 9 9 2 2 9 2 9 2 9 2
left_child=1 4 3 11 12 14 17 13 25 10 -9 21 -1 -5 -3 -6 23 -4 -7 -15 -13 -2 -20 24 -12 -8 -16 -10 -18 -21
right_child=2 5 6 7 15 18 8 9 27 -11 16 20 -14 19 26 -17 28 -19 22 29 -22 -23 -24 -25 -26 -27 -28 -29 -30 -31
leaf_value=-21.196456478441938 4.2920950328115586 -8.0949127194152624 14.845385264132771 22.833626580105914 -14.944803904234218 -1.7483841815213428 32.058604535750753 24.383454983079655 36.728294768627059 24.341013012496791 16.2964266493377 9.4860963216536671 -17.912175050340867 42.50161144819112 -6.5306839007486719 -11.587600231394534 22.500496503083131 24.882400158265849 0.91502148891449231 27.604137895411021 15.268881862160066 9.5217217436541191 4.9830049366965818 18.629926592614389 10.657386004468552 35.731532218339972 -3.2681595937353296 41.376236501283842 17.582301789115373 33.275633993649954
leaf_weight=310646 38424 164193 12417 26116 233334 58048 66431 31569 17924 54819 29452 33518 208766 5754 43400 178150 20545 28745 91332 20738 66862 80830 63948 24379 43252 63482 102137 69586 31948 14271
leaf_count=310646 38424 164193 12417 26116 233334 58048 66431 31569 17924 54819 29452 33518 208766 5754 43400 178150 20545 28745 91332 20738 66862 80830 63948 24379 43252 63482 102137 69586 31948 14271
internal_value=0 -12.0508 22.4329 16.6253 -17.054 -3.14639 34.1672 21.1744 36.4981 19.1711 17.6076 10.3527 -19.8764 28.2355 -6.28437 -13.4913 16.1775 21.8547 1.40964 31.7032 13.3404 7.83788 2.59015 14.3729 12.9455 33.8534 -4.24174 40.4243 19.5149 29.9076
internal_weight=0 1.45395e+06 781062 522477 930896 523058 258585 302843 217423 235964 181145 219634 519412 66879 309730 411484 149576 41162 213328 40763 100380 119254 155280 97083 72704 129913 145537 87510 52493 35009
internal_count=2235016 1453954 781062 522477 930896 523058 258585 302843 217423 235964 181145 219634 519412 66879 309730 411484 149576 41162 213328 40763 100380 119254 155280 97083 72704 129913 145537 87510 52493 35009
cat_boundaries=0 3 6 9 12 15 18 21 24
cat_threshold=2531330 33560074 524358 2281718148 3224446400 2454765596 2 0 524288 3357557124 3224446400 2479931420 3357557124 3224446400 2479931420 2973782012 1073809600 6291600 3358081476 3224446400 2454749212 2538692596 3313502384 138420240
is_linear=0
shrinkage=0.05


Tree=3
num_leaves=31
num_cat=8
split_feature=1 1 6 1 1 1 1 0 6 6 6 1 1 1 1 1 1 4 1 0 0 0 0 6 0 0 6 1 1 0
split_gain=2.1815e+11 2.40789e+10 1.87754e+10 5.06917e+09 3.50475e+09 2.75073e+09 2.63542e+09 1.54194e+09 7.49041e+08 6.80694e+08 6.35131e+08 5.90932e+08 5.39409e+08 4.19168e+08 4.15795e+08 3.96911e+08 3.83038e+08 3.21724e+08 3.17816e+08 2.77397e+08 2.73932e+08 2.59774e+08 2.23339e+08 1.69679e+08 1.59899e+08 1.55264e+08 1.39592e+08 1.14638e+08 1.20565e+08 1.1102e+08
threshold=6.8050000000000006 4.7750000000000012 76.165000000000006 8.1050000000000022 3.4150000000000005 5.8550000000000013 9.0450000000000017 0 143.86500000000004 38.025000000000013 -136.02499999999998 7.455000000000001 2.5150000000000001 9.4850000000000012 8.1050000000000022 4.1750000000000007 5.3550000000000013 35.875000000000007 6.3650000000000011 1 2 3 4 109.16000000000001 5 6 6.4250000000000007 13.545000000000002 8.9250000000000025 7
decision_type=2 2 2 2 2 2 2 9 2 2 2 2 2 2 2 2 2 2 2 9 9 9 9 2 9 9 2 2 2 9
left_child=1 4 3 11 12 16 14 13 23 10 27 21 -1 -5 -4 -6 -3 22 25 -15 -13 -2 -12 -8 -20 -7 -24 28 -9 -18
right_child=2 5 6 7 15 18 8 9 -10 -11 17 20 -14 19 -16 -17 29 -19 24 -21 -22 -23 26 -25 -26 -27 -28 -29 -30 -31
leaf_value=-20.136633947010466 3.8960787192889579 -7.4680973554263277 16.456970777142423 22.240086594932762 -14.010638579324439 -2.7018680136242001 30.740527050476473 20.63996637760064 38.823046052488046 23.21760486307501 16.097502720792345 8.9424896869291697 -16.925900648357004 40.905500237281622 25.816972644136094 -10.851468732035771 -5.9278557197738655 18.609221903218273 0.77643892689480243 28.587302145557103 14.743604165606138 9.2093475906359181 9.6042370894136546 34.359460106932239 5.072626125089652 1.0453259286397507 15.847427469357724 8.813181610740358 26.965540662632879 -2.869678095648486
leaf_weight=310646 31172 166454 19431 27170 225111 41274 61889 14764 78446 53931 47306 28890 225977 5457 30475 178075 44327 50734 32708 33098 69948 88345 34753 67989 64185 83658 12061 1320 15386 90036
leaf_count=310646 31172 166454 19431 27170 225111 41274 61889 14764 78446 53931 47306 28890 225977 5457 30475 178075 44327 50734 32708 33098 69948 88345 34753 67989 64185 83658 12061 1320 15386 90036
internal_value=0 -11.3535 21.4923 15.9692 -16.1379 -2.75019 32.4929 20.2327 34.9652 18.3012 16.7984 10.1901 -18.7846 26.9927 22.1727 -12.6153 -5.8651 15.3997 1.47394 30.3489 13.0504 7.82466 13.6696 32.635 3.62298 -0.192775 11.2103 23.2366 23.8681 -3.87924
internal_weight=0 1.46245e+06 772565 514335 939809 522642 258230 295980 208324 230255 176324 218355 536623 65725 49906 403186 300817 144854 221825 38555 98838 119517 94120 129878 96893 124932 46814 31470 30150 134363
internal_count=2235016 1462451 772565 514335 939809 522642 258230 295980 208324 230255 176324 218355 536623 65725 49906 403186 300817 144854 221825 38555 98838 119517 94120 129878 96893 124932 46814 31470 30150 134363
cat_boundaries=0 3 6 9 12 15 18 21 24
cat_threshold=2531330 33560074 524358 2 0 524288 3355443588 3224446400 2454765596 3355443588 3224445376 2421211164 3074449404 1073940720 6291512 3358066084 3224446400 2479931420 3358082500 3224446400 2454769692 3358115268 3224446400 2463137820
is_linear=0
shrinkage=0.05


Tree=4
num_leaves=31
num_cat=7
split_feature=1 1 6 1 1 1 1 0 6 1 1 6 6 1 1 1 1 6 4 3 0 6 0 0 0 0 0 3 3 1
split_gain=1.96917e+11 1.93356e+10 1.85926e+10 5.28629e+09 3.03208e+09 2.67369e+09 2.36936e+09 1.47281e+09 9.1377e+08 5.06839e+08 4.82777e+08 4.31778e+08 7.49323e+08 3.74792e+08 3.56159e+08 3.49076e+08 3.1154e+08 2.63515e+08 2.61394e+08 2.94414e+08 2.5312e+08 2.47784e+08 2.26946e+08 2.02276e+08 1.62462e+08 1.53514e+08 1.52774e+08 1.55607e+08 1.41073e+08 1.3087e+08
threshold=6.6450000000000005 4.535000000000001 67.035000000000011 7.9050000000000011 8.7450000000000028 5.6050000000000013 3.1050000000000004 0 118.06500000000001 7.2250000000000005 9.2250000000000032 14.385000000000003 -115.04499999999999 6.1250000000000009 7.705000000000001 3.8350000000000004 5.0750000000000011 -4.964999999999999 39.135000000000012 11.892500000000002 1 162.64500000000001 2 3 4 5 6 16.232500000000005 20.515000000000004 13.545000000000002
decision_type=2 2 2 2 2 2 2 9 2 2 2 2 2 2 2 2 2 2 2 2 9 2 9 9 9 9 9 2 2 2
left_child=1 6 3 9 14 16 17 10 -6 23 -5 12 29 -7 -4 -8 -3 -1 19 -14 -11 28 -12 -2 -15 -21 -13 -28 -10 -9
right_child=2 5 4 7 8 13 15 11 21 20 22 26 18 24 -16 -17 -18 -19 -20 25 -22 -23 -24 -25 -26 -27 27 -29 -30 -31
leaf_value=-16.717171875397618 2.9078411710338425 -8.5882552749639753 12.533843315512268 19.786506530713254 28.896339249631154 -1.9321529996116884 -14.553176779281413 21.190819217937438 36.457706923283816 7.3608449306363886 38.00576978150157 16.415413593343981 20.640125404512759 -1.5161402024505637 21.67941572616953 -11.670215288833059 -5.39552500741428 -19.248407853113196 17.799433960708733 13.319703774769881 12.452596546308884 37.954843253295813 27.198539859348877 7.4076136792960643 2.9019540798487831 9.1116522087176435 28.817119201202292 20.322038953532747 32.031451181771089 7.9093278337943822
leaf_weight=159563 38094 158620 15705 23487 102394 133357 211686 44813 26860 37621 5943 23697 8971 26767 33047 208342 147417 289178 24486 41835 70172 50253 31291 72761 93401 45559 6089 47036 54636 1935
leaf_count=159563 38094 158620 15705 23487 102394 133357 211686 44813 26860 37621 5943 23697 8971 26767 33047 208342 147417 289178 24486 41835 70172 50253 31291 72761 93401 45559 6089 47036 54636 1935
internal_value=0 -11.1533 19.7486 14.1701 30.0775 -3.90457 -15.8221 18.422 32.4395 8.2361 25.396 16.6878 15.2656 -0.107246 18.7333 -13.1232 -7.05033 -18.3484 13.1863 12.0141 10.6774 35.1933 28.9411 5.86226 1.91795 11.1286 19.7925 21.2918 33.4903 20.6411
internal_weight=0 1.42833e+06 806685 523790 282895 559562 868769 305142 234143 218648 60721 244421 167599 253525 48752 420028 306037 448741 120851 96365 107793 131749 37234 110855 120168 87394 76822 53125 81496 46748
internal_count=2235016 1428331 806685 523790 282895 559562 868769 305142 234143 218648 60721 244421 167599 253525 48752 420028 306037 448741 120851 96365 107793 131749 37234 110855 120168 87394 76822 53125 81496 46748
cat_boundaries=0 3 6 9 12 15 18 21
cat_threshold=2498562 5642 524358 3355984260 3224446400 3016806428 2 0 524288 3357558212 3224446400 2479931420 2281701764 3224445376 273711132 2537676796 1124075712 148897816 1207959584 137650432 4153856008
is_linear=0
shrinkage=0.05


Tree=5
num_leaves=31
num_cat=3
split_feature=6 6 6 6 6 6 0 6 6 6 6 6 2 2 2 6 4 0 3 2 2 4 6 6 6 2 6 5 0 2
split_gain=1.11785e+11 1.94851e+10 6.95621e+09 5.99731e+09 3.81112e+09 2.28219e+09 1.66606e+09 1.30597e+09 1.73574e+09 9.94167e+08 7.23947e+08 6.90413e+08 5.71682e+08 5.76349e+08 4.67075e+08 4.39447e+08 7.56645e+08 3.92437e+08 3.7541e+08 2.68385e+08 2.62346e+08 2.58103e+08 2.50252e+08 2.40264e+08 2.37699e+08 2.33852e+08 2.27175e+08 2.53653e+08 2.14536e+08 1.95487e+08
threshold=32.155000000000008 -76.044999999999987 10.825000000000001 90.935000000000016 -22.104999999999997 -132.85499999999999 0 2.5850000000000004 -1.615 139.65000000000001 -48.314999999999991 63.70000000000001 5.7350000000000012 -6.8349999999999991 3.9550000000000005 -0.24499999999999997 1.0000000180025095e-35 1 16.782500000000002 -5.3049999999999988 3.8750000000000004 34.065000000000005 -100.90499999999999 -0.46499999999999991 13.475000000000003 5.1450000000000005 -0.11499999999999998 110.49500000000002 2 -6.0749999999999993
decision_type=2 2 2 2 2 2 9 2 2 2 2 2 2 2 2 2 2 9 2 2 2 2 2 2 2 2 2 2 9 2
left_child=1 5 4 11 10 28 12 8 14 -5 -3 -2 13 -6 19 23 -17 -7 -4 -8 -9 -12 -19 -10 -20 29 27 -15 -1 -18
right_child=3 2 18 9 6 17 7 20 15 -11 21 -13 -14 26 -16 16 25 22 24 -21 -22 -23 -24 -25 -26 -27 -28 -29 -30 -31
leaf_value=11.07285904445544 14.042857469652933 -3.8312862095832005 15.046633445530796 26.977810284445077 -17.888877211421711 6.9823973799593517 -13.008798032472823 -4.1934674671342158 -13.817929022693399 33.737343149370524 -8.4964383152073388 20.581596968570611 -17.218545680641192 13.774513148203333 -13.881745422886906 -19.083781168304096 -15.284468650567712 2.4954439227433944 -1.6768569236338693 -8.6850479632154833 -11.830885869941499 -5.7542762286415865 -0.81969758724410635 -18.655179485410724 4.8701362717393284 -16.370364806825737 -15.631422492550787 2.3279570089818682 7.3985438760043793 -8.3876870141125899
leaf_weight=65249 84467 243224 7916 129966 2701 27472 42224 61654 33713 93556 209416 77331 3753 9479 70608 40587 12458 102876 16832 239283 13752 145388 127451 107626 78619 15523 1080 9889 102294 58629
leaf_count=65249 84467 243224 7916 129966 2701 27472 42224 61654 33713 93556 209416 77331 3753 9479 70608 40587 12458 102876 16832 239283 13752 145388 127451 107626 78619 15523 1080 9889 102294 58629
internal_value=0 -5.1035 -7.90785 24.4999 -8.88529 4.28748 -11.3279 -11.7997 -12.5547 29.8071 -5.93242 17.168 0.883071 3.81821 -10.2456 -15.5826 -13.4504 1.33492 4.58339 -9.33358 -5.58634 -7.37278 0.660989 -17.5014 3.71563 -10.8105 6.6856 7.93012 8.8306 -9.59637
internal_weight=0 1.8497e+06 1.42435e+06 385320 1.32099e+06 425342 722959 696057 620651 223522 598028 161798 26902 23149 352115 268536 127197 257799 103367 281507 75406 354804 230327 141339 95451 86610 20448 19368 167543 71087
internal_count=2235016 1849696 1424354 385320 1320987 425342 722959 696057 620651 223522 598028 161798 26902 23149 352115 268536 127197 257799 103367 281507 75406 354804 230327 141339 95451 86610 20448 19368 167543 71087
cat_boundaries=0 1 4 7
cat_threshold=2 2367616 1026 64 130351102 5642 524384
is_linear=0
shrinkage=0.05


Tree=6
num_leaves=31
num_cat=11
split_feature=1 1 1 1 1 1 1 4 3 0 1 0 0 0 1 1 0 0 0 1 3 4 3 4 3 0 0 0 1 0
split_gain=1.67335e+11 1.8858e+10 1.23025e+10 2.73001e+09 2.10457e+09 1.29826e+09 1.02787e+09 5.45199e+08 8.54731e+08 4.56544e+08 4.26186e+08 3.62781e+08 3.45665e+08 2.9881e+08 2.94952e+08 2.8527e+08 2.70921e+08 2.55996e+08 2.3531e+08 2.07314e+08 1.26113e+08 1.19505e+08 2.39014e+08 1.89785e+08 1.39641e+08 2.31547e+08 1.41831e+08 1.33146e+08 1.17522e+08 1.09538e+08
threshold=6.8450000000000006 4.8350000000000009 8.6250000000000018 3.5150000000000001 5.8950000000000005 7.6550000000000011 9.8250000000000011 36.655000000000008 14.605000000000002 0 2.5150000000000001 1 2 3 4.2950000000000008 5.4350000000000014 4 5 6 6.4050000000000011 5.1250000000000009 32.625000000000007 22.025000000000006 25.385000000000002 28.977500000000003 7 8 9 8.1550000000000029 10
decision_type=2 2 2 2 2 2 2 2 2 9 2 9 9 9 2 2 9 9 9 2 2 2 2 2 2 9 9 9 2 9
left_child=1 3 5 10 15 13 11 8 16 -7 -1 -4 29 -2 -5 -3 -8 -6 -9 -19 -13 22 23 -14 26 -26 -23 -24 -11 -10
right_child=2 4 6 14 17 9 7 18 12 28 -12 20 21 -15 -16 -17 -18 19 -20 -21 -22 24 27 -25 25 -27 -28 -29 -30 -31
leaf_value=-17.473597559617918 4.8918248823411989 -6.2191357999670593 17.485376469656423 -11.939070398320384 -1.7242694415881781 10.733894445899297 23.108751416942841 25.829182052677687 37.266893517876774 14.89970957616614 -14.714604883362213 30.113771915106526 17.058236100168109 9.5766526139921915 -9.1484345012916339 -3.0563869216027779 32.429553033536457 0.93666709921552416 30.434799912752339 4.4243903216276914 22.217292759087567 29.497932438947444 18.167789621749399 26.011842578038369 24.139181903087401 10.87704480701259 20.997708579204733 10.788310429644056 18.303285820418612 24.948169290709455
leaf_weight=310646 50961 171105 52606 232195 46529 52983 10471 48276 1950 55126 254773 5341 10071 102974 159889 122226 33921 98038 69577 75358 95123 9991 16915 14357 8028 5678 10330 9776 46982 52820
leaf_count=310646 50961 171105 52606 232195 46529 52983 10471 48276 1950 55126 254773 5341 10071 102974 159889 122226 33921 98038 69577 75358 95123 9991 16915 14357 8028 5678 10330 9776 46982 52820
internal_value=0 -9.86199 18.9792 -14.0072 -2.12896 11.2796 24.2059 25.8969 24.1985 14.5083 -16.2304 20.8678 22.2806 8.02666 -10.8011 -4.90127 30.2436 1.5687 28.553 2.45229 22.6349 20.2728 18.7467 22.3206 22.5712 18.6707 25.2019 15.4758 16.4642 25.3935
internal_weight=0 1.47076e+06 764257 957503 513256 309026 455231 302161 184308 155091 565419 153070 139916 153935 392084 293331 44392 219925 117853 173396 100464 85146 51119 24428 34027 13706 20321 26691 102108 54770
internal_count=2235016 1470759 764257 957503 513256 309026 455231 302161 184308 155091 565419 153070 139916 153935 392084 293331 44392 219925 117853 173396 100464 85146 51119 24428 34027 13706 20321 26691 102108 54770
cat_boundaries=0 3 6 9 12 15 18 21 24 27 30 33
cat_threshold=3357541764 3224446400 4074029084 3355443588 3224724864 4115976220 98879414 1082133081 145227896 3358082436 3224446400 2463154204 1074528288 271846784 3741631488 2281701764 3224445376 269516828 2843738120 437837957 4045555555 33691648 68419840 3830493185 3523356736 3041333408 643082368 2450200576 68550912 3830493185 2 0 524288
is_linear=0
shrinkage=0.05


Tree=7
num_leaves=31
num_cat=8
split_feature=1 1 1 6 1 1 1 0 6 6 6 0 1 0 0 1 1 0 1 6 1 3 6 1 6 0 1 6 0 0
split_gain=1.51054e+11 1.46554e+10 1.36509e+10 5.46788e+09 2.01299e+09 1.75853e+09 1.33063e+09 1.18971e+09 5.71291e+08 5.50627e+08 4.32138e+08 3.99511e+08 2.98876e+08 2.71406e+08 2.5044e+08 2.39907e+08 2.29038e+08 2.28336e+08 2.26849e+08 2.19195e+08 2.10509e+08 1.62806e+08 1.52841e+08 1.46912e+08 1.44959e+08 1.39638e+08 1.37464e+08 1.09963e+08 1.09369e+08 1.07724e+08
threshold=6.6450000000000005 4.5650000000000004 8.4550000000000018 82.095000000000013 5.6050000000000013 3.2050000000000005 7.5050000000000008 0 148.15500000000003 47.465000000000011 -142.79499999999999 1 6.0950000000000006 2 3 3.8950000000000005 9.4850000000000012 4 5.0750000000000011 -7.1349999999999989 11.455000000000002 11.407500000000002 4.6050000000000013 9.4850000000000012 41.125000000000007 5 7.0450000000000008 -124.62499999999999 6 7
decision_type=2 2 2 2 2 2 2 9 2 2 2 9 2 9 9 2 2 9 2 2 2 2 2 2 2 9 2 2 9 9
left_child=1 5 6 7 18 19 13 17 16 10 -9 -8 29 -2 21 -7 -5 -4 -3 -1 22 -12 -16 -19 27 -14 -15 -13 -18 -6
right_child=2 4 3 8 12 15 11 9 -10 -11 14 24 25 26 20 -17 28 23 -20 -21 -22 -23 -24 -25 -26 -27 -28 -29 -30 -31
leaf_value=-14.321483068801891 3.5447907382292878 -7.5377735993525992 31.594792135075807 22.809961403296455 -4.3760720062966696 -12.556962307769624 9.2357528474041519 20.950577869222926 32.10303721337521 20.593378473661645 25.536170193373973 16.550597984197456 -0.72806434762089645 5.9814136855020026 10.77790844489089 -10.111060328499589 25.252496424454044 19.022519376530216 -4.7744657842361233 -16.593491908989268 6.1991632070187199 14.968135957344229 16.410120248058607 24.286320331925399 17.657053110072777 2.7771959899522383 9.4806582963829467 12.250419407088144 28.747581353237081 -0.98935150487747048
leaf_weight=159601 57508 149686 7949 30082 31218 201488 53833 21360 73776 46534 3902 20437 42702 54869 34647 199549 33584 20135 147417 317065 16034 55227 18466 38812 27665 84890 57456 54556 79853 94715
leaf_count=159601 57508 149686 7949 30082 31218 201488 53833 21360 73776 46534 3902 20437 42702 54869 34647 199549 33584 20135 147417 317065 16034 55227 18466 38812 27665 84890 57456 54556 79853 94715
internal_value=0 -9.76839 17.2967 22.6576 -3.37401 -13.7799 9.40523 17.8093 28.5272 15.8423 14.3659 12.7314 -0.101315 6.34038 13.2694 -11.3399 26.689 23.5717 -6.16667 -15.8328 11.2187 15.6629 12.7361 22.4845 14.5621 1.60423 7.77065 13.4223 27.7176 -1.82933
internal_weight=0 1.42833e+06 806685 480361 550628 877703 326324 263066 217295 196170 149636 156491 253525 169833 128276 401037 143519 66896 297103 476666 69147 59129 53113 58947 102658 127592 112325 74993 113437 125933
internal_count=2235016 1428331 806685 480361 550628 877703 326324 263066 217295 196170 149636 156491 253525 169833 128276 401037 143519 66896 297103 476666 69147 59129 53113 58947 102658 127592 112325 74993 113437 125933
cat_boundaries=0 3 6 9 12 15 18 21 24
cat_threshold=2531586 33560074 524374 3357558148 3224446400 3545546780 2284340612 3224446400 2465255452 2458935004 3221424628 6291592 2 0 524288 3358082436 3224446400 2465251356 3223584896 2585814146 4124491806 2283798916 3224446400 307265564
is_linear=0
shrinkage=0.05


Tree=8
num_leaves=31
num_cat=8
split_feature=1 1 6 1 1 1 1 0 6 1 0 6 6 4 1 1 3 1 1 1 0 0 0 1 1 6 0 0 0 1
split_gain=1.36351e+11 1.58149e+10 1.04853e+10 2.83383e+09 2.30896e+09 1.7433e+09 1.68067e+09 1.102e+09 4.48297e+08 3.80571e+08 3.6515e+08 3.55612e+08 4.01381e+08 3.10623e+08 3.02073e+08 2.93787e+08 2.72109e+08 2.40154e+08 2.39922e+08 2.38207e+08 2.24288e+08 1.91574e+08 1.85058e+08 1.80553e+08 1.72841e+08 1.62503e+08 1.25201e+08 1.17521e+08 1.09428e+08 1.02358e+08
threshold=6.8850000000000007 4.8650000000000011 76.165000000000006 8.2050000000000018 3.5550000000000002 5.9350000000000014 9.2250000000000032 0 143.86500000000004 2.5650000000000004 1 47.465000000000011 -142.79499999999999 35.875000000000007 8.1550000000000029 7.5550000000000006 12.312500000000002 4.3250000000000011 5.4650000000000007 9.4850000000000012 2 3 4 6.4450000000000012 10.475000000000003 13.475000000000003 5 6 7 9.5550000000000015
decision_type=2 2 2 2 2 2 2 9 2 2 9 2 2 2 2 2 2 2 2 2 9 9 9 2 2 2 9 9 9 2
left_child=1 4 3 10 9 18 14 19 27 -1 -2 12 -9 16 -4 -12 22 -6 -3 -5 -7 -21 -14 -22 -24 26 -18 -8 -15 -28
right_child=2 5 6 7 17 20 8 11 -10 -11 15 -13 13 28 -16 -17 25 -19 -20 21 23 -23 24 -25 -26 -27 29 -29 -30 -31
leaf_value=-15.75243788025367 5.3157906237085939 -5.4568578882614878 12.894459309344876 18.330130162990738 -10.654506076356672 -2.159485258959569 23.391810004513669 19.276887641908012 30.601623952792764 -13.169105914594954 8.0642086214816686 18.839479852313719 6.2126671433590284 13.018925862370537 20.547005568286842 12.405832156612721 11.584014741093933 -8.1288295826589732 -2.5679717185268696 33.379715519845767 0.95927571761697505 23.149255064744782 17.210294207534609 4.1062281014691795 32.532976092382782 13.731908870538348 9.5748740590429176 26.796148433210661 17.637581765654826 4.48590137112717
leaf_weight=320170 57588 170636 19932 24800 229352 32733 38380 27206 77118 257016 88773 41252 2586 22309 36533 69447 23928 159626 124170 5457 104671 33098 6636 80735 2547 21774 19476 85554 31456 20057
leaf_count=320170 57588 170636 19932 24800 229352 32733 38380 27206 77118 257016 88773 41252 2586 22309 36533 69447 23928 159626 124170 5457 104671 33098 6636 80735 2547 21774 19476 85554 31456 20057
internal_value=0 -8.82837 17.2755 13.0425 -12.5955 -1.73271 25.4678 16.3373 27.6085 -14.6021 8.72819 14.656 13.6871 12.6784 17.8457 9.96924 10.9888 -9.61804 -4.24008 22.1495 1.6559 24.612 18.1155 2.32949 21.4372 10.0047 8.72589 25.746 15.7269 6.99124
internal_weight=0 1.47911e+06 755907 498390 966164 512945 257517 282582 201052 577186 215808 219227 177975 150769 56465 158220 97004 388978 294806 63355 218139 38555 11769 185406 9183 85235 63461 123934 53765 39533
internal_count=2235016 1479109 755907 498390 966164 512945 257517 282582 201052 577186 215808 219227 177975 150769 56465 158220 97004 388978 294806 63355 218139 38555 11769 185406 9183 85235 63461 123934 53765 39533
cat_boundaries=0 3 6 9 12 15 18 21 24
cat_threshold=2531330 33560074 524358 3355443588 3224445376 2421211164 2281701764 2171328 269484040 2 0 524288 1078460464 3407872 2583986176 2436911100 1073744064 4194328 2149842944 2586862722 4158046238 679477256 403234821 4088586017
is_linear=0
shrinkage=0.05


Tree=9
num_leaves=31
num_cat=5
split_feature=1 1 1 6 1 1 1 0 6 1 0 6 6 1 1 0 0 1 1 1 6 4 4 6 6 4 0 1 1 6
split_gain=1.23088e+11 1.1579e+10 1.15674e+10 4.45788e+09 1.65305e+09 1.34177e+09 1.16841e+09 9.85243e+08 4.67717e+08 4.47267e+08 3.48729e+08 3.41601e+08 4.02516e+08 2.68635e+08 2.39145e+08 2.31867e+08 2.24068e+08 2.15727e+08 1.92964e+08 1.90952e+08 1.75581e+08 1.52573e+08 1.48154e+08 1.42846e+08 1.3412e+08 1.31855e+08 1.19206e+08 1.06449e+08 1.02971e+08 1.02589e+08
threshold=6.6050000000000013 8.4550000000000018 4.5050000000000008 82.095000000000013 5.5650000000000004 3.0650000000000004 7.455000000000001 0 148.15500000000003 11.885000000000003 1 13.475000000000003 -97.344999999999985 9.4850000000000012 6.0550000000000006 2 3 3.7750000000000004 5.0150000000000006 9.5550000000000015 13.475000000000003 39.795000000000009 39.035000000000004 -4.5549999999999988 41.125000000000007 18.365000000000006 4 7.0450000000000008 12.005000000000001 -122.07499999999997
decision_type=2 2 2 2 2 2 2 9 2 2 9 2 2 2 2 9 9 2 2 2 2 2 2 2 2 2 9 2 2 2
left_child=2 6 5 7 18 23 15 13 19 11 -8 12 -9 -3 -6 -2 -15 -7 -4 -5 -11 -14 25 -1 29 -18 -16 -17 -10 -12
right_child=1 3 4 8 14 17 10 9 28 20 24 -13 21 16 26 27 22 -19 -20 -21 -22 -23 -24 -25 -26 -27 -28 -29 -30 -31
leaf_value=-13.257694352499389 2.8603943238107044 16.487912684301048 -7.0668325933464464 20.709082872807869 -1.8734585991189345 -11.687873786658995 8.157067339482408 18.044388592956114 27.183323061558305 3.9767868907131998 14.807306774833046 17.809226726140405 9.0869029916183024 31.714156119277277 3.3310533812257361 5.3384172370456584 29.528799236614226 -9.4259711343053922 -4.5473962822454945 25.076906176077934 11.751548323309477 16.094202526105928 24.80746347696034 -15.144080362704205 15.954843880275076 18.534031686004521 0.10594352904302483 8.4337403237087436 30.921774647724824 10.835470474591155
leaf_weight=155776 57831 33653 149839 32291 126855 204580 56809 24714 38065 13623 22642 59033 43932 5515 43070 60379 2948 217478 154224 111228 15552 9437 18264 282136 28365 36395 85561 51441 35711 57669
leaf_count=155776 57831 33653 149839 32291 126855 204580 56809 24714 38065 13623 22642 59033 43932 5515 43070 60379 2948 217478 154224 111228 15552 9437 18264 282136 28365 36395 85561 51441 35711 57669
internal_value=0 15.4812 -8.89334 20.4576 -3.29783 -12.5341 8.34824 16.08 25.7574 13.742 11.3374 14.939 12.769 20.0938 -0.333051 5.43243 22.0194 -10.5224 -5.78895 24.0942 8.12122 10.326 21.0821 -14.473 12.998 19.358 1.18609 6.76177 28.9929 11.9553
internal_weight=0 815497 1.41952e+06 480361 559549 859970 335136 263066 217295 166291 165485 137116 78083 96775 255486 169651 63122 422058 304063 143519 29175 53369 57607 437912 108676 39343 128631 111820 73776 80311
internal_count=2235016 815497 1419519 480361 559549 859970 335136 263066 217295 166291 165485 137116 78083 96775 255486 169651 63122 422058 304063 143519 29175 53369 57607 437912 108676 39343 128631 111820 73776 80311
cat_boundaries=0 3 6 9 12 15
cat_threshold=270968774 1107301898 4718678 3355460996 3224446400 4074029084 3357558212 3224577472 2471542812 2 0 524288 89397776 688673342 1208495875
is_linear=0
shrinkage=0.05


Tree=10
num_leaves=31
num_cat=12
split_feature=1 1 1 1 1 1 1 4 3 0 0 1 0 0 1 0 1 0 0 0 1 3 4 3 4 3 0 0 0 0
split_gain=1.11105e+11 1.28816e+10 7.87554e+09 1.7612e+09 1.53552e+09 9.53342e+08 5.48681e+08 4.19822e+08 6.81313e+08 3.4734e+08 2.8655e+08 2.66717e+08 2.6497e+08 2.37274e+08 2.33542e+08 2.25231e+08 2.1212e+08 1.99244e+08 1.92096e+08 1.23e+08 1.20333e+08 1.08142e+08 1.0569e+08 2.15086e+08 1.51031e+08 1.21564e+08 1.82969e+08 1.26622e+08 1.16224e+08 1.02565e+08
threshold=6.8850000000000007 4.8050000000000006 8.7450000000000028 3.4450000000000007 5.9350000000000014 7.7550000000000008 9.8250000000000011 36.815000000000005 14.275000000000002 0 1 2.3950000000000005 2 3 5.3950000000000005 4 4.2350000000000012 5 6 7 6.4450000000000012 6.205000000000001 32.525000000000013 21.872500000000006 25.385000000000002 28.192500000000006 8 9 10 11
decision_type=2 2 2 2 2 2 2 2 2 9 9 2 9 9 2 9 2 9 9 9 2 2 2 2 2 2 9 9 9 9
left_child=1 3 5 11 14 13 12 8 15 -7 -10 -1 -4 -2 -3 -8 -5 -6 -9 -15 -19 -11 23 24 -12 27 -27 -24 -25 -16
right_child=2 4 6 16 17 9 7 18 10 21 22 -13 -14 19 29 -17 -18 20 -20 -21 -22 -23 25 28 -26 26 -28 -29 -30 -31
leaf_value=-14.378824181001088 2.2510884111797806 -5.2383316503054091 14.221533530023883 -9.9272820044124757 -0.63741767742256639 9.1249253124915679 18.762736427380641 20.9703369617053 20.811970449796945 20.982643108171473 13.618853467376438 -12.165589052207668 18.897351211276163 9.5668419084253369 -5.415496574248583 27.315430568678806 -7.6034841188281694 1.3019946930582034 25.181726395287118 6.5209726284966365 4.2085475668386696 13.737688358789013 25.306437635830093 13.936752812774444 21.510671912990169 18.766853907549088 7.8122544190559573 16.887038573642638 6.8537024757558713 -1.8826320247386681
leaf_weight=282326 23233 168784 46419 234474 73170 53044 10423 46192 56503 5442 10604 262880 89519 54591 24849 32067 168977 82061 69180 85179 62908 96319 9256 18147 14158 12337 5587 9095 8612 118680
leaf_count=282326 23233 168784 46419 234474 73170 53044 10423 46192 56503 5442 10604 262880 89519 54591 24849 32067 168977 82061 69180 85179 62908 96319 9256 18147 14158 12337 5587 9095 8612 118680
internal_value=0 -7.96925 15.5945 -11.4584 -1.72923 9.60235 19.9413 21.1281 19.6634 12.4124 18.0247 -13.3117 17.3031 6.9336 -3.97749 25.2283 -8.95401 1.48964 23.4996 7.71123 2.56309 14.1238 16.2267 14.7728 18.1312 18.2961 15.3671 21.1568 11.665 -2.49478
internal_weight=0 1.47911e+06 755907 948657 530452 317808 438099 302161 186789 154805 144299 545206 135938 163003 312313 42490 403451 218139 115372 139770 144969 101761 87796 51521 24762 36275 17924 18351 26759 143529
internal_count=2235016 1479109 755907 948657 530452 317808 438099 302161 186789 154805 144299 545206 135938 163003 312313 42490 403451 218139 115372 139770 144969 101761 87796 51521 24762 36275 17924 18351 26759 143529
cat_boundaries=0 3 6 9 12 15 18 21 24 27 30 33 36
cat_threshold=3355443588 3224446400 4157657116 132433846 1074006617 145227888 3355443588 1077241216 4057387036 2281701760 2171264 269516808 1074528288 271846784 3750020096 3358082436 3224446400 2479931420 2843738120 1511579781 4029072225 123017752 558371358 134754179 2147686400 97517856 3880824841 3623888960 3049459872 102033544 2550339584 93520128 3830493193 2281701764 1075913152 269484060
is_linear=0
shrinkage=0.05


Tree=11
num_leaves=31
num_cat=5
split_feature=6 6 6 6 6 6 2 0 2 4 6 6 6 6 2 3 6 0 6 6 4 3 6 5 0 3 2 6 0 0
split_gain=6.24315e+10 1.12048e+10 4.15256e+09 3.23316e+09 2.31306e+09 1.15177e+09 9.38541e+08 1.04559e+09 8.10479e+08 7.84236e+08 5.43973e+08 5.40759e+08 4.13233e+08 3.76455e+08 3.25979e+08 2.61609e+08 2.36193e+08 2.16856e+08 2.11621e+08 2.71438e+08 1.66511e+08 1.49845e+08 1.35384e+08 1.39849e+08 1.31173e+08 1.29474e+08 1.23948e+08 1.23001e+08 1.14401e+08 1.09626e+08
threshold=35.020000000000003 -81.074999999999974 12.145000000000001 103.13500000000001 -28.114999999999998 -136.02499999999998 5.8550000000000013 0 -9.8849999999999998 1.0000000180025095e-35 67.035000000000011 3.8750000000000004 157.32500000000002 -53.864999999999988 -8.3349999999999991 17.292500000000004 -6.2249999999999988 1 -0.22499999999999998 -0.46499999999999991 34.245000000000012 20.675000000000004 -0.11499999999999998 58.205000000000005 2 18.332500000000003 10.155000000000003 -104.56499999999998 3 4
decision_type=2 2 2 2 2 2 2 9 2 2 2 2 2 2 2 2 2 9 2 2 2 2 2 2 9 2 2 2 9 9
left_child=1 5 4 10 13 24 7 14 -9 -10 28 16 21 29 -6 -4 -11 -7 19 -18 -15 -5 23 -16 -1 -13 -8 -19 -2 -3
right_child=3 2 15 12 6 17 26 8 9 11 -12 25 -14 20 22 -17 18 27 -20 -21 -22 -23 -24 -25 -26 -27 -28 -29 -30 -31
leaf_value=8.9258050746674442 13.552378571996009 0.78132698504992515 12.178864215927135 24.094452340727145 -14.11698665987997 5.6404071069108506 -10.975523649788441 -14.374115568100109 -14.15602033681353 -6.5501304140952392 16.361916267716833 4.7215661255677217 26.606188465876741 -5.9600232787949334 11.304696844853723 3.1477000331391838 -8.4206952256967682 2.2714022059047552 -6.5967317806547712 -13.122023664980617 -3.6329723355428367 20.415765209145079 -11.859432793052797 2.6231443449177725 5.9367228007219452 -3.2128116402554525 -14.32523830857199 -0.18518471237714718 9.6564840234493428 -2.7595388849116764
leaf_weight=57899 28625 24641 8766 40566 2501 27915 64511 44551 40259 310540 103837 5672 60286 196238 7536 94055 106537 94288 80525 43133 126380 87192 1127 12066 101054 54975 48291 110872 56479 193699
leaf_count=57899 28625 24641 8766 40566 2501 27915 64511 44551 40259 310540 103837 5672 60286 196238 7536 94055 106537 94288 80525 43133 126380 87192 1127 12066 101054 54975 48291 110872 56479 193699
internal_value=0 -3.76385 -5.77173 18.5525 -6.50257 3.74468 -8.17317 -7.49956 -7.85268 -7.4 13.9331 -6.94772 23.194 -3.96335 2.93328 3.91766 -7.44984 1.50657 -8.66357 -9.77557 -5.04844 21.5838 4.9919 5.96081 7.02644 -2.47074 -12.4096 0.943775 10.9696 -2.36002
internal_weight=0 1.85803e+06 1.466e+06 376985 1.36318e+06 392028 822224 709422 686192 641641 188941 601382 188044 540958 23230 102821 540735 233075 230195 149670 322618 127758 20729 19602 158953 60647 112802 205160 85104 218340
internal_count=2235016 1858031 1466003 376985 1363182 392028 822224 709422 686192 641641 188941 601382 188044 540958 23230 102821 540735 233075 230195 149670 322618 127758 20729 19602 158953 60647 112802 205160 85104 218340
cat_boundaries=0 1 4 7 10 13
cat_threshold=2 2367616 1538 64 121962366 5642 524355 2517106642 1107366570 524358 2367618 5634 64
is_linear=0
shrinkage=0.05


Tree=12
num_leaves=31
num_cat=7
split_feature=1 1 1 6 1 1 0 1 6 6 6 0 4 3 1 0 0 0 1 6 0 1 1 1 1 4 1 1 0 1
split_gain=9.44508e+10 8.75983e+09 8.7278e+09 3.29176e+09 1.20168e+09 1.0346e+09 8.49366e+08 7.96449e+08 3.84483e+08 3.22066e+08 2.99241e+08 2.75461e+08 2.62755e+08 2.16277e+08 1.76184e+08 1.74089e+08 1.70565e+08 1.64208e+08 1.62303e+08 1.54942e+08 1.53966e+08 1.52502e+08 1.34504e+08 1.28669e+08 1.16507e+08 1.59571e+08 1.08575e+08 1.04597e+08 9.97381e+07 1.4366e+08
threshold=6.6050000000000013 4.5650000000000004 8.3550000000000022 82.095000000000013 5.6350000000000007 3.2950000000000004 0 7.3650000000000011 139.65000000000001 50.705000000000005 -142.79499999999999 1 35.065000000000005 12.312500000000002 9.8250000000000011 2 3 4 5.1650000000000009 -8.4949999999999992 5 9.3450000000000006 10.805000000000001 3.9550000000000005 12.375000000000002 23.385000000000002 10.315000000000003 6.1650000000000009 6 10.975000000000003
decision_type=2 2 2 2 2 2 9 2 2 2 2 9 2 2 2 9 9 9 2 2 9 2 2 2 2 2 2 2 9 2
left_child=1 5 7 6 18 19 14 16 21 10 -8 -9 13 17 -4 -6 -2 -12 -3 -1 -16 -5 -19 -7 25 -15 -10 -17 -14 -30
right_child=2 4 3 8 15 23 9 11 26 -11 12 -13 28 24 20 27 -18 22 -20 -21 -22 -23 -24 -25 -26 -27 -28 -29 29 -31
leaf_value=-11.110369584434164 0.22602045254135539 -5.8573344497025275 16.088544532467406 17.093063423881723 1.793981473956566 -9.7865985303273693 16.693461862049556 6.7102668387601696 21.574340654831659 16.221012118756658 1.4914185892684928 10.990004428105717 15.771103056718642 3.6130731041866904 29.528469373082949 -2.2030059014345276 5.1682862084607706 14.72697098221829 -3.5252730546670414 -12.977884265947125 19.908564863333051 21.390823600551645 29.066785889596549 -7.9346413222155947 3.4056919907561785 10.009902914877388 25.731799790188418 0.39931778276857927 13.353107773955262 5.6245606742277374
leaf_weight=165851 20106 175279 31296 25732 79248 194050 23100 57558 20287 44695 1785 109205 22831 12229 4872 89436 133038 6802 129903 336269 33205 104385 2153 181533 12482 48078 69586 67950 24055 8017
leaf_count=165851 20106 175279 31296 25732 79248 194050 23100 57558 20287 44695 1785 109205 22831 12229 4872 89436 133038 6802 129903 336269 33205 104385 2153 181533 12482 48078 69586 67950 24055 8017
internal_value=0 -7.79034 13.5613 17.7172 -2.7912 -10.8764 14.0765 7.12316 22.2782 12.464 11.4252 9.51393 10.5461 8.78002 18.8653 -0.117088 4.51978 15.4035 -4.86468 -12.361 21.1525 20.5409 18.1546 -8.89148 7.80271 8.71277 24.7934 -1.07941 13.233 11.4177
internal_weight=0 1.41952e+06 815497 495590 541816 877703 275600 319907 219990 206227 161532 166763 138432 83529 69373 236634 153144 10740 305182 502120 38077 130117 8955 375583 72789 60307 89873 157386 54903 32072
internal_count=2235016 1419519 815497 495590 541816 877703 275600 319907 219990 206227 161532 166763 138432 83529 69373 236634 153144 10740 305182 502120 38077 130117 8955 375583 72789 60307 89873 157386 54903 32072
cat_boundaries=0 3 6 9 12 15 18 21
cat_threshold=2531586 33560074 524374 3358082436 3224446400 2993733660 89395728 688675390 1208495875 2281701760 2171264 269484040 4194352 2359296 2416214016 2 0 524288 2538626288 3313568240 138420360
is_linear=0
shrinkage=0.05


Tree=13
num_leaves=31
num_cat=0
split_feature=1 1 6 1 1 1 1 4 3 6 1 2 1 1 1 4 6 6 4 1 3 1 3 1 6 6 1 6 4 1
split_gain=8.52538e+10 1.00936e+10 6.00676e+09 1.73474e+09 1.42711e+09 1.12631e+09 1.0131e+09 4.84846e+08 3.66593e+08 2.86892e+08 2.40407e+08 1.91131e+08 1.8994e+08 1.89509e+08 1.8414e+08 2.62222e+08 1.73127e+08 2.06311e+08 1.71562e+08 1.71047e+08 1.66988e+08 1.60327e+08 1.56081e+08 1.42296e+08 1.30744e+08 1.23373e+08 1.16983e+08 1.16806e+08 1.13826e+08 1.09956e+08
threshold=6.9250000000000007 4.8950000000000005 79.070000000000007 8.1550000000000029 3.6150000000000007 6.0150000000000006 9.1050000000000022 39.035000000000004 12.312500000000002 162.64500000000001 2.7050000000000005 -11.065 9.1050000000000022 7.5550000000000006 12.645000000000001 24.465000000000003 -102.77499999999999 4.6050000000000013 6.1050000000000013 5.495000000000001 26.822500000000002 8.0050000000000008 25.632500000000004 4.3550000000000013 -0.32499999999999996 -154.63499999999996 10.245000000000003 111.81500000000001 28.835000000000004 6.4450000000000012
decision_type=2 2 2 2 2 2 2 2 2 2 2 2 2 2 2 2 2 2 2 2 2 2 2 2 2 2 2 2 2 2
left_child=1 4 3 13 10 19 21 8 18 27 -1 -10 -9 -2 15 24 -17 20 -5 -3 28 -4 -16 -6 25 -13 -20 -8 -18 -7
right_child=2 5 6 7 23 29 9 12 11 -11 -12 14 -14 -15 22 16 17 -19 26 -21 -22 -23 -24 -25 -26 -27 -28 -29 -30 -31
leaf_value=-12.28183244741648 5.6769425776124329 -4.2245155374522634 9.2818411677753421 -1.6194071607075387 -8.3401339199052131 0.45798094817613849 18.918062773350279 13.194984511465968 -17.777346665531972 24.977244632117358 -10.240281829573664 12.253342803212078 18.23351287602916 8.7540507935577434 12.077953483994769 16.421144717533309 8.4056543036540745 13.866710894773725 15.836643911171407 -1.84417546881344 6.7023447087625927 15.521715520722337 3.6377665413760578 -6.3802131534260242 12.624119500036715 2.9440788353078475 23.102935906627593 21.738630614209708 14.838640049305283 2.7660906799591358
leaf_weight=349287 113032 169931 14892 1151 220513 103098 62010 29742 574 49307 245600 4641 50410 89780 8978 24422 11572 57549 17701 135769 26256 33347 14049 159669 8177 15265 8063 89982 16948 103301
leaf_count=349287 113032 169931 14892 1151 220513 103098 62010 29742 574 49307 245600 4641 50410 89780 8978 24422 11572 57549 17701 135769 26256 33347 14049 159669 8177 15265 8063 89982 16948 103301
internal_value=0 -6.92459 13.7711 10.6001 -9.90979 -1.24058 20.1035 13.0441 11.8085 21.6631 -11.439 11.0288 16.3639 7.03911 11.1168 11.7019 12.6057 11.7761 17.267 -3.16735 9.57964 13.5954 6.92855 -7.51701 7.30116 5.11455 18.1108 20.5879 12.2285 1.61317
internal_weight=0 1.48717e+06 747848 498310 975069 512099 249538 295498 215346 201299 594887 188431 80152 202812 187857 164830 136747 112325 26915 305700 54776 48239 23027 380182 28083 19906 25764 151992 28520 206399
internal_count=2235016 1487168 747848 498310 975069 512099 249538 295498 215346 201299 594887 188431 80152 202812 187857 164830 136747 112325 26915 305700 54776 48239 23027 380182 28083 19906 25764 151992 28520 206399
is_linear=0
shrinkage=0.05


Tree=14
num_leaves=31
num_cat=7
split_feature=1 1 1 6 1 1 0 1 1 6 0 6 6 0 0 0 0 6 3 4 6 0 1 1 4 3 1 3 1 3
split_gain=7.6954e+10 7.61895e+09 6.60984e+09 2.4948e+09 1.00153e+09 9.50813e+08 7.78436e+08 7.6577e+08 3.63967e+08 2.76805e+08 2.67456e+08 2.22023e+08 2.90412e+08 1.94766e+08 1.924e+08 1.66468e+08 1.6059e+08 1.5558e+08 1.4685e+08 1.76232e+08 1.40803e+08 1.3475e+08 1.2767e+08 1.25128e+08 1.18181e+08 1.10331e+08 9.85272e+07 9.64558e+07 9.39777e+07 9.32008e+07
threshold=6.6850000000000014 4.6550000000000011 8.5650000000000031 85.165000000000006 5.7150000000000007 3.3250000000000006 0 7.6050000000000013 11.665000000000001 162.64500000000001 1 4.6050000000000013 -97.344999999999985 2 3 4 5 13.475000000000003 5.1250000000000009 39.035000000000004 -9.9549999999999983 6 4.0850000000000009 6.205000000000001 39.905000000000008 13.502500000000001 5.1950000000000012 19.137500000000003 7.1350000000000007 20.675000000000004
decision_type=2 2 2 2 2 2 9 2 2 2 9 2 2 9 9 9 9 2 2 2 2 9 2 2 2 2 2 2 2 2
left_child=1 5 7 6 16 20 14 13 11 21 -9 12 27 -2 -4 -6 -3 25 -16 -20 -1 -5 -7 -17 -14 -10 -18 -8 -15 -23
right_child=2 4 3 9 15 22 8 10 17 -11 -12 -13 24 28 18 23 26 -19 19 -21 -22 29 -24 -25 -26 -27 -28 -29 -30 -31
leaf_value=-9.9015702127174112 2.5730047784443131 -5.7276906149823388 24.158980352567287 17.069419353501441 -2.9320142521979515 -8.6455016762517101 10.84959195447472 6.7822414995965747 19.634321955027907 23.590715434116191 11.160908939324903 14.220725085011967 6.4365544122503202 4.68288956890928 25.494479264302168 -0.33178629611472299 -4.3187086647536823 9.3002256092265441 13.886162161379545 18.769632321355939 -11.692772591142676 22.522810456775886 -6.8267311094228411 2.1840802076917796 13.543371679676619 1.3684569199036336 -2.1004602909429875 17.572409850150592 7.5070698527365867 19.353995304214493
leaf_weight=159604 61255 99122 7728 46965 34172 224167 9290 53227 878 50613 101925 61968 35371 60843 3810 105587 105610 18362 57348 27256 351025 33130 169411 92910 7009 14129 95167 12536 57103 77495
leaf_count=159604 61255 99122 7728 46965 34172 224167 9290 53227 878 50613 101925 61968 35371 60843 3810 105587 105610 18362 57348 27256 351025 33130 169411 92910 7009 14129 95167 12536 57103 77495
internal_value=0 -6.91512 12.4475 16.3102 -2.17085 -9.70944 13.0014 7.08828 10.8569 20.3737 9.65991 12.0858 10.0252 4.86177 16.5572 0.290835 -4.08068 6.21376 15.8901 15.4594 -11.1329 19.3404 -7.86264 0.845767 7.61194 2.43724 -3.26711 14.711 6.0497 20.3012
internal_weight=0 1.43678e+06 798241 463888 532568 904207 255685 334353 159543 208203 155152 126174 64206 179201 96142 232669 299899 33369 88414 84604 510629 157590 393578 198497 42380 15007 200777 21826 117946 110625
internal_count=2235016 1436775 798241 463888 532568 904207 255685 334353 159543 208203 155152 126174 64206 179201 96142 232669 299899 33369 88414 84604 510629 157590 393578 198497 42380 15007 200777 21826 117946 110625
cat_boundaries=0 3 6 9 12 15 18 21
cat_threshold=270968790 1107301898 4718678 3357540740 3224446400 2004140060 2550677988 3224446400 2440089628 2 0 524288 2281701764 2171328 269484040 3358114180 3224479168 2463154204 2149842944 2585800066 4158046238
is_linear=0
shrinkage=0.05


Tree=15
num_leaves=31
num_cat=0
split_feature=1 1 6 1 1 1 1 4 3 6 6 2 1 4 1 1 6 6 4 3 1 1 1 6 6 1 6 3 6 4
split_gain=6.94755e+10 8.23467e+09 4.92831e+09 1.37365e+09 1.20714e+09 8.87091e+08 8.77411e+08 4.04917e+08 3.22868e+08 2.48764e+08 2.13108e+08 1.65734e+08 1.57705e+08 2.24551e+08 1.56774e+08 1.55955e+08 1.55391e+08 1.68215e+08 1.53826e+08 1.46958e+08 1.46481e+08 1.27725e+08 1.15794e+08 1.08588e+08 1.08405e+08 1.0568e+08 9.98947e+07 8.96095e+07 1.00337e+08 9.53242e+07
threshold=6.9250000000000007 4.9250000000000007 76.165000000000006 8.1550000000000029 3.6450000000000005 9.2850000000000019 6.0150000000000006 38.755000000000003 12.312500000000002 118.06500000000001 -12.004999999999997 -11.065 12.645000000000001 24.465000000000003 8.0050000000000008 9.1050000000000022 -97.344999999999985 -0.32499999999999996 6.1050000000000013 17.625000000000004 7.4050000000000011 5.4650000000000007 4.3850000000000007 -0.32499999999999996 -154.63499999999996 10.245000000000003 -112.84499999999998 20.085000000000004 162.64500000000001 31.305000000000003
decision_type=2 2 2 2 2 2 2 2 2 2 2 2 2 2 2 2 2 2 2 2 2 2 2 2 2 2 2 2 2 2
left_child=1 4 3 20 10 14 21 8 18 -7 -1 -10 13 23 -4 -9 -15 -18 -5 -14 -2 -3 -6 24 -13 -20 -8 -11 -29 -30
right_child=2 6 5 7 22 9 26 15 11 27 -12 12 19 16 -16 -17 17 -19 25 -21 -22 -23 -24 -25 -26 -27 -28 28 29 -31
leaf_value=-9.0073586728453012 4.7844364442019671 -3.7958837581236029 8.4116680215318222 -2.3808068622790244 -7.4462976746633887 17.370455055265037 3.2849377036679392 11.858691667668964 -17.522886768865646 23.26352142049943 -10.983411518832796 11.058275235922524 17.089287203208027 14.77854715095985 14.217735093786297 16.386469612504936 8.0105888161056065 12.077302798742007 14.337699585405719 4.4336000745721389 7.5045581795741159 -1.7208578321737471 -5.6776201787874685 11.326212400626344 2.3319857983171457 21.330393251947072 0.79361564137212959 18.74367048293098 16.832793200049164 23.245275493272917
leaf_weight=208309 87470 152943 15984 1126 220691 75304 54771 30370 554 32665 395489 4641 2598 25556 42654 50887 42684 62904 17418 19588 113997 143969 159368 7801 15265 7834 151628 51035 7057 32456
leaf_count=208309 87470 152943 15984 1126 220691 75304 54771 30370 554 32665 395489 4641 2598 25556 42654 50887 42684 62904 17418 19588 113997 143969 159368 7801 15265 7834 151628 51035 7057 32456
internal_value=0 -6.25104 12.4317 9.49329 -8.91217 18.0385 -1.04915 11.7012 10.5318 19.6346 -10.3017 9.78094 9.86451 10.416 12.6351 14.6942 11.2801 10.4333 15.7009 5.91566 6.32358 -2.78973 -6.70465 6.32609 4.36653 16.5071 1.45473 21.0183 20.2083 22.1001
internal_weight=0 1.48717e+06 747848 490693 983857 257155 503311 289226 207969 198517 603798 181591 181037 158851 58638 81257 131144 105588 26378 22186 201467 296912 380059 27707 19906 25252 206399 123213 90548 39513
internal_count=2235016 1487168 747848 490693 983857 257155 503311 289226 207969 198517 603798 181591 181037 158851 58638 81257 131144 105588 26378 22186 201467 296912 380059 27707 19906 25252 206399 123213 90548 39513
is_linear=0
shrinkage=0.05


Tree=16
num_leaves=31
num_cat=0
split_feature=1 1 1 6 1 1 1 4 3 6 1 4 3 4 3 1 6 3 6 1 1 1 1 6 6 1 6 2 1 2
split_gain=6.27577e+10 6.04449e+09 5.62618e+09 2.18933e+09 8.27946e+08 6.40184e+08 5.62013e+08 3.79909e+08 3.28697e+08 2.87758e+08 1.48563e+08 2.16306e+08 1.73161e+08 1.44148e+08 1.25942e+08 1.20435e+08 1.19701e+08 1.16811e+08 1.09717e+08 1.06747e+08 1.04166e+08 1.01752e+08 1.01532e+08 1.00773e+08 1.73901e+08 9.44247e+07 9.3305e+07 8.34958e+07 7.6825e+07 7.59444e+07
threshold=6.5650000000000004 8.3550000000000022 4.4750000000000005 79.070000000000007 5.535000000000001 2.9850000000000008 7.2650000000000006 36.815000000000005 12.312500000000002 135.76500000000001 12.245000000000003 24.465000000000003 24.942500000000006 6.1050000000000013 22.332500000000003 6.1250000000000009 -29.274999999999995 6.205000000000001 -0.32499999999999996 9.5550000000000015 8.9850000000000012 5.0150000000000006 7.8550000000000013 -104.56499999999998 5.4850000000000012 12.005000000000001 -154.63499999999996 -11.065 10.315000000000003 11.775
decision_type=2 2 2 2 2 2 2 2 2 2 2 2 2 2 2 2 2 2 2 2 2 2 2 2 2 2 2 2 2 2
left_child=2 6 5 7 21 -1 -2 8 13 19 11 18 -12 -3 -13 -6 -7 -8 26 -5 -9 -4 -19 -16 -25 -11 -10 -22 -15 -29
right_child=1 3 4 9 15 16 17 20 10 25 12 14 -14 28 23 -17 -18 22 -20 -21 27 -23 -24 24 -26 -27 -28 29 -30 -31
leaf_value=-10.365222092918419 3.3512713950168656 -2.5640389592820236 -5.1448049003010619 14.073233383709434 -1.2988278786806657 -6.7557991510012432 13.209221498989415 11.165178791312515 10.313100220901653 18.73262143812218 10.824323654266715 13.650969873857381 2.272485593696409 14.148965630043694 14.353217536528247 0.91789491704093429 -8.4170791427129572 6.2003618489323564 10.745057163473142 17.368476316991831 -16.926701155268756 -3.3163544144210122 8.61932503446479 6.1421753501740977 11.614826691557694 21.865949301339086 1.5218164513633408 15.013752642042803 20.239052121950309 -23.371922534311771
leaf_weight=416563 143246 1074 158721 33058 152202 207965 8606 26024 3882 54144 9635 28694 15349 15608 9939 102563 226560 100553 7397 95828 206 146152 76295 28758 29312 43265 13562 71975 7751 129
leaf_count=416563 143246 1074 158721 33058 152202 207965 8606 26024 3882 54144 9635 28694 15349 15608 9939 102563 226560 100553 7397 95828 206 146152 76295 28758 29312 43265 13562 71975 7751 129
internal_value=0 10.9611 -6.40418 14.4481 -2.51024 -8.96466 5.70372 11.4017 9.97738 18.0734 9.08211 9.80393 5.57051 15.3464 10.873 -0.406422 -7.62199 7.52077 5.64217 16.5233 13.8779 -4.26827 7.24394 9.70091 8.90462 20.1243 3.47828 14.8542 16.1699 14.945
internal_weight=0 824290 1.41073e+06 495590 559638 851088 328700 269295 170961 226295 146528 121544 24984 24433 96703 254765 434525 185454 24841 128886 98334 304873 176848 68009 58070 97409 17444 72310 23359 72104
internal_count=2235016 824290 1410726 495590 559638 851088 328700 269295 170961 226295 146528 121544 24984 24433 96703 254765 434525 185454 24841 128886 98334 304873 176848 68009 58070 97409 17444 72310 23359 72104
is_linear=0
shrinkage=0.05


Tree=17
num_leaves=31
num_cat=0
split_feature=1 1 1 6 1 1 1 4 3 1 6 6 6 4 1 6 2 1 3 4 3 6 1 4 3 1 3 1 1 1
split_gain=5.66388e+10 5.4579e+09 5.07763e+09 2.01402e+09 7.47222e+08 5.79213e+08 4.71621e+08 3.47096e+08 3.331e+08 2.38575e+08 1.53077e+08 1.45227e+08 1.90825e+08 1.2079e+08 1.15772e+08 1.12065e+08 1.10709e+08 1.09025e+08 9.89092e+07 9.58267e+07 1.95728e+08 1.02687e+08 9.19001e+07 8.94489e+07 1.26657e+08 8.69412e+07 9.08267e+07 8.15929e+07 7.95589e+07 7.9545e+07
threshold=6.5650000000000004 8.3050000000000015 4.4750000000000005 85.165000000000006 5.535000000000001 2.9450000000000007 7.2650000000000006 35.695000000000007 13.312500000000002 9.8250000000000011 118.06500000000001 50.705000000000005 -97.344999999999985 6.1050000000000013 9.1650000000000009 -26.474999999999998 -11.065 6.1650000000000009 6.205000000000001 26.115000000000006 23.502500000000005 -25.374999999999996 5.0450000000000008 41.725000000000001 35.322500000000012 10.805000000000001 5.1250000000000009 12.005000000000001 7.8050000000000006 13.335000000000003
decision_type=2 2 2 2 2 2 2 2 2 2 2 2 2 2 2 2 2 2 2 2 2 2 2 2 2 2 2 2 2 2
left_child=2 6 5 7 22 -1 -2 8 13 -5 -11 12 29 -3 -9 -7 -14 -6 -8 21 -21 -18 -4 24 -16 26 -15 -22 -20 -10
right_child=1 3 4 9 17 15 18 14 11 10 -12 -13 16 25 23 -17 19 -19 28 20 27 -23 -24 -25 -26 -27 -28 -29 -30 -31
leaf_value=-9.8816653125513909 3.1837079298532527 -1.8478204779327243 -4.8397250881528509 14.358501842272105 -1.1696875035130572 -6.5045688996466087 12.404723911622099 10.819883900935022 12.143162207508279 16.013251661403682 19.305791296349597 11.908725987960217 -20.609787769728023 17.994116717899601 13.781810961139456 -8.0926271385456872 0.067002150663998311 0.97923261505493508 5.7916983485023863 11.949508708055522 7.0870689693311775 6.993343632305967 -3.0946982128313536 16.075917225402502 6.6013819054061464 19.332368659456098 11.108475327016947 2.2876317208177901 7.9669334843760273 2.1319156138819806
leaf_weight=406150 143246 1149 167749 51391 161867 230426 8193 41474 24253 51627 111663 23896 376 6795 40082 214512 10226 92898 92539 18106 32827 11225 137124 32904 7253 7523 16228 12127 77026 2161
leaf_count=406150 143246 1149 167749 51391 161867 230426 8193 41474 24253 51627 111663 23896 376 6795 40082 214512 10226 92898 92539 18106 32827 11225 137124 32904 7253 7523 16228 12127 77026 2161
internal_value=0 10.4131 -6.08397 13.6624 -2.38472 -8.51643 5.31865 10.9344 9.45359 17.3297 18.2648 8.37202 7.61269 14.0671 12.9649 -7.2702 6.4578 -0.386101 7.03908 6.57825 7.56024 3.69147 -4.05486 14.0735 12.6816 14.6657 13.1408 5.79236 6.77982 11.3241
internal_weight=0 824290 1.41073e+06 503286 559638 851088 321004 288605 166892 214681 163290 135197 111301 31695 121713 444938 84887 254765 177758 84511 63060 21451 304873 80239 47335 30546 23023 44954 169565 26414
internal_count=2235016 824290 1410726 503286 559638 851088 321004 288605 166892 214681 163290 135197 111301 31695 121713 444938 84887 254765 177758 84511 63060 21451 304873 80239 47335 30546 23023 44954 169565 26414
is_linear=0
shrinkage=0.05


Tree=18
num_leaves=31
num_cat=15
split_feature=1 1 1 1 1 1 0 0 0 4 3 0 1 0 0 0 0 4 3 0 1 0 0 0 0 0 1 3 1 0
split_gain=5.11397e+10 5.71177e+09 3.76184e+09 8.49509e+08 6.31084e+08 4.69162e+08 3.6208e+08 2.77705e+08 1.75975e+08 1.70754e+08 2.66142e+08 1.57225e+08 1.54904e+08 1.50673e+08 1.47373e+08 1.3935e+08 1.18588e+08 1.05724e+08 1.89461e+08 9.90391e+07 9.7766e+07 8.87875e+07 8.79069e+07 8.7719e+07 8.72047e+07 8.09235e+07 7.83477e+07 8.45719e+07 7.1863e+07 7.00138e+07
threshold=6.8450000000000006 4.8650000000000011 8.7450000000000028 3.5850000000000004 5.8950000000000005 7.705000000000001 0 1 2 37.705000000000005 13.902500000000002 3 2.2750000000000004 4 5 6 7 35.415000000000006 15.302500000000002 8 10.175000000000002 9 10 11 12 13 10.805000000000001 3.7550000000000003 4.2650000000000006 14
decision_type=2 2 2 2 2 2 9 9 9 2 2 9 2 9 9 9 9 2 2 9 2 9 9 9 9 9 2 2 2 9
left_child=1 3 5 12 13 8 14 24 -2 10 16 -6 -1 -3 -4 -12 -8 18 -16 -10 29 -22 -5 -13 -7 -9 27 -18 -24 -11
right_child=2 4 6 22 11 7 9 25 19 20 15 23 -14 -15 17 -17 26 -19 -20 -21 21 -23 28 -25 -26 -27 -28 -29 -30 -31
leaf_value=-9.8244131674695865 0.32093506255414911 -4.3403705456325117 21.494079764806322 -6.944794070135643 2.7583856269886562 0.21900784692233835 9.9994452477571567 11.247133483185342 6.9352030203402792 5.5795582616584056 11.950784192122581 -2.7254676330466063 -8.1846269820846729 -1.8901215040747037 17.806223198113642 8.8425627376201081 19.269726480463724 16.587478709626076 12.310331288351986 4.1728963624197588 13.102061595862564 17.121916352726473 -6.1125498629623518 0.48946874476211849 6.1932216492423677 8.4930052010188888 19.346223066801912 12.022034326995751 -4.4275556301214802 12.920200683863712
leaf_weight=254805 21597 93413 9699 125826 73497 7000 8952 51048 50832 3632 83485 25732 331271 191257 21770 64190 5980 64268 56076 90226 23794 34184 135676 120696 48497 56958 14149 12315 118586 35605
leaf_count=254805 21597 93413 9699 125826 73497 7000 8952 51048 50832 3632 83485 25732 331271 191257 21770 64190 5980 64268 56076 90226 23794 34184 135676 120696 48497 56958 14149 12315 118586 35605
internal_value=0 -5.45177 10.4923 -7.70358 -1.14017 6.4267 13.519 8.31812 4.52541 12.4696 11.5944 0.871586 -8.89755 -2.69438 15.4963 10.6011 15.1375 15.0854 13.8473 5.16875 14.173 15.4774 -5.86253 -0.0756456 5.43985 9.79565 16.547 14.3911 -5.32647 12.2454
internal_weight=0 1.47076e+06 764257 966164 504595 326158 438099 163503 162655 286286 189071 219925 586076 284670 151813 147675 41396 142114 77846 141058 97215 57978 380088 146428 55497 108006 32444 18295 254262 39237
internal_count=2235016 1470759 764257 966164 504595 326158 438099 163503 162655 286286 189071 219925 586076 284670 151813 147675 41396 142114 77846 141058 97215 57978 380088 146428 55497 108006 32444 18295 254262 39237
cat_boundaries=0 3 6 9 12 15 18 21 24 27 30 33 36 39 42 45
cat_threshold=376897402 4730 524482 3355443588 3258017152 4075868188 2281701760 2171264 269484040 89397776 692605470 1208626947 3358115268 3224446400 2454753308 2 0 524288 2173239428 1435962625 216047673 1074266112 271845376 3691282432 55908888 558371358 134754051 2709520384 404283397 1879179552 3358097796 3224479168 3000025116 2147484032 2171264 269484040 128 2105344 268435456 89496090 558371390 528001 2147483776 8192 4031774720
is_linear=0
shrinkage=0.05


Tree=19
num_leaves=31
num_cat=0
split_feature=1 1 1 6 1 1 1 4 6 3 6 6 4 2 4 3 1 6 1 1 6 6 6 4 1 4 6 1 2 3
split_gain=4.61934e+10 4.6145e+09 4.00124e+09 1.78671e+09 5.91193e+08 4.59131e+08 4.10974e+08 3.00518e+08 2.44667e+08 2.30403e+08 1.43035e+08 2.19432e+08 1.28263e+08 1.14941e+08 1.03422e+08 2.41117e+08 1.09982e+08 1.01899e+08 1.01465e+08 1.00701e+08 9.68371e+07 9.58227e+07 1.33157e+08 9.36177e+07 8.25532e+07 7.72619e+07 7.70894e+07 7.62481e+07 7.36716e+07 7.34442e+07
threshold=6.5250000000000012 8.3050000000000015 4.4450000000000012 79.070000000000007 5.495000000000001 2.9050000000000007 7.2250000000000005 39.035000000000004 143.86500000000004 11.407500000000002 14.385000000000003 -97.344999999999985 7.955000000000001 -11.065 25.675000000000004 26.615000000000006 10.395000000000001 -95.704999999999984 13.775 9.3450000000000006 -24.834999999999997 26.465000000000003 -146.55499999999998 24.905000000000005 9.2250000000000032 28.705000000000002 -61.054999999999993 11.885000000000003 -2.4549999999999996 16.782500000000002
decision_type=2 2 2 2 2 2 2 2 2 2 2 2 2 2 2 2 2 2 2 2 2 2 2 2 2 2 2 2 2 2
left_child=2 6 5 7 26 -1 -2 9 19 12 11 18 -3 -13 28 25 -17 -6 23 -5 -7 22 -8 -11 -9 -16 -4 -10 -15 -12
right_child=1 3 4 8 17 20 21 24 27 10 29 13 -14 14 15 16 -18 -19 -20 -21 -22 -23 -24 -25 -26 -27 -28 -29 -30 -31
leaf_value=-8.9573954915232505 2.7272683003397797 0.78370889208710293 -2.8055200154311706 11.792870981174973 0.97845313778043774 -5.9315529501081956 8.500326690923897 10.161547165270802 16.305174518607323 6.7211088391009843 14.78232160415004 -21.473613530527004 14.766088928783766 8.3727464661865199 6.3685397390078009 6.4541564492718599 0.81360131170157457 -1.1705600133430518 0.40360382597203359 15.052930593826 -7.4082403870056091 8.2405507603545818 4.7897632964970329 12.725533564246991 13.601065411180139 11.975470708171029 -4.427390608005525 19.354540316442524 0.82577285992951799 9.3624884096437935
leaf_weight=396065 144336 1793 124364 29788 80195 238647 31197 27639 41822 8968 7043 390 19239 4144 9092 19342 15622 176705 2395 115711 207604 46828 107469 23513 47310 18952 178320 40222 14719 55582
leaf_count=396065 144336 1793 124364 29788 80195 238647 31197 27639 41822 8968 7043 390 19239 4144 9092 19342 15622 176705 2395 115711 207604 46828 107469 23513 47310 18952 178320 40222 14719 55582
internal_value=0 9.32476 -5.54106 12.3372 -2.26378 -7.71829 4.7281 9.63092 15.6167 8.62245 8.0431 7.01183 13.5741 5.60272 5.73173 6.70407 3.93395 -0.499715 10.3354 14.3855 -6.61854 6.28498 5.62457 11.0677 12.3327 10.1577 -3.76101 17.8001 2.4838 9.97204
internal_weight=0 833116 1.4019e+06 503286 559584 842316 329830 275743 227543 200794 179762 117137 21032 82261 81871 63008 34964 256900 34876 145499 446251 185494 138666 32481 74949 28044 302684 82044 18863 62625
internal_count=2235016 833116 1401900 503286 559584 842316 329830 275743 227543 200794 179762 117137 21032 82261 81871 63008 34964 256900 34876 145499 446251 185494 138666 32481 74949 28044 302684 82044 18863 62625
is_linear=0
shrinkage=0.05


Tree=20
num_leaves=31
num_cat=0
split_feature=1 1 6 1 1 1 1 4 3 6 6 2 2 4 3 4 3 4 3 1 6 3 5 6 6 6 1 6 1 6
split_gain=4.17049e+10 5.07638e+09 3.08151e+09 7.77891e+08 6.70492e+08 6.18027e+08 5.3563e+08 2.68849e+08 2.11104e+08 2.08493e+08 1.51856e+08 1.48685e+08 1.27917e+08 1.2916e+08 1.55574e+08 1.80714e+08 1.25182e+08 1.20497e+08 1.157e+08 1.0749e+08 1.05948e+08 9.41049e+07 1.05985e+08 1.02043e+08 1.35389e+08 8.53361e+07 8.46683e+07 8.3017e+07 8.13509e+07 7.68896e+07
threshold=6.9650000000000007 4.955000000000001 67.035000000000011 3.6750000000000003 8.0050000000000008 9.2850000000000019 6.0550000000000006 40.205000000000005 11.142500000000002 114.98500000000001 -10.994999999999999 -11.065 11.775 34.155000000000008 26.282500000000002 28.565000000000001 32.982500000000009 6.1050000000000013 3.7550000000000003 8.8650000000000002 -146.55499999999998 22.332500000000003 95.185000000000016 -14.624999999999998 -66.97499999999998 -78.454999999999984 7.955000000000001 -112.84499999999998 12.375000000000002 -39.324999999999996
decision_type=2 2 2 2 2 2 2 2 2 2 2 2 2 2 2 2 2 2 2 2 2 2 2 2 2 2 2 2 2 2
left_child=1 3 4 10 20 18 25 8 17 -7 -1 -10 13 14 15 21 -15 -6 -4 -9 -2 22 -13 24 -24 -3 -20 -8 -16 -5
right_child=2 6 5 29 7 9 27 19 11 -11 -12 12 -14 16 28 -17 -18 -19 26 -21 -22 -23 23 -25 -26 -27 -28 -29 -30 -31
leaf_value=-6.9427685049686536 7.2473581775574374 -0.93564307417531767 16.888170049595175 -4.3908851732108252 -3.5231894631292655 13.21219748334028 2.9258390731858723 8.6881931927806715 -17.046022871386253 16.451114589626041 -8.5773481445579769 9.7630136679390809 -22.257009038247645 10.27024675513484 4.9424635255589209 10.617694381745052 5.457763032681771 13.46164345263754 6.1723099195871223 13.026555956410679 4.0812321552583528 1.2648623242029677 6.3833703467264868 8.9868974191658797 -1.2484166088011621 -2.6963122422089789 10.276092794770911 0.65150189973442585 -0.92087293965582373 -5.8136461224567055
leaf_weight=223963 32764 107682 5267 190561 1101 80750 54852 21764 622 129170 388695 19521 362 57472 26107 32171 17667 20237 17153 41513 136525 8927 14511 11869 9693 190696 47035 149426 7649 189291
leaf_count=223963 32764 107682 5267 190561 1101 80750 54852 21764 622 129170 388695 19521 362 57472 26107 32171 17667 20237 17153 41513 136525 8927 14511 11869 9693 190696 47035 149426 7649 189291
internal_value=0 -4.80427 9.70974 -6.87761 7.19628 13.8525 -0.710403 8.65105 7.8505 15.2052 -7.97981 7.36142 7.43514 7.48743 6.53627 7.5565 9.13872 12.5852 9.76405 11.5344 4.694 6.03014 6.79532 5.18933 3.32707 -2.0609 9.17945 1.2622 3.61385 -5.09989
internal_weight=0 1.49517e+06 739850 992510 460475 279375 502656 291186 227909 209920 612658 206571 205949 205587 130448 96692 75139 21338 69455 63277 169289 64521 55594 36073 24204 298378 64188 204278 33756 379852
internal_count=2235016 1495166 739850 992510 460475 279375 502656 291186 227909 209920 612658 206571 205949 205587 130448 96692 75139 21338 69455 63277 169289 64521 55594 36073 24204 298378 64188 204278 33756 379852
is_linear=0
shrinkage=0.05


Tree=21
num_leaves=31
num_cat=12
split_feature=1 1 1 6 0 1 1 1 1 0 6 0 0 0 6 6 0 3 0 0 6 0 0 0 5 1 6 0 1 3
split_gain=3.7665e+10 3.77919e+09 3.27095e+09 1.35712e+09 6.1361e+08 5.04059e+08 4.3472e+08 3.65746e+08 2.56184e+08 2.37953e+08 1.78883e+08 1.62269e+08 1.55987e+08 1.55311e+08 1.40767e+08 1.40365e+08 1.35976e+08 1.17097e+08 1.15336e+08 1.09306e+08 9.69532e+07 8.91783e+07 8.87891e+07 8.56914e+07 8.09411e+07 7.872e+07 7.82278e+07 7.45614e+07 8.73355e+07 6.97385e+07
threshold=6.5250000000000012 8.5050000000000008 4.4150000000000009 85.165000000000006 0 5.3950000000000005 7.4050000000000011 2.8650000000000007 11.665000000000001 1 162.64500000000001 2 3 4 50.705000000000005 -154.63499999999996 5 5.1250000000000009 6 7 13.475000000000003 8 9 10 -14.065 9.4850000000000012 -23.684999999999999 11 11.775 20.675000000000004
decision_type=2 2 2 2 9 2 2 2 2 9 2 9 9 9 2 2 9 2 9 9 2 9 9 9 2 2 2 9 2 2
left_child=2 6 7 4 12 19 13 -1 14 -8 18 -7 -3 -2 15 -6 -11 -14 -5 -4 -10 -17 -13 -15 -22 -19 -9 28 -27 -20
right_child=1 3 5 10 8 11 9 26 20 16 -12 22 17 23 -16 21 -18 25 29 -21 24 -23 -24 -25 -26 27 -28 -29 -30 -31
leaf_value=-8.1253363650324637 4.8953846829989756 17.748147188777654 -4.9727104557871638 11.447777000911373 12.050482408026344 1.0876194748276311 8.8408248699524332 -5.4186511062537104 0.022422627145110664 1.4876454338776348 16.945350527012007 -3.6876084552327351 20.063468164231651 -1.1039701061408296 10.91586604309807 7.8578959053769131 5.7993002460315264 8.8854487912070432 16.341967457129314 -2.8826545373327246 -1.3383428287872798 4.5743123933769212 -0.91747491048095697 2.3919415025779887 7.1690697293892987 11.664311079661337 -6.7458826859564329 13.335938770294554 4.425791584754875 13.60599075333176
leaf_weight=386094 59366 10587 93212 47201 12376 95577 60598 243058 14503 22453 50717 35656 3677 21370 31895 44973 99107 30207 33070 190697 3467 38517 153226 97462 14442 14294 204380 38157 5882 78795
leaf_count=386094 59366 10587 93212 47201 12376 95577 60598 243058 14503 22453 50717 35656 3677 21370 31895 44973 99107 30207 33070 190697 3467 38517 153226 97462 14442 14294 204380 38157 5882 78795
internal_value=0 8.42009 -5.00348 11.3602 8.96749 -2.07869 4.56289 -6.99783 7.03089 6.28055 14.3596 -0.591124 11.9829 2.80706 8.0385 7.08118 5.0031 11.3192 13.5351 -3.56913 3.06125 6.34455 -1.44057 1.76322 5.52212 10.9573 -6.0249 12.0302 9.54933 14.4135
internal_weight=0 833116 1.4019e+06 472760 262977 568368 360356 833532 160173 182158 209783 284459 102804 178198 127761 95866 121560 92217 159066 283909 32412 83490 188882 118832 17909 88540 447438 58333 20176 111865
internal_count=2235016 833116 1401900 472760 262977 568368 360356 833532 160173 182158 209783 284459 102804 178198 127761 95866 121560 92217 159066 283909 32412 83490 188882 118832 17909 88540 447438 58333 20176 111865
cat_boundaries=0 3 6 9 12 15 18 21 24 27 30 33 35
cat_threshold=270991314 1107301898 4718678 89496088 558371390 134745987 89395728 688675390 1208495875 2 512 524288 122755600 558649886 134754179 2147484032 2171264 269484040 2149842944 2585816194 4126588958 2552792452 3492914624 2454765596 2949709868 2500004336 111149224 2147484032 2171328 269484040 2147484032 2171264 269484040 268623440 33558528
is_linear=0
shrinkage=0.05


Tree=22
num_leaves=31
num_cat=7
split_feature=6 6 6 6 6 6 0 6 2 2 4 6 3 6 2 2 0 3 6 0 6 0 0 0 0 3 6 6 6 6
split_gain=2.09602e+10 4.25052e+09 1.34042e+09 1.11811e+09 9.30292e+08 4.30436e+08 4.22832e+08 2.29951e+08 2.27856e+08 2.80412e+08 2.20243e+08 1.8886e+08 1.70065e+08 1.45964e+08 1.21156e+08 1.2435e+08 1.14396e+08 1.09387e+08 1.07167e+08 9.72382e+07 8.63211e+07 7.9557e+07 7.84857e+07 6.90373e+07 6.30697e+07 6.14408e+07 5.84701e+07 8.64707e+07 5.67279e+07 5.66015e+07
threshold=35.020000000000003 -83.614999999999995 8.3950000000000014 106.105 -16.714999999999996 -146.55499999999998 0 -51.364999999999988 -8.3349999999999991 6.1450000000000005 1.0000000180025095e-35 60.285000000000004 17.292500000000004 162.64500000000001 7.0150000000000006 -8.3349999999999991 1 20.675000000000004 2.5850000000000004 2 13.475000000000003 3 4 5 6 16.782500000000002 -2.2849999999999997 -0.24499999999999997 -0.11499999999999998 -0.22499999999999998
decision_type=2 2 2 2 2 2 9 2 2 2 2 2 2 2 2 2 9 2 2 9 2 9 9 9 9 2 2 2 2 2
left_child=1 5 4 11 7 22 14 21 -8 10 -10 24 -4 17 15 -6 -7 -5 26 -13 -14 -3 -1 -9 -2 -26 -12 -28 29 -17
right_child=3 2 12 13 6 16 8 23 9 -11 18 19 20 -15 -16 28 -18 -19 -20 -21 -22 -23 -24 -25 25 -27 27 -29 -30 -31
leaf_value=6.289297951841136 3.894687485623729 0.17508576483608992 7.5451312201495586 14.822540220904953 -8.409609973531202 3.6176853481286209 -8.6680277071570462 -2.1943142545448158 -8.2693214499491852 -7.8139337952235923 -4.1764511703852749 7.4428346904254852 -1.2469565910970326 15.835168839933207 -8.051837571144592 2.5273168857528701 0.80000416577675859 11.684187355455025 -2.2425298840459136 10.298042453651979 1.7773780502955203 -1.9166636778861332 3.8255711885242238 -3.6309243294198668 12.075549556967044 6.4185819239694313 -6.594114793713536 -4.1529879641824303 -7.2677985669384473 8.8011494590455097
leaf_weight=55294 23256 58733 10634 40949 2501 44005 53162 109034 40238 88471 218046 46996 32573 52170 3335 15155 198484 86254 50756 83152 85588 201157 78242 360722 5479 38729 78733 67275 1180 4713
leaf_count=55294 23256 58733 10634 40949 2501 44005 53162 109034 40238 88471 218046 46996 32573 52170 3335 15155 198484 86254 50756 83152 85588 201157 78242 360722 5479 38729 78733 67275 1180 4713
internal_value=0 -2.1808 -3.38541 10.7498 -3.84932 2.56688 -5.26744 -2.63738 -5.54375 -5.23827 -4.7375 8.15552 1.48873 13.608 0.867058 2.13055 1.31152 12.6945 -4.3949 9.26841 0.943671 -1.44401 4.8465 -3.2976 6.00858 7.1181 -4.69498 -5.46934 3.383 4.01561
internal_weight=0 1.85803e+06 1.48201e+06 376985 1.35321e+06 376025 623565 729646 596681 543519 455048 197612 128795 179373 26884 23549 242489 127203 414810 130148 118161 259890 133536 469756 67464 44208 364054 146008 21048 19868
internal_count=2235016 1858031 1482006 376985 1353211 376025 623565 729646 596681 543519 455048 197612 128795 179373 26884 23549 242489 127203 414810 130148 118161 259890 133536 469756 67464 44208 364054 146008 21048 19868
cat_boundaries=0 1 4 7 10 13 16 19
cat_threshold=2 6565904 5642 67 2149842944 2318413056 4160147486 6566416 553653786 1074266179 122994300 546362 524995 6568498 587208216 1074266179 1207959584 406120705 4155961608
is_linear=0
shrinkage=0.05


Tree=23
num_leaves=31
num_cat=12
split_feature=1 1 1 6 0 1 1 0 6 0 1 1 1 1 0 0 0 0 0 6 6 0 3 0 1 0 0 3 2 3
split_gain=3.20201e+10 3.14862e+09 2.74371e+09 1.0707e+09 4.96592e+08 3.90934e+08 3.33485e+08 2.93502e+08 2.25601e+08 1.9585e+08 1.70543e+08 1.4749e+08 1.40384e+08 1.24894e+08 1.20424e+08 1.13274e+08 1.05904e+08 9.99142e+07 8.5829e+07 8.25637e+07 7.57826e+07 6.77361e+07 6.52929e+07 7.59716e+07 6.02637e+07 5.90543e+07 5.9042e+07 5.78062e+07 5.68731e+07 5.54702e+07
threshold=6.5250000000000012 8.3050000000000015 4.6550000000000011 96.865000000000023 0 3.4750000000000005 5.7150000000000007 1 50.705000000000005 2 7.2250000000000005 10.975000000000003 10.035000000000002 7.2250000000000005 3 4 5 6 7 -4.1549999999999994 162.64500000000001 8 3.7550000000000003 9 10.175000000000002 10 11 20.515000000000004 -11.065 13.702500000000002
decision_type=2 2 2 2 9 2 2 9 2 9 2 2 2 2 9 9 9 9 9 2 2 9 2 9 2 9 9 2 2 2
left_child=2 7 5 4 17 19 14 13 9 22 26 -11 18 -2 -4 -12 -8 24 -5 -1 27 -16 23 -6 -3 -7 -9 -14 -24 -13
right_child=1 3 6 12 8 25 16 10 -10 11 15 29 20 -15 21 -17 -18 -19 -20 -21 -22 -23 28 -25 -26 -27 -28 -29 -30 -31
leaf_value=-6.4053890001490572 4.1686868388785525 12.809082506240868 -4.9695230166023405 13.334795480479469 -8.2524616402355662 -4.0565091600806689 -1.686747526935102 -1.664241747176012 9.6542225810962687 5.7856141123344607 0.24336711543156053 10.283507214789868 15.137893393602013 7.5624154931826908 -0.63323432635497767 4.7260023562205502 0.7737324916876388 11.174215815605002 9.09279391435423 -7.6327652777245776 15.751591655009344 -2.6616977022611605 -15.678693622097928 17.951933758540658 19.966581755670063 -5.421732513270185 1.8428117749739155 12.441716256224192 7.7842894183885996 0.13020616683806147
leaf_weight=248780 48283 6188 48309 21267 307 121817 65259 14052 72565 59005 16233 1448 28359 61822 51865 107439 132535 65936 27818 305010 44345 199725 259 2654 5606 228600 82001 66518 82081 18930
leaf_count=248780 48283 6188 48309 21267 307 121817 65259 14052 72565 59005 16233 1448 28359 61822 51865 107439 132535 65936 27818 305010 44345 199725 259 2654 5606 228600 82001 66518 82081 18930
internal_value=0 7.76354 -4.61331 10.2519 8.46876 -6.25439 -1.63182 3.96655 7.33117 6.308 2.91026 4.51849 13.2346 6.07366 -2.68292 4.13802 -0.0381105 11.9384 10.9353 -7.08139 14.0452 -2.24357 7.97188 15.2676 16.1976 -4.94741 1.32977 13.2476 7.71047 0.851717
internal_weight=0 833116 1.4019e+06 503286 314979 904207 497693 329830 237249 164684 219725 79383 188307 110105 299899 123672 197794 77730 49085 553790 139222 251590 85301 2961 11794 350417 96053 94877 82340 20378
internal_count=2235016 833116 1401900 503286 314979 904207 497693 329830 237249 164684 219725 79383 188307 110105 299899 123672 197794 77730 49085 553790 139222 251590 85301 2961 11794 350417 96053 94877 82340 20378
cat_boundaries=0 3 6 9 12 15 18 21 24 27 28 31 34
cat_threshold=2538002 5642 524374 123017752 558371358 134754179 2547074540 3254847984 14680200 2281701764 2171328 269484060 2147484032 2105600 269484032 3357558246 3224446400 2521858076 2 512 524288 106011224 625771069 134745984 1052688 554193432 1208484353 32 131338800 688413242 1208493251 2147484032 2105728 269484032
is_linear=0
shrinkage=0.05


Tree=24
num_leaves=31
num_cat=9
split_feature=1 1 6 0 1 1 1 1 1 0 6 0 0 0 6 0 2 0 2 3 4 3 4 3 1 0 1 3 4 0
split_gain=2.89115e+10 3.51383e+09 1.89875e+09 5.4291e+08 5.3898e+08 4.31996e+08 3.69021e+08 3.01221e+08 2.41283e+08 1.68952e+08 1.28888e+08 1.24696e+08 1.202e+08 1.13313e+08 1.06643e+08 9.99576e+07 9.9094e+07 9.76299e+07 9.05295e+07 8.8178e+07 1.18095e+08 9.86794e+07 7.6077e+07 1.01331e+08 7.89624e+07 7.468e+07 7.17599e+07 6.99247e+07 8.31926e+07 1.19603e+08
threshold=6.9650000000000007 4.9850000000000012 70.225000000000009 0 3.7450000000000006 9.3450000000000006 6.0950000000000006 8.8050000000000015 7.8550000000000013 1 118.06500000000001 2 3 4 -9.4749999999999996 5 -11.065 6 11.775 11.142500000000002 34.425000000000004 28.977500000000003 39.035000000000004 25.852500000000003 10.895000000000001 7 11.665000000000001 20.085000000000004 31.095000000000002 8
decision_type=2 2 2 9 2 2 2 2 2 9 2 9 9 9 2 9 2 9 2 2 2 2 2 2 2 9 2 2 2 9
left_child=1 4 3 7 14 12 11 -2 17 26 -7 -3 -4 -8 -1 -9 -11 -5 19 -18 21 -21 23 -17 -25 -6 -10 -12 29 -29
right_child=2 6 5 8 25 10 13 15 9 16 27 -13 -14 -15 -16 22 18 -19 -20 20 -22 -23 -24 24 -26 -27 -28 28 -30 -31
leaf_value=-5.7935325418952672 6.649453927839108 -0.230308144234844 10.405830901064469 0.06610558542293006 -5.200120416274479 11.022481883907096 -0.53628269936944795 15.171558649575728 4.6826371377323301 -16.264416632337198 15.58862001139776 -2.3831821663330008 6.1597525616804525 2.0125033732918651 -7.1173990976341717 11.468036959281442 11.112553014887771 3.9763900602603912 -21.742350117778741 6.0512735179459973 8.1852240376775729 0.55333973596162112 13.606309348645054 8.9092344888924586 0.22535382333182907 -3.6815081756082928 0.10219304857129133 2.2774667154870047 13.547579100162441 12.285382448172971
leaf_weight=253900 57632 101991 29166 19052 120738 81270 66029 15930 58182 458 32275 197566 39254 128398 379485 15724 12483 98723 273 72424 74469 9198 12861 6054 4612 247059 10024 4199 75115 10472
leaf_count=253900 57632 101991 29166 19052 120738 81270 66029 15930 58182 458 32275 197566 39254 128398 379485 15724 12483 98723 273 72424 74469 9198 12861 6054 4612 247059 10024 4199 75115 10472
internal_value=0 -4.00007 8.08445 6.15448 -5.70268 11.4089 -0.5493 9.17677 5.19442 6.11211 12.5653 -1.65027 7.9722 1.14699 -6.58671 11.818 6.95877 3.34418 7.02218 7.06878 6.74538 5.43171 10.4504 8.91627 5.15434 -4.18027 4.00888 13.5925 12.8749 9.43097
internal_weight=0 1.49517e+06 739850 468099 1.00118e+06 271751 493984 112813 355286 237511 203331 299557 68420 194427 633385 55181 169305 117775 168847 168574 156091 81622 39251 26390 10666 367797 68206 122061 89786 14671
internal_count=2235016 1495166 739850 468099 1001182 271751 493984 112813 355286 237511 203331 299557 68420 194427 633385 55181 169305 117775 168847 168574 156091 81622 39251 26390 10666 367797 68206 122061 89786 14671
cat_boundaries=0 3 6 9 12 15 18 21 24 27
cat_threshold=6732306 5642 524358 1207959552 138207232 4111921408 89133584 688675390 1208626947 1129388624 759992861 528257 2550679014 3224577472 275824668 2359298 512 524288 2147484032 2171264 269484040 3894444422 3224479168 2991636508 1075587520 2963427488 1997948432
is_linear=0
shrinkage=0.05


Tree=25
num_leaves=31
num_cat=10
split_feature=1 1 1 6 0 1 1 1 1 0 0 0 0 4 0 6 5 0 6 6 0 0 0 6 6 6 4 4 6 5
split_gain=2.61125e+10 2.68552e+09 2.17076e+09 7.75314e+08 4.68231e+08 3.74911e+08 3.52754e+08 2.28285e+08 2.10237e+08 2.00516e+08 1.41732e+08 1.28958e+08 1.15447e+08 1.12968e+08 1.12687e+08 9.76041e+07 8.76895e+07 8.40409e+07 8.23053e+07 1.00835e+08 7.90685e+07 7.60103e+07 7.52852e+07 7.02864e+07 8.19103e+07 6.97569e+07 6.66658e+07 7.84762e+07 6.34485e+07 7.44633e+07
threshold=6.4850000000000012 8.6250000000000018 4.3850000000000007 90.935000000000016 0 7.5550000000000006 5.3150000000000004 2.8250000000000006 11.455000000000002 1 2 3 4 27.885000000000002 5 13.475000000000003 -14.065 6 47.465000000000011 -169.21499999999997 7 8 9 -92.404999999999987 4.6050000000000013 168.94500000000002 38.755000000000003 14.975000000000003 -24.834999999999997 2.8150000000000004
decision_type=2 2 2 2 9 2 2 2 2 9 9 9 9 2 9 2 2 9 2 2 9 9 9 2 2 2 2 2 2 2
left_child=2 5 7 4 12 10 20 -1 13 -7 -2 -8 -3 18 -5 -10 -17 -11 19 -6 -4 -13 -12 -15 -25 -16 27 -14 29 -21
right_child=1 3 6 14 8 9 11 -9 15 17 22 21 26 23 25 16 -18 -19 -20 28 -22 -23 -24 24 -26 -27 -28 -29 -30 -31
leaf_value=-6.748606385421839 4.3080142288105625 15.31572550548425 -5.0920591821696712 9.9956223000596971 9.964063306782327 2.2890964299330716 -3.169007840965762 -5.0783581235269288 -0.39815690819746202 7.941101895552837 -4.500972763039961 1.6238442433390468 16.891411825043225 11.788127926395845 12.087045546870812 -1.6798835467805668 6.4472253163534168 5.428165590870746 9.3140339126744429 7.8476901045733589 -2.7583389353674201 -0.61641196332022208 1.7984734404903595 5.0209110671332331 8.6399638826274323 14.751575438914751 11.703327770470457 8.5141785515635657 5.1086788815755027 -2.0914367981230209
leaf_weight=376556 71590 10365 43230 54484 4701 35786 43018 447933 15196 58035 4903 46257 2922 10778 108830 4126 16970 78685 7273 2287 227370 208448 137974 23250 47737 31727 30172 64643 9066 10704
leaf_count=376556 71590 10365 43230 54484 4701 35786 43018 447933 15196 58035 4903 46257 2922 10778 108830 4126 16970 78685 7273 2287 227370 208448 137974 23250 47737 31727 30172 64643 9066 10704
internal_value=0 6.95033 -4.20235 9.55349 7.76695 3.88801 -1.82483 -5.84119 5.97724 5.6233 2.49223 -0.637243 10.2834 7.01836 11.9368 2.657 4.85771 6.49537 4.5976 3.31561 -3.13146 -0.209511 1.582 8.02588 7.45464 12.6876 9.74817 8.8765 1.89859 -0.341656
internal_weight=0 842204 1.39281e+06 455231 260190 386973 568323 824489 152088 172506 214467 297723 108102 115796 195041 36292 21096 136720 34031 26758 270600 254705 142877 81765 70987 140557 97737 67565 22057 12991
internal_count=2235016 842204 1392812 455231 260190 386973 568323 824489 152088 172506 214467 297723 108102 115796 195041 36292 21096 136720 34031 26758 270600 254705 142877 81765 70987 140557 97737 67565 22057 12991
cat_boundaries=0 3 6 9 12 15 18 21 24 27 29
cat_threshold=2418474962 1107301930 4718678 2281701764 1075914112 273727512 122755600 692605470 134754083 2281701764 2171328 269484040 2 512 524288 2149843072 2550166914 4158046238 89496090 558404156 134745761 2281701764 2171328 269484060 1052688 554177052 1074266625 128 8192
is_linear=0
shrinkage=0.05


Tree=26
num_leaves=31
num_cat=12
split_feature=1 1 6 0 1 1 1 1 1 0 6 0 0 0 6 0 2 2 0 1 6 4 0 0 0 0 4 0 6 1
split_gain=2.35856e+10 2.86288e+09 1.56202e+09 4.54302e+08 4.3064e+08 3.84864e+08 3.20376e+08 2.37988e+08 1.82587e+08 1.45301e+08 1.18907e+08 1.1764e+08 1.1026e+08 9.97768e+07 8.71812e+07 8.6805e+07 8.3727e+07 8.19186e+07 8.14151e+07 7.41993e+07 7.38439e+07 7.26746e+07 6.78428e+07 6.42711e+07 6.12798e+07 5.84177e+07 5.82127e+07 5.72905e+07 5.63106e+07 5.69196e+07
threshold=6.9650000000000007 4.955000000000001 63.70000000000001 0 3.7150000000000003 9.4150000000000009 5.9750000000000005 8.9250000000000025 7.8550000000000013 1 114.98500000000001 2 3 4 -7.5949999999999989 5 -11.065 11.775 6 11.775 -188.63499999999996 35.065000000000005 7 8 9 10 33.665000000000006 11 -0.15499999999999997 10.175000000000002
decision_type=2 2 2 9 2 2 2 2 2 9 2 9 9 9 2 9 2 2 9 2 2 2 9 9 9 9 2 9 2 2
left_child=1 4 3 7 14 11 13 -2 18 19 25 -4 -8 -3 -1 -9 -11 20 -5 26 -18 -22 -6 -12 -14 -7 -10 -15 29 -17
right_child=2 6 5 8 22 10 12 15 9 16 23 -13 24 27 -16 28 17 -19 -20 -21 21 -23 -24 -25 -26 -27 -28 -29 -30 -31
leaf_value=-5.283519647442283 6.1274145900460582 -3.9141779495766915 3.917500665352911 0.13938253119724495 -2.6415374747600486 11.727744116867083 2.4347855214392382 7.6454489257608174 2.78261063912755 -15.866714336469826 10.087315760116734 8.3513825912347848 -2.224273941392672 0.28406661484775636 -6.4782449432941496 10.593027776001307 9.882671675365815 -21.956889922905791 3.6037676782214967 -0.32337166751168095 5.0986687707585219 7.4040433525276015 -4.2070410213843017 12.871548240064326 0.52770080866245916 8.8558758244016129 5.7894209767327647 -1.6612246571499836 8.9883588148783922 15.460280976836493
leaf_weight=265982 56161 42084 20000 20565 92637 27023 74819 14647 33227 425 26785 60115 24113 47328 358524 10021 13861 255 96964 10340 82183 58535 275367 99677 125294 53347 31224 189018 9496 14999
leaf_count=265982 56161 42084 20000 20565 92637 27023 74819 14647 33227 425 26785 60115 24113 47328 358524 10021 13861 255 96964 10340 82183 58535 275367 99677 125294 53347 31224 189018 9496 14999
internal_value=0 -3.61288 7.30197 5.47328 -5.1699 10.1883 -0.53849 8.35039 4.60107 5.42031 11.3279 7.24604 0.868139 -1.67128 -5.9694 10.8915 6.29268 6.35393 2.9979 3.60802 6.40064 6.05765 -3.81315 12.2837 0.0834355 9.82407 4.2393 -1.27169 12.2631 13.5109
internal_weight=0 1.49517e+06 739850 452903 992510 286947 502656 105324 347579 230050 206832 80115 224226 278430 624506 49163 155259 154834 117529 74791 154579 140718 368004 126462 149407 80370 64451 236346 34516 25020
internal_count=2235016 1495166 739850 452903 992510 286947 502656 105324 347579 230050 206832 80115 224226 278430 624506 49163 155259 154834 117529 74791 154579 140718 368004 126462 149407 80370 64451 236346 34516 25020
cat_boundaries=0 3 6 9 12 15 18 21 24 27 30 33 36
cat_threshold=6699538 5642 524358 1744830464 679272449 4111921408 2283816326 1076962754 4098932828 89199120 688656958 1208627075 2281701764 2171328 269484056 4332048 4096 4 2281701760 2171264 269484040 72618512 554195512 1208484867 262272 2818716802 4078354454 2147484032 2171264 269484032 918806490 92344952 524352 1052688 554193432 1208484353
is_linear=0
shrinkage=0.05


Tree=27
num_leaves=31
num_cat=8
split_feature=6 6 6 6 6 0 6 2 2 6 3 4 0 6 3 6 6 0 6 0 2 6 0 3 6 0 0 6 6 0
split_gain=1.26931e+10 2.76442e+09 9.01078e+08 6.24874e+08 6.21001e+08 2.63324e+08 2.52635e+08 1.67088e+08 1.90518e+08 1.54955e+08 1.44087e+08 1.2644e+08 1.04047e+08 9.00742e+07 9.21704e+07 8.50593e+07 1.00754e+08 7.30297e+07 6.74263e+07 6.00127e+07 5.91111e+07 5.90682e+07 5.51952e+07 5.36942e+07 5.33896e+07 5.10265e+07 5.05135e+07 5.01386e+07 5.70648e+07 4.59465e+07
threshold=38.025000000000013 -87.854999999999976 8.3950000000000014 -18.794999999999998 109.16000000000001 0 -146.55499999999998 -7.7249999999999988 7.4650000000000007 -53.034999999999989 17.292500000000004 1.0000000180025095e-35 1 168.94500000000002 20.515000000000004 -0.29499999999999993 -0.11499999999999998 2 2.5850000000000004 3 -6.2049999999999992 67.035000000000011 4 16.952500000000004 13.475000000000003 5 6 -1.3049999999999999 -0.24499999999999997 7
decision_type=2 2 2 2 2 9 2 2 2 2 2 2 9 2 2 2 2 9 2 9 2 2 9 2 2 9 9 2 2 9
left_child=1 6 3 9 12 15 20 -7 11 19 26 -9 23 14 -6 -5 -17 -8 27 -3 -1 -14 -22 -2 -12 -11 -4 -13 -29 -16
right_child=4 2 10 5 13 7 17 8 -10 25 24 18 21 -15 29 16 -18 -19 -20 -21 22 -23 -24 -25 -26 -27 -28 28 -30 -31
leaf_value=-0.35402990975704096 12.025028871823766 0.49774103585703583 0.21910339560815922 -3.6121281788602979 11.984299194785683 -6.8748501937347202 2.8937137504883625 -6.4567502862240493 -6.5926518197941553 -1.5432008971300673 -0.97185039667201023 -3.3417261387124988 4.5269888213187723 12.672150789546246 10.621855516811799 3.0770773052955924 -4.3274793782003105 0.75436296975856609 -1.8033562655771691 -1.3867672717748127 5.5461735734114548 6.6458014909632723 3.4176088685952046 7.7143070978333412 1.3814772408406926 -2.8165435063211213 8.244419675848679 -5.6496759747081917 -3.5366542445369733 8.2139511169235035
leaf_weight=7247 8394 52540 2496 11977 40771 59399 52670 39510 66694 101322 32573 271655 53890 42974 31754 20969 5883 164428 51456 215598 51683 84429 74606 51834 92660 353484 9290 60934 67181 54715
leaf_count=7247 8394 52540 2496 11977 40771 59399 52670 39510 66694 101322 32573 271655 53890 42974 31754 20969 5883 164428 51456 215598 51683 84429 74606 51834 92660 353484 9290 60934 67181 54715
internal_value=0 -1.67472 -2.6003 -2.98465 8.4769 -4.10244 2.32615 -4.35381 -4.08525 -1.9709 1.26679 -3.74448 6.57709 10.6929 10.0245 -0.108094 1.4548 1.27356 -3.50699 -1.01754 4.03742 5.81988 4.28942 8.31373 0.769378 -2.53296 6.55204 -3.72627 -4.54165 9.1004
internal_weight=0 1.86626e+06 1.51562e+06 1.3786e+06 368761 655658 350634 616829 557430 722944 137019 490736 198547 170214 127240 38829 26852 217098 451226 268138 133536 138319 126289 60228 125233 454806 11786 399770 128115 86469
internal_count=2235016 1866255 1515621 1378602 368761 655658 350634 616829 557430 722944 137019 490736 198547 170214 127240 38829 26852 217098 451226 268138 133536 138319 126289 60228 125233 454806 11786 399770 128115 86469
cat_boundaries=0 2 5 8 11 14 17 20 23
cat_threshold=2 16781312 910417626 21500538 524865 23343120 50337310 524355 2368016 16782874 1074266179 122994300 529947 525003 6566450 587208216 1074266179 1572900 270795778 2491711496 1178664752 386663289 134743232
is_linear=0
shrinkage=0.05


Tree=28
num_leaves=31
num_cat=11
split_feature=1 1 1 6 0 1 0 6 6 1 1 0 1 0 4 1 0 0 4 6 0 6 6 0 0 0 0 2 2 1
split_gain=2.00784e+10 2.05284e+09 1.64347e+09 5.92253e+08 3.42492e+08 2.94794e+08 2.07852e+08 1.61468e+08 1.58275e+08 1.42937e+08 1.3978e+08 1.07035e+08 1.04072e+08 1.04234e+08 1.0413e+08 9.69864e+07 9.1914e+07 9.15868e+07 8.73884e+07 7.63777e+07 6.74881e+07 6.40791e+07 7.75497e+07 6.27006e+07 6.00638e+07 5.9262e+07 5.57085e+07 4.87451e+07 4.86691e+07 4.85425e+07
threshold=6.4850000000000012 8.2550000000000008 4.3250000000000011 106.105 0 5.285000000000001 1 53.845000000000006 -15.154999999999999 7.3150000000000004 11.255000000000001 2 9.4850000000000012 3 35.415000000000006 10.105000000000002 4 5 27.885000000000002 -90.814999999999984 6 -181.22499999999997 -22.104999999999997 7 8 9 10 -11.065 11.775 7.1350000000000007
decision_type=2 2 2 2 9 2 9 2 2 2 2 9 2 9 2 2 9 9 2 2 9 2 2 9 9 9 9 2 2 2
left_child=2 6 8 4 12 20 17 10 -1 -8 18 -7 13 -3 16 24 -14 -2 21 -20 -4 -6 -23 -12 -5 -13 -17 -21 -29 -19
right_child=1 3 5 15 7 11 9 -9 -10 -11 23 25 14 -15 -16 26 -18 29 19 27 -22 22 -24 -25 -26 -27 -28 28 -30 -31
leaf_value=-4.313812674486929 -3.9561358175953352 3.112776570037048 -1.7766978967405622 5.0141242994413924 8.354309531112877 0.71205205425902518 2.6950859309248067 7.5034188190300215 -5.736499272528425 5.2578253538669601 4.6576280746379304 -3.0400678266766126 11.194593366095344 8.3715919157612806 11.972488385007175 9.3468131071708065 6.5283148672975164 0.38863700092696635 9.4889876426838082 -16.871243418602575 -3.4074127875455122 0.29786547837793975 5.6822049260750251 -0.20836320782211259 9.4952083895943922 -0.853147337871072 11.847649546642174 5.7396353065147938 -20.737314655724646 2.5683488020351093
leaf_weight=332902 7733 12324 97233 9722 5338 103351 112625 74675 473636 105263 10264 38166 17521 40583 36650 29926 26915 43183 15822 241 183055 17293 10904 18620 33667 164469 93469 56765 174 62527
leaf_count=332902 7733 12324 97233 9722 5338 103351 112625 74675 473636 105263 10264 38166 17521 40583 36650 29926 26915 43183 15822 241 183055 17293 10904 18620 33667 164469 93469 56765 174 62527
internal_value=0 6.09463 -3.68494 8.08262 6.89737 -1.67044 3.02939 5.63651 -5.14928 3.93298 4.60745 -0.597362 8.87326 7.1488 9.99952 10.5279 8.37223 1.29341 5.44388 6.41445 -2.8419 3.33103 2.38004 1.52233 8.49451 -1.26518 11.2429 5.5637 5.65869 1.67777
internal_weight=0 842204 1.39281e+06 510873 344089 586274 331331 210096 806538 217888 135421 305986 133993 52907 81086 166784 44436 113443 106537 73002 280288 33535 28197 28884 43389 202635 123395 57180 56939 105710
internal_count=2235016 842204 1392812 510873 344089 586274 331331 210096 806538 217888 135421 305986 133993 52907 81086 166784 44436 113443 106537 73002 280288 33535 28197 28884 43389 202635 123395 57180 56939 105710
cat_boundaries=0 3 6 9 12 15 17 20 23 26 29 32
cat_threshold=304611250 1073747514 4718678 2284340612 3224577472 332451868 22024720 697063998 1208496003 384 1073742848 4194324 2367874 1073742336 524370 128 8192 97784336 721967676 1208624899 2286420036 2184249792 144703489 2292467078 1125826 4033921052 2147484032 2171328 269484040 262272 2818716838 4061577494
is_linear=0
shrinkage=0.05


Tree=29
num_leaves=31
num_cat=13
split_feature=1 1 1 1 0 0 1 1 0 0 4 3 0 1 0 0 0 1 0 4 0 2 4 3 5 3 1 0 0 0
split_gain=1.81239e+10 1.91814e+09 1.43534e+09 2.65657e+08 2.63803e+08 1.99582e+08 1.92745e+08 1.28054e+08 1.18059e+08 1.11797e+08 1.03086e+08 1.31131e+08 1.31617e+08 9.88901e+07 8.6074e+07 8.28953e+07 7.99939e+07 7.9249e+07 7.557e+07 7.32802e+07 7.14983e+07 7.09586e+07 6.57309e+07 1.41795e+08 6.59675e+07 6.21301e+07 6.20302e+07 5.66085e+07 5.49003e+07 5.23221e+07
threshold=6.4450000000000012 8.2550000000000008 4.2650000000000006 5.5650000000000004 0 1 9.4150000000000009 2.7850000000000006 2 3 40.205000000000005 13.902500000000002 4 7.1350000000000007 5 6 7 7.1750000000000007 8 31.515000000000004 9 11.775 35.415000000000006 22.025000000000006 7.0950000000000006 24.722500000000004 10.635000000000003 10 11 12
decision_type=2 2 2 2 9 9 2 2 9 9 2 2 9 2 9 9 9 2 9 2 9 2 2 2 2 2 2 9 9 9
left_child=2 5 7 14 15 17 8 -1 -6 -7 11 16 19 -11 -4 26 -8 -2 -5 25 -12 22 23 24 -17 -13 -3 -10 -27 -16
right_child=1 4 3 18 6 9 10 -9 27 13 20 12 -14 -15 29 21 -18 -19 -20 -21 -22 -23 -24 -25 -26 28 -28 -29 -30 -31
leaf_value=-5.6122811001213968 3.0831187979323245 10.167914662050213 -4.0963129611905122 -1.6150768249815997 -1.2076424779520123 -0.89791511416928993 5.9257803656585963 -4.3350425397963663 7.0173325722533653 1.1123504887932849 5.3716857694177857 7.1844529666383572 4.692597955951058 3.3721083752496379 0.32905632677606322 13.433379581376142 11.48131691746171 5.7448883389433307 0.35502900033263241 8.9363976479073521 10.395380380202496 -24.940992486360862 10.127333954579012 6.1127510895465011 8.9949985464733366 4.1777505119892702 17.69287484221795 4.5555604808779169 -6.0185256030254273 -2.3025279532518081
leaf_weight=367205 50732 6259 67946 72737 6966 29405 9035 421503 38798 84546 8507 24723 61767 113284 20223 11051 23656 62309 147097 50622 44763 154 72442 44923 34540 6906 4870 59268 1623 287156
leaf_count=367205 50732 6259 67946 72737 6966 29405 9035 421503 38798 84546 8507 24723 61767 113284 20223 11051 23656 62309 147097 50622 44763 154 72442 44923 34540 6906 4870 59268 1623 287156
internal_value=0 5.74139 -3.53089 -1.67717 7.67856 2.83303 6.8601 -4.9297 5.08368 1.97865 7.66601 7.08946 6.44709 2.40624 -2.48563 9.2589 9.95125 4.54991 -0.296882 7.73765 9.59609 8.97221 9.00482 8.10642 10.0709 5.91502 13.4488 5.53014 2.23527 -2.12939
internal_weight=0 851149 1.38387e+06 595159 510873 340276 336634 788708 105032 227235 231602 178332 145641 197830 375325 174239 32691 113041 219834 83874 53270 163110 162956 90514 45591 33252 11129 98066 8529 307379
internal_count=2235016 851149 1383867 595159 510873 340276 336634 788708 105032 227235 231602 178332 145641 197830 375325 174239 32691 113041 219834 83874 53270 163110 162956 90514 45591 33252 11129 98066 8529 307379
cat_boundaries=0 3 6 9 12 15 18 21 24 27 30 33 36 39
cat_threshold=108527226 16781946 524482 22354456 692589118 134754179 128 2105344 268435456 2147484032 2105600 269484032 2567438724 1419201921 216047640 2283798916 1075913152 269484060 2 0 524288 1074266112 271845632 3716465664 2283816390 3224446400 2521878556 2164260864 134242305 4026531872 293601280 1020168197 134229793 16777344 1150550273 148897816 0 553652224 1073741825
is_linear=0
shrinkage=0.05


Tree=30
num_leaves=31
num_cat=9
split_feature=1 1 1 6 0 0 1 1 6 1 1 4 0 3 0 3 4 3 3 0 6 0 0 0 3 1 1 2 0 6
split_gain=1.63617e+10 1.66153e+09 1.36795e+09 4.16553e+08 3.40297e+08 2.55847e+08 2.41015e+08 2.13677e+08 1.92994e+08 1.81172e+08 1.61968e+08 1.26681e+08 1.04818e+08 9.81469e+07 8.86416e+07 9.37279e+07 7.659e+07 1.04874e+08 7.62993e+07 9.75904e+07 7.58775e+07 7.41407e+07 7.38696e+07 6.35814e+07 6.04219e+07 5.92622e+07 5.7209e+07 5.40101e+07 4.9976e+07 4.9842e+07
threshold=6.7250000000000005 4.8050000000000006 8.8650000000000002 106.105 0 1 3.7150000000000003 5.8150000000000004 53.845000000000006 7.705000000000001 11.155000000000003 24.025000000000002 2 13.502500000000001 3 3.7550000000000003 35.875000000000007 26.392500000000002 14.092500000000001 4 -92.404999999999987 5 6 7 6.205000000000001 12.505000000000001 2.1950000000000007 -7.2249999999999988 8 88.035000000000011
decision_type=2 2 2 2 9 9 2 2 2 2 2 2 9 2 9 2 2 2 2 9 2 9 9 9 2 2 2 2 9 2
left_child=1 6 5 4 14 12 26 22 10 27 11 13 -2 -6 -4 -16 17 -17 19 -12 -13 -9 -3 -5 -11 -19 29 -7 -22 -1
right_child=2 7 3 23 8 9 -8 21 -10 24 18 20 -14 -15 15 16 -18 25 -20 -21 28 -23 -24 -25 -26 -27 -28 -29 -30 -31
leaf_value=-5.5867050059371479 -3.5362003193384974 -2.8825169966299393 13.938865087495314 7.5115970191246326 4.9376795134384937 -3.1573867417878656 -3.2822612205095036 1.676995201433644 7.1746516161434206 10.663547076015917 -10.820369428729611 10.146496754691007 2.1226932758343113 -3.4402182219127724 15.524414408733339 8.1160635360111435 9.4551582931046774 5.1742237637982171 -0.33182557934083134 14.999433254623092 6.9929885750976757 -0.29052637225339206 -1.1584842016064449 10.226488162150892 5.6369256707731834 -1.5486010671343977 -4.5880185552540356 3.345000685766216 3.4360556167733907 35.70674402991007
leaf_weight=237204 8794 92546 7331 26190 6988 3280 324151 71960 60404 6314 461 9528 116360 6995 4235 38675 45354 12285 26363 1685 19393 143043 189193 130735 112483 4471 387229 121015 20278 73
leaf_count=237204 8794 92546 7331 26190 6988 3280 324151 71960 60404 6314 461 9528 116360 6995 4235 38675 45354 12285 26363 1685 19393 143043 189193 130735 112483 4471 387229 121015 20278 73
internal_value=0 -3.16175 5.78824 7.73374 6.52272 3.56206 -4.38846 -0.819038 4.97993 4.50769 3.53463 4.94624 1.72482 0.746639 8.61006 8.23677 7.93135 6.68454 0.40619 9.47209 6.13982 0.368054 -1.72494 9.77452 5.9041 3.38037 -4.96263 3.17341 5.17749 -5.57399
internal_weight=0 1.4454e+06 789617 421371 264446 368246 948657 496742 152095 243092 91691 63182 125154 13983 112351 105020 100785 55431 28509 2146 49199 215003 281739 156925 118797 16756 624506 124295 39671 237277
internal_count=2235016 1445399 789617 421371 264446 368246 948657 496742 152095 243092 91691 63182 125154 13983 112351 105020 100785 55431 28509 2146 49199 215003 281739 156925 118797 16756 624506 124295 39671 237277
cat_boundaries=0 3 6 8 11 14 17 20 23 26
cat_threshold=2418470870 1107302090 4718678 2283798916 3526436288 385142812 128 8192 2 0 524288 32 262144 2483290112 89133584 692607518 1208627075 2552881542 3224446400 315654172 262272 2281714818 4061544470 127471648 3046246704 246448296
is_linear=0
shrinkage=0.05


Tree=31
num_leaves=31
num_cat=12
split_feature=1 1 1 6 1 0 0 6 1 1 0 3 0 0 0 0 0 3 1 1 0 6 0 6 2 0 1 5 3 0
