tree
version=v3
num_class=1
num_tree_per_iteration=1
label_index=0
max_feature_idx=114
objective=regression
feature_names=TurbID Wspd Wdir Etmp Itmp Ndir Prtv Patv max_patv patv_residual diff_angle w_angle w_angle_adj w_angle_sin w_angle_cos win288_mean_Wspd win288_amax_Wspd win288_amin_Wspd win288_var_Wspd win288_median_Wspd win288_mean_Etmp win288_amax_Etmp win288_amin_Etmp win288_var_Etmp win288_median_Etmp win288_mean_Itmp win288_amax_Itmp win288_amin_Itmp win288_var_Itmp win288_median_Itmp win288_mean_Prtv win288_amax_Prtv win288_amin_Prtv win288_var_Prtv win288_median_Prtv win288_mean_Patv win288_amax_Patv win288_amin_Patv win288_var_Patv win288_median_Patv win288_mean_max_patv win288_amax_max_patv win288_amin_max_patv win288_var_max_patv win288_median_max_patv win288_mean_w_angle_sin win288_amax_w_angle_sin win288_amin_w_angle_sin win288_var_w_angle_sin win288_median_w_angle_sin win288_mean_w_angle_cos win288_amax_w_angle_cos win288_amin_w_angle_cos win288_var_w_angle_cos win288_median_w_angle_cos seasonal_Patv Patv__change_quantiles__f_agg_mean__isabs_True__qh_10__ql_06 Patv__change_quantiles__f_agg_var__isabs_True__qh_10__ql_06 Patv__change_quantiles__f_agg_var__isabs_False__qh_10__ql_06 Patv__change_quantiles__f_agg_var__isabs_True__qh_10__ql_04 Patv__change_quantiles__f_agg_mean__isabs_True__qh_10__ql_04 Patv__change_quantiles__f_agg_var__isabs_False__qh_10__ql_04 Patv__change_quantiles__f_agg_var__isabs_True__qh_10__ql_02 Patv__change_quantiles__f_agg_mean__isabs_True__qh_10__ql_02 Patv__change_quantiles__f_agg_var__isabs_False__qh_10__ql_02 Patv__change_quantiles__f_agg_var__isabs_False__qh_10__ql_08 Patv__change_quantiles__f_agg_mean__isabs_True__qh_10__ql_08 Patv__change_quantiles__f_agg_var__isabs_True__qh_10__ql_08 Patv__change_quantiles__f_agg_var__isabs_True__qh_10__ql_00 Patv__change_quantiles__f_agg_var__isabs_False__qh_10__ql_00 Patv__fourier_entropy__bins_5 Patv__fourier_entropy__bins_3 Patv__fft_coefficient__attr_abs__coeff_93 Patv__fft_coefficient__attr_abs__coeff_94 Patv__fft_coefficient__attr_abs__coeff_96 Patv__fft_coefficient__attr_abs__coeff_11 Patv__fft_coefficient__attr_abs__coeff_1 Patv__fft_coefficient__attr_abs__coeff_22 Patv__fft_coefficient__attr_abs__coeff_16 Patv__fft_coefficient__attr_abs__coeff_7 Patv__fft_coefficient__attr_abs__coeff_90 Patv__fft_coefficient__attr_abs__coeff_63 Patv__fft_coefficient__attr_abs__coeff_61 Patv__fft_coefficient__attr_abs__coeff_58 Patv__fft_coefficient__attr_abs__coeff_45 Patv__fft_coefficient__attr_abs__coeff_98 Patv__fft_coefficient__attr_abs__coeff_89 Patv__fft_coefficient__attr_abs__coeff_79 Patv__fft_coefficient__attr_abs__coeff_97 Patv__fft_coefficient__attr_abs__coeff_85 Patv__fft_coefficient__attr_abs__coeff_33 Patv__autocorrelation__lag_2 Patv__autocorrelation__lag_1 Patv__autocorrelation__lag_3 Patv__autocorrelation__lag_8 Patv__autocorrelation__lag_9 Patv__autocorrelation__lag_4 Patv__autocorrelation__lag_5 Patv__autocorrelation__lag_6 Patv__autocorrelation__lag_7 Patv__number_crossing_m__m_1 Patv__number_crossing_m__m_0 Patv__last_location_of_maximum Patv__cid_ce__normalize_False Patv__cid_ce__normalize_True Patv__longest_strike_above_mean Patv__fft_aggregated__aggtype_centroid Patv__fft_aggregated__aggtype_kurtosis Patv__fft_aggregated__aggtype_variance Patv__fft_aggregated__aggtype_skew Patv__ar_coefficient__coeff_1__k_10 Patv__linear_trend__attr_pvalue Patv__index_mass_quantile__q_04 Patv__partial_autocorrelation__lag_2 Patv__partial_autocorrelation__lag_1
feature_infos=-1:134:133:132:131:130:129:58:128:115:88:118:54:108:21:94:17:76:40:59:83:61:120:41:3:63:6:69:106:16:48:99:25:62:46:127:7:78:80:119:79:15:44:90:121:91:18:65:55:82:28:38:109:13:72:77:117:68:56:26:104:110:9:11:67:23:70:27:73:95:122:12:33:74:96:123:19:49:92:30:51:113:50:34:81:89:43:100:4:60:98:97:64:126:116:125:20:1:84:37:71:107:75:105:36:85:32:47:2:87:24:45:93:66:42:112:114:22:29:39:14:103:31:101:124:53:57:35:8:111:5:52:102:86 [-1.5688249894841568:5.6749575781359924] [-22.758862085269179:26.107068366010932] [-28.238681419382399:23.779493701184439] [-26.448817844920171:2.1828445312688798] [-5.0877647858241577:3.3134280347294376] [-0.40320844917751758:12.592191474424885] [-0.99337512471393197:3.7917097721047872] [-1.381471773728149:2.2710717472987749] [-6.554475130752988:9.0371936541366207] [-0.99998346601853361:0.99998346601853361] [-5.8479810742243963:5.6120477397489061] [-5.8479810742243963:5.6120477397489061] [-1.8821649236052196:1.4467849179662462] [-1.8121977512466043:1.3152184502959043] [-2.4701649686851392:4.6707285870327828] [-3.4680248018216524:3.6363709190295301] [-0.59968876481012345:10.856188041516798] [-1.7536402315792354:7.2106260300970746] [-2.2823675136092532:4.4402087490131361] [-5.399529363112868:8.494896761025359] [-4.2410696295074768:9.2705493075506435] [-9.4160139174432889:2.9726508700579362] [-1.5341206466977342:11.498048987781784] [-6.0867629252400732:9.5347501185418757] [-11.112653736150875:2.7185157983058619] [-4.7499289303726702:9.8302513133391543] [-5.8564035772570859:0.74267765039140599] [-0.29900658266413738:12.208881732515032] [-13.524740553547645:2.60259178388519] [-0.83902405416289128:10.725799899135406] [-1.6780991861046777:5.6736616552033761] [0:0] [-0.91186935406950265:9.0530157707262617] [-0.2769007098505416:19.12855854388928] [-1.7525125519643769:3.944446223398018] [-5.305363548918276:1.1595549378238037] [-0.22012823883537971:28.298094140183132] [-1.7759950112254821:4.7358215576980314] [-1.2686015132909645:4.6811398064910019] [-2.0298961430651898:3.6179929535132129] [-10.081962975310242:0.59221888250409027] [-0.37139650190865608:18.586086616067035] [-2.2579092829249534:3.6555512473679159] [-1.6766695913517131:3.3036967294573198] [-3.0503253535396118:2.5964101873530749] [-14.172608431949376:0.35661486350439953] [-0.53387840763506744:6.9046066296088142] [-1.904444072584552:3.408311068388461] [-2.6315017768396838:1.9678869974883693] [-2.9234782767381091:2.4436797613352761] [-20.532110938877711:0.37519976190800391] [-0.51252295708076401:5.571956937345381] [-2.0090759048834745:3.168097885089189] [-2.3557302721028468:1.7396913580432161] [-3.0071812216570195:4.3984061457576322] [-3.149400326779086:4.4706409570523098] [-1.9312442985275791:7.5410121556822061] [-1.9307506867196711:6.3090285747922552] [-2.2477468209287945:6.0669563133444342] [-3.145490919166813:3.9327588157694651] [-2.1358008347050763:6.059275522294417] [-2.309147544749317:5.2944845859863898] [-2.9472485235327635:4.080276352685873] [-2.1574715277711309:5.3931160538206768] [-1.7049815910895481:7.6157182328121831] [-2.9546655737030152:5.0145271429290341] [-1.6878740046844496:7.4983284609864294] [-2.057296994385013:6.0535910577106469] [-2.0035122011650035:6.3821048713495205] [-2.0418648990688459:13.095624437825878] [-1.7072756716786666:11.171440915160121] [-1.8682519481516049:6.6999457214542177] [-1.8126261841780329:6.068954027674363] [-1.810935464341904:6.5878607056946503] [-1.8042262740110115:5.2008141738120326] [-1.6763541630777714:3.477486170319648] [-1.8127239820254759:5.585267669862418] [-1.7819509091816133:5.8180602649713222] [-1.847923107591642:5.8643303926494807] [-1.8406604252707039:6.2203627302970403] [-1.8123358349150924:6.7421062471615416] [-1.9001376319569292:6.1569076609908366] [-1.9558141795823591:6.3812318976584645] [-1.823019965354856:5.7061441323640176] [-1.8814079528197321:6.7664293617291076] [-1.8483580871394441:6.7419436627004146] [-1.8670883317382512:6.40411051602503] [-1.9008364550819217:6.7695692008076813] [-1.8571110571243727:6.996454371935501] [-1.8473788847405437:5.726260043441382] [-8.0514001639883475:1.812822263850332] [-14.147720701079509:1.6213443587181531] [-9.3303617288993781:1.9591175345647061] [-5.9946763516928412:2.4362868694730881] [-5.4297285464674871:2.4502213781490387] [-7.8519381652438076:2.0602346561973111] [-7.1885243288539034:2.1505228677066328] [-6.5714190287658409:2.2696013462218785] [-6.2297372896709531:2.356793791374364] [-2.0649821741149288:4.7790707298506154] [-2.0423165497157858:4.8231830778395617] [-1.7199330907248471:1.7159806740994474] [-3.4413814174804518:4.4422649789100737] [-2.9088442115311839:6.5269483563193562] [-2.012438068981361:7.586077608375362] [-3.2624298420545017:6.5415006331980692] [-3.0326302562793881:21.757501435541329] [-3.7684954157594657:5.09411640373186] [-4.3536454182747324:4.7654307614360167] [-4.4965365267503294:3.7550071335104058] [-0.44928829186803643:5.4188175634122562] [-2.2940218655250506:3.0702358216925991] [-4.0245799088398968:4.3765855753792344] [-14.147720701079509:1.6213443587181533]
tree_sizes=3224 3214

Tree=0
num_leaves=31
num_cat=0
split_feature=106 94 54 16 19 51 92 18 35 94 67 16 39 15 107 26 3 16 31 89 71 35 39 54 26 58 55 75 103 17
split_gain=69717.6 45963.8 31518.5 32460.3 24280.5 36921.2 24279.9 21815.9 19847.7 17597 15020.4 18442 17475 15002.6 13861.3 12383.1 11977 38974.8 14398.3 13931.2 12272.2 11523 12342.8 13473.3 11491.3 11022.2 10471.5 11239 9968.38 9744.26
threshold=0.66137369203019569 1.5716188792728258 -1.1062415548467117 -1.5340787626369605 0.71656606874632855 0.11598582386191376 -0.76549883421328491 2.9868685411490055 -0.15970591811655319 -0.71333015485939699 0.36558112102155327 2.5003134458497986 1.3440258294450289 -1.4551596680505607 0.76016985539734516 0.54686516736063939 -1.766196356793446 0.11046207767928266 -0.075891883975977528 0.44928999943228437 2.131090609612158 -1.0362191875073141 -0.60743844121007617 -0.73239350387596847 0.049920899000446654 1.5239840142458803 0.83210252194901935 1.2866172561373102 -2.5599284496600907 -0.43834607852048951
decision_type=10 10 2 2 2 2 8 2 2 10 2 2 2 2 8 2 2 2 2 2 10 2 2 2 2 2 2 2 2 2
left_child=1 7 6 9 5 -3 -2 10 -7 13 11 14 -13 -4 16 -10 17 -1 20 -19 28 -12 -23 -24 -9 26 -20 -28 -18 -30
right_child=2 4 3 -5 -6 8 -8 24 15 -11 21 12 -14 -15 -16 -17 18 19 25 -21 -22 22 23 -25 -26 -27 27 -29 29 -31
leaf_value=-0.0060956965350612161 0.023744610566594718 0.048962650649279883 -0.0038447421737694159 0.0024042367094096592 -0.0020324745543805001 -0.012435059199704567 0.001961537458993592 0.033817167166638039 0.036984620847552087 0.0089708225816579317 0.013675220365455969 -0.011868457542122908 0.040770412974583642 0.054249352760424564 -0.0089514177627362298 -0.017468681882884789 0.027695814962227276 0.0030304796647093726 -0.0090207244349146086 0.051773027930711951 0.020122623036922006 -0.0072240829406980617 0.010019438132396048 -0.0014654201030023417 0.0027911453933639925 0.009523213164239255 -0.0043717596466109039 0.01486782578032622 0.0013701349481797251 -0.0056804070847492538
leaf_weight=57734 150787 34326 4884 698515 45588 22351 66302 21421 19838 25437 56722 8957 15495 22121 529183 4637 10312 7341 661511 18774 24226 172741 137035 279307 21555 36861 158511 33018 367515 339289
leaf_count=57734 150787 34326 4884 698515 45588 22351 66302 21421 19838 25437 56722 8957 15495 22121 529183 4637 10312 7341 661511 18774 24226 172741 137035 279307 21555 36861 158511 33018 367515 339289
internal_value=-2.94917e-10 -0.00220453 0.00702374 0.00411324 0.0154868 0.0253285 0.0170918 -0.00296267 0.00800317 0.0268767 -0.00327554 -0.00442459 0.0214882 0.0437426 -0.00470692 0.0266678 -0.0033973 0.0076603 -0.00396568 0.0380715 -0.000877667 0.000761067 -0.000482417 0.00231471 0.0182559 -0.00653818 -0.00723222 -0.00105499 -0.00158712 -0.00201435
internal_weight=0 3.08425e+06 968046 750957 126740 81152 217089 2.95751e+06 46826 52442 2.91453e+06 2.26873e+06 24452 27005 2.24428e+06 24475 1.71509e+06 83849 1.63124e+06 26115 741342 645805 589083 416342 42976 889901 853040 191529 717116 706804
internal_count=4052294 3084248 968046 750957 126740 81152 217089 2957508 46826 52442 2914532 2268727 24452 27005 2244275 24475 1715092 83849 1631243 26115 741342 645805 589083 416342 42976 889901 853040 191529 717116 706804
is_linear=0
shrinkage=1


Tree=1
num_leaves=31
num_cat=0
split_feature=114 50 95 16 20 20 43 40 20 24 45 63 31 43 17 112 16 20 31 47 112 50 71 3 20 66 20 102 16 24
split_gain=65006.1 62200.5 43739.8 40080.8 27264.3 27221.6 24450.6 18238.5 16749.7 26791.5 48319.7 22159.8 21261 29994 19407.6 19232.8 26163.3 19068.3 32375.1 18084.4 16941.6 16005.8 15084.6 13680.1 46549.9 40428.3 13022.2 12445.9 12096.3 10633.9
threshold=-0.74310103822973506 -0.65117449362432434 1.634605266811177 -1.5340787626369605 -2.4841606626129096 -0.98652974826378392 1.3270809188599089 0.80248799059649445 1.035026829352325 0.73813514270791136 -0.71231345128600265 0.75970573351227466 -0.26792702847286637 1.6100718004894619 -0.3751731287757985 1.0290975810578751 -0.20871274863821451 -0.78620051849526507 -1.3482827145906604 -0.18319434728600772 2.0620231249292562 0.51677462271181052 -0.97801543898907395 -1.6815418730739993 -2.4372661289712778 -0.72012641020566548 -0.98652974826378392 -1.2323743658707567 2.5003134458497986 0.37358477819159502
decision_type=8 2 10 2 2 2 2 2 2 2 2 2 2 2 2 8 2 2 2 2 10 2 10 2 2 2 2 2 2 2
left_child=1 -1 8 26 6 7 -4 -6 9 12 15 28 14 20 17 16 -11 19 27 -2 23 -22 -15 24 -14 -26 -3 -19 -12 -28
right_child=2 3 4 -5 5 -7 -8 -9 -10 10 11 -13 13 22 -16 -17 -18 18 -20 -21 21 -23 -24 -25 25 -27 29 -29 -30 -31
leaf_value=0.022297987205384104 -0.006433086099043743 0.0018888447524621781 -0.017537381317950296 0.00098563297526001745 0.051938794749873174 -0.0015948543177029919 0.034880673460563255 0.013711235823457697 -0.0085906794375438088 0.0013024341462196715 -0.0052289267868524279 0.014350711483892262 -0.014409781880529524 0.030124369246179745 -0.0044227612504943864 -0.010443458789889686 0.03574530404550981 0.040246180541419964 0.0026971919707434993 0.012410798598317912 0.0030785592921744849 0.053871186087257238 0.0035589143752044359 -0.0081966517411557905 0.053253691797026798 -0.011763738136556637 0.059360519872932296 0.016479205183519155 0.028583934906554472 0.0047525386228752563
leaf_weight=198981 189801 6915 29155 539867 34366 20343 11042 16687 358688 27261 291956 72441 51613 24991 424315 14627 73004 29997 197339 60429 23194 7354 83556 1137517 23672 13525 17369 58509 9843 3937
leaf_count=198981 189801 6915 29155 539867 34366 20343 11042 16687 358688 27261 291956 72441 51613 24991 424315 14627 73004 29997 197339 60429 23194 7354 83556 1137517 23672 13525 17369 58509 9843 3937
internal_value=0 0.00786345 -0.00183604 0.00280754 0.0166242 0.0277507 -0.00313817 0.039444 -0.00248515 -0.00170717 0.00467486 -0.000549581 -0.00304935 -0.0054549 0.000370723 0.0216925 0.0263807 0.00416488 0.00945869 -0.00188239 -0.00676158 0.0153064 0.00967518 -0.0073113 0.00402861 0.029613 0.0376604 0.0245345 -0.00412612 0.0492701
internal_weight=0 767069 3.28522e+06 568088 111593 71396 40197 51053 3.17363e+06 2.81494e+06 489132 374240 2.32581e+06 1.36542e+06 960390 114892 100265 536075 285845 250230 1.25688e+06 30548 108547 1.22633e+06 88810 37197 28221 88506 301799 21306
internal_count=4052294 767069 3285225 568088 111593 71396 40197 51053 3173632 2814944 489132 374240 2325812 1365422 960390 114892 100265 536075 285845 250230 1256875 30548 108547 1226327 88810 37197 28221 88506 301799 21306
is_linear=0
shrinkage=0.03


end of trees

feature_importances:
win288_amax_Wspd=6
win288_mean_Etmp=6
win288_amax_Prtv=3
Etmp=2
win288_amin_Wspd=2
win288_median_Etmp=2
win288_amax_Itmp=2
win288_mean_Patv=2
win288_median_Patv=2
win288_var_max_patv=2
win288_mean_w_angle_cos=2
win288_median_w_angle_cos=2
Patv__fourier_entropy__bins_3=2
Patv__autocorrelation__lag_8=2
Patv__index_mass_quantile__q_04=2
win288_mean_Wspd=1
win288_var_Wspd=1
win288_median_Wspd=1
win288_mean_max_patv=1
win288_mean_w_angle_sin=1
win288_amin_w_angle_sin=1
win288_amax_w_angle_cos=1
seasonal_Patv=1
Patv__change_quantiles__f_agg_var__isabs_False__qh_10__ql_06=1
Patv__change_quantiles__f_agg_mean__isabs_True__qh_10__ql_02=1
Patv__change_quantiles__f_agg_mean__isabs_True__qh_10__ql_08=1
Patv__change_quantiles__f_agg_var__isabs_True__qh_10__ql_08=1
Patv__fft_coefficient__attr_abs__coeff_11=1
Patv__fft_coefficient__attr_abs__coeff_85=1
Patv__autocorrelation__lag_1=1
Patv__autocorrelation__lag_9=1
Patv__last_location_of_maximum=1
Patv__cid_ce__normalize_False=1
Patv__fft_aggregated__aggtype_centroid=1
Patv__fft_aggregated__aggtype_kurtosis=1
Patv__partial_autocorrelation__lag_1=1

parameters:
[boosting: gbdt]
[objective: regression]
[metric: rmse]
[tree_learner: serial]
[device_type: cpu]
[data: ]
[valid: ]
[num_iterations: 500]
[learning_rate: 0.03]
[num_leaves: 31]
[num_threads: -1]
[deterministic: 0]
[force_col_wise: 0]
[force_row_wise: 0]
[histogram_pool_size: -1]
[max_depth: -1]
[min_data_in_leaf: 20]
[min_sum_hessian_in_leaf: 0.001]
[bagging_fraction: 0.6]
[pos_bagging_fraction: 1]
[neg_bagging_fraction: 1]
[bagging_freq: 0]
[bagging_seed: 8221]
[feature_fraction: 0.6]
[feature_fraction_bynode: 1]
[feature_fraction_seed: 14038]
[extra_trees: 0]
[extra_seed: 6367]
[early_stopping_round: 10]
[first_metric_only: 0]
[max_delta_step: 0]
[lambda_l1: 0.1]
[lambda_l2: 0.1]
[linear_lambda: 0]
[min_gain_to_split: 0]
[drop_rate: 0.1]
[max_drop: 50]
[skip_drop: 0.5]
[xgboost_dart_mode: 0]
[uniform_drop: 0]
[drop_seed: 26849]
[top_rate: 0.2]
[other_rate: 0.1]
[min_data_per_group: 100]
[max_cat_threshold: 32]
[cat_l2: 10]
[cat_smooth: 10]
[max_cat_to_onehot: 4]
[top_k: 20]
[monotone_constraints: ]
[monotone_constraints_method: basic]
[monotone_penalty: 0]
[feature_contri: ]
[forcedsplits_filename: ]
[refit_decay_rate: 0.9]
[cegb_tradeoff: 1]
[cegb_penalty_split: 0]
[cegb_penalty_feature_lazy: ]
[cegb_penalty_feature_coupled: ]
[path_smooth: 0]
[interaction_constraints: ]
[verbosity: -1]
[saved_feature_importance_type: 0]
[linear_tree: 0]
[max_bin: 255]
[max_bin_by_feature: ]
[min_data_in_bin: 3]
[bin_construct_sample_cnt: 200000]
[data_random_seed: 3304]
[is_enable_sparse: 1]
[enable_bundle: 1]
[use_missing: 1]
[zero_as_missing: 0]
[feature_pre_filter: 1]
[pre_partition: 0]
[two_round: 0]
[header: 0]
[label_column: ]
[weight_column: ]
[group_column: ]
[ignore_column: ]
[categorical_feature: 0]
[forcedbins_filename: ]
[precise_float_parser: 0]
[objective_seed: 1509]
[num_class: 1]
[is_unbalance: 0]
[scale_pos_weight: 1]
[sigmoid: 1]
[boost_from_average: 1]
[reg_sqrt: 0]
[alpha: 0.9]
[fair_c: 1]
[poisson_max_delta_step: 0.7]
[tweedie_variance_power: 1.5]
[lambdarank_truncation_level: 30]
[lambdarank_norm: 1]
[label_gain: ]
[eval_at: ]
[multi_error_top_k: 1]
[auc_mu_weights: ]
[num_machines: 1]
[local_listen_port: 12400]
[time_out: 120]
[machine_list_filename: ]
[machines: ]
[gpu_platform_id: -1]
[gpu_device_id: -1]
[gpu_use_dp: 0]
[num_gpu: 1]

end of parameters

pandas_categorical:[]
