tree
version=v3
num_class=1
num_tree_per_iteration=1
label_index=0
max_feature_idx=114
objective=regression
feature_names=TurbID Wspd Wdir Etmp Itmp Ndir Prtv Patv max_patv patv_residual diff_angle w_angle w_angle_adj w_angle_sin w_angle_cos win288_mean_Wspd win288_amax_Wspd win288_amin_Wspd win288_var_Wspd win288_median_Wspd win288_mean_Etmp win288_amax_Etmp win288_amin_Etmp win288_var_Etmp win288_median_Etmp win288_mean_Itmp win288_amax_Itmp win288_amin_Itmp win288_var_Itmp win288_median_Itmp win288_mean_Prtv win288_amax_Prtv win288_amin_Prtv win288_var_Prtv win288_median_Prtv win288_mean_Patv win288_amax_Patv win288_amin_Patv win288_var_Patv win288_median_Patv win288_mean_max_patv win288_amax_max_patv win288_amin_max_patv win288_var_max_patv win288_median_max_patv win288_mean_w_angle_sin win288_amax_w_angle_sin win288_amin_w_angle_sin win288_var_w_angle_sin win288_median_w_angle_sin win288_mean_w_angle_cos win288_amax_w_angle_cos win288_amin_w_angle_cos win288_var_w_angle_cos win288_median_w_angle_cos seasonal_Patv Patv__change_quantiles__f_agg_mean__isabs_True__qh_10__ql_06 Patv__change_quantiles__f_agg_var__isabs_True__qh_10__ql_06 Patv__change_quantiles__f_agg_var__isabs_False__qh_10__ql_06 Patv__change_quantiles__f_agg_var__isabs_True__qh_10__ql_04 Patv__change_quantiles__f_agg_mean__isabs_True__qh_10__ql_04 Patv__change_quantiles__f_agg_var__isabs_False__qh_10__ql_04 Patv__change_quantiles__f_agg_var__isabs_True__qh_10__ql_02 Patv__change_quantiles__f_agg_mean__isabs_True__qh_10__ql_02 Patv__change_quantiles__f_agg_var__isabs_False__qh_10__ql_02 Patv__change_quantiles__f_agg_var__isabs_False__qh_10__ql_08 Patv__change_quantiles__f_agg_mean__isabs_True__qh_10__ql_08 Patv__change_quantiles__f_agg_var__isabs_True__qh_10__ql_08 Patv__change_quantiles__f_agg_var__isabs_True__qh_10__ql_00 Patv__change_quantiles__f_agg_var__isabs_False__qh_10__ql_00 Patv__fourier_entropy__bins_5 Patv__fourier_entropy__bins_3 Patv__fft_coefficient__attr_abs__coeff_93 Patv__fft_coefficient__attr_abs__coeff_94 Patv__fft_coefficient__attr_abs__coeff_96 Patv__fft_coefficient__attr_abs__coeff_11 Patv__fft_coefficient__attr_abs__coeff_1 Patv__fft_coefficient__attr_abs__coeff_22 Patv__fft_coefficient__attr_abs__coeff_16 Patv__fft_coefficient__attr_abs__coeff_7 Patv__fft_coefficient__attr_abs__coeff_90 Patv__fft_coefficient__attr_abs__coeff_63 Patv__fft_coefficient__attr_abs__coeff_61 Patv__fft_coefficient__attr_abs__coeff_58 Patv__fft_coefficient__attr_abs__coeff_45 Patv__fft_coefficient__attr_abs__coeff_98 Patv__fft_coefficient__attr_abs__coeff_89 Patv__fft_coefficient__attr_abs__coeff_79 Patv__fft_coefficient__attr_abs__coeff_97 Patv__fft_coefficient__attr_abs__coeff_85 Patv__fft_coefficient__attr_abs__coeff_33 Patv__autocorrelation__lag_2 Patv__autocorrelation__lag_1 Patv__autocorrelation__lag_3 Patv__autocorrelation__lag_8 Patv__autocorrelation__lag_9 Patv__autocorrelation__lag_4 Patv__autocorrelation__lag_5 Patv__autocorrelation__lag_6 Patv__autocorrelation__lag_7 Patv__number_crossing_m__m_1 Patv__number_crossing_m__m_0 Patv__last_location_of_maximum Patv__cid_ce__normalize_False Patv__cid_ce__normalize_True Patv__longest_strike_above_mean Patv__fft_aggregated__aggtype_centroid Patv__fft_aggregated__aggtype_kurtosis Patv__fft_aggregated__aggtype_variance Patv__fft_aggregated__aggtype_skew Patv__ar_coefficient__coeff_1__k_10 Patv__linear_trend__attr_pvalue Patv__index_mass_quantile__q_04 Patv__partial_autocorrelation__lag_2 Patv__partial_autocorrelation__lag_1
feature_infos=-1:134:133:132:131:130:90:129:123:36:70:115:43:74:49:64:98:45:67:57:119:78:42:69:38:106:12:15:8:94:101:47:95:99:4:86:107:75:120:127:28:102:113:87:53:77:84:5:55:59:114:1:20:21:63:29:116:26:46:54:126:48:117:62:58:17:110:2:80:51:92:61:10:6:100:44:125:11:32:112:68:18:24:56:27:60:73:7:14:83:13:91:35:109:72:97:111:50:103:82:105:89:40:19:66:128:34:88:93:31:76:104:30:3:9:22:121:16:79:71:85:33:37:124:108:118:23:41:39:122:25:52:96:81 [-1.5688249894841568:5.4096633399141876] [-55.776633886815922:33.469420437812829] [-27.548118087229572:28.032477426987938] [-28.199628584585088:8.5958899848153809] [-5.0877647858241577:3.3134280347294376] [-0.40320844917751758:13.763438896081803] [-0.99337512471393197:3.7900845841884152] [-1.381471773728149:2.2710717472987749] [-6.1855297529925544:10.426976159443456] [-0.99998346601853361:0.99998346601853361] [-9.7382378877924758:7.3345535368426749] [-9.7382378877924758:7.3345535368426749] [-1.8821659847135039:1.4467912629830837] [-1.8122007978854009:1.315218354946232] [-2.4893584826409692:4.6676987250395685] [-3.9174417788266478:3.6363709190295301] [-0.59968876481012345:10.942547569546145] [-1.7635991690730812:6.715591566906455] [-2.2823675136092532:4.4402087490131361] [-5.4018590333085639:8.0554226812781842] [-4.2410696295074768:9.2705493075506435] [-9.4160139174432889:2.9726508700579362] [-1.6329803804997021:11.127850768697249] [-6.0867629252400732:8.3452647601861081] [-11.118977593549889:2.7142046829904585] [-4.7499289303726702:9.8302513133391543] [-5.8564035772570859:0.74267765039140599] [-0.29853084263765273:12.208819305951328] [-13.524740553547645:2.60259178388519] [-0.83902405416289128:10.725799899135406] [-1.6780991861046777:5.6736616552033761] [0:0] [-0.91186935406950265:9.1573932616633993] [-0.2769007098505416:19.861069128337348] [-1.7463937549807236:3.9657073709701831] [-4.9241145476487693:1.1595549378238037] [-0.22012823883537971:23.337060169240129] [-1.765603566611561:4.7847886567925215] [-1.2686015132909645:4.7504999179003464] [-2.0330516982878879:3.6756451986964369] [-9.8181903010440461:0.59221888250409027] [-0.37139650190865608:19.505508705857501] [-2.2582060960203947:3.5739573977515029] [-1.6766695913517131:3.3036967294573198] [-3.0436982855860211:2.5945586362802882] [-14.172608431949376:0.35661486350439953] [-0.53387840763506744:7.0545014074003163] [-1.9038297746711248:3.4969192409163297] [-2.6315017768396838:1.965317891711146] [-2.9227778523818411:2.454704639975541] [-21.197631226358936:0.37519976190800391] [-0.51252295708076401:5.571956937345381] [-2.00915624522418:3.0884402448659047] [-2.3557302721028468:1.7396913580432161] [-3.0606314893323194:4.1939166340969019] [-3.1591450534594072:4.4377804762256563] [-1.929535802024007:7.4015446365122726] [-1.9289099991313123:6.3025140560671318] [-2.2465796592797926:6.0863227143863154] [-3.1340056093205564:3.8984887201888863] [-2.1315974534148103:6.0723065505490084] [-2.3091219187187684:5.2656516806081664] [-2.924426655514893:4.0401095517311827] [-2.157315961673397:5.3931160538206768] [-1.7003035125456574:7.7090356042032528] [-2.9559334624288702:5.1948299380291498] [-1.6884951933556218:7.628698995751102] [-2.0558359137507005:6.2903516496230729] [-2.0029301210935886:6.3662980592157368] [-2.0418648990688459:13.344394951800268] [-1.7072756716786666:11.673463634928764] [-1.8536058344815081:7.2372766953621879] [-1.816956584385095:6.2869478249639412] [-1.7807823697597029:6.6730774101175276] [-1.7957956052049449:5.2885215567371189] [-1.674502799438772:3.4490628848516844] [-1.7958947617761416:5.7028554703371661] [-1.7896753718500735:6.0920554569216838] [-1.8396689171157257:5.5620985932497335] [-1.8096114529666605:5.9403679261720219] [-1.8183325066216172:6.2381385886137952] [-1.880545636772472:5.7779523689095669] [-1.9716715010127512:6.2138620469627046] [-1.8307355757545536:5.7363253429253644] [-1.8591359839493835:6.2463698351517127] [-1.9163891713418699:6.8731930611458658] [-1.8878730687102243:6.4915591441307896] [-1.9141939881282439:7.0895454741338302] [-1.8126194571344869:6.996454371935501] [-1.8137858491637824:5.7037354429225688] [-8.1638756889238326:1.8049027859029811] [-9.4328078351624516:1.6160801128620208] [-7.3983980741413617:1.9452989523779376] [-5.402313817111323:2.3347320459896594] [-4.9247471534928078:2.3469464749123987] [-7.3401332470197316:2.053517367130997] [-7.3087739287579891:2.0947611513616566] [-6.6758705554496558:2.1886073060932278] [-5.9847859340562719:2.2684270253546752] [-2.0649821741149288:4.7790707298506154] [-2.0423165497157858:4.8231830778395617] [-1.7199330907248471:1.7159806740994474] [-3.4286761971829893:4.4350384695724179] [-2.4112205459439444:6.1365714155853359] [-1.8836506633215917:7.1975484461855244] [-3.254290390502852:4.5213903873518628] [-3.0346918666303098:8.0540979928589795] [-3.7768066894670103:5.0643808404295649] [-3.665966438430809:4.6922493808967314] [-4.4712795599987141:3.7633244937639581] [-0.44928829186803643:5.4625855149687714] [-2.3082254788041001:3.115758512267325] [-3.8781642964459153:4.3778868221868947] [-9.4328078351624498:1.6160801128620339]
tree_sizes=3202 3225 3206

Tree=0
num_leaves=31
num_cat=0
split_feature=106 98 50 114 31 24 76 24 24 24 18 24 24 38 38 50 40 24 107 4 31 78 35 65 19 11 50 39 76 24
split_gain=69661.2 41050.6 36671.2 29445.8 28283.9 24865.3 24301.3 32415 22179.9 43599 21456.8 20551.3 16971 16378.3 18250.5 18807.1 14539.1 13276 13015.2 12990.8 15857.9 12829.1 12257.3 11328.9 10013.6 9544.17 9423.86 9134.59 20279.4 11220
threshold=0.6687805008441704 1.5637952617423194 -0.66153785618592009 -0.7644436244602989 -1.3863808620422009 -2.4144914446276338 2.1565194506928176 -1.2660976922063529 -0.29518060080323644 0.31379174286663142 1.7260070727030004 -1.0290306366757773 -2.5139819472321068 -0.95156964694216539 1.6571959565862444 0.23376183110369878 0.82302761092384447 -1.3515129796953171 0.85652789675491425 -0.5346668761110932 -1.3863808620422009 -0.11743261160143734 1.438150175890706 0.13292298997380073 -1.1242318127256483 -0.94854314606294732 0.30211587802951129 -0.17076471741554353 -0.59750700516098276 0.63534824618201136
decision_type=10 10 2 8 2 2 2 2 2 2 2 2 2 2 2 2 2 2 10 2 2 2 2 2 2 2 2 2 2 2
left_child=1 6 3 -2 8 10 13 12 -4 -10 -3 16 -8 19 18 22 24 -17 25 -1 21 -21 -16 -22 -7 -15 27 -6 29 -29
right_child=2 5 4 -5 26 11 7 -9 9 -11 -12 -13 -14 14 15 17 -18 -19 -20 20 23 -23 -24 -25 -26 -27 -28 28 -30 -31
leaf_value=-0.0056193941669277978 0.022950863173919381 -0.016076301184725424 0.0034267740235202951 0.0018392134230364857 0.0011992536357206584 -0.012802686336569068 0.0022229463019758726 -0.0065325768846754718 0.057026762390067501 0.0016323721638852892 0.036400286642255905 0.00013811095773174148 0.044570081419262574 -0.0081125394104935057 0.0072605446962934837 0.028637617961714306 0.010861729526206012 -0.011238168895524932 -0.0096427043809968558 0.0081148931716651194 -0.0061610063271093345 0.03031110017864859 0.033340286561609735 0.010119577308093862 0.054543720140058448 -0.0027751300765099709 -0.0037060682036344174 0.014792273877345195 0.00068981701517630803 0.049513402134740002
leaf_weight=125498 188811 26998 47883 86792 256273 2128 12073 37367 28061 23494 9473 16220 28921 378371 121502 8350 11577 75076 431259 78989 100823 33323 18718 62197 29970 1484595 242252 18399 51524 15377
leaf_count=125498 188811 26998 47883 86792 256273 2128 12073 37367 28061 23494 9473 16220 28921 378371 121502 8350 11577 75076 431259 78989 100823 33323 18718 62197 29970 1484595 242252 18399 51524 15377
internal_value=-2.94917e-10 -0.0021899 0.00706492 0.0163025 0.00333883 0.017083 -0.0028096 0.0136771 0.0181286 0.0317832 -0.00244586 0.0289744 0.0320987 -0.00325223 -0.00414888 0.00403159 0.0396835 -0.00724699 -0.00494633 0.00238021 0.0060265 0.0147006 0.010742 5.05067e-05 0.0500787 -0.00385917 0.000819798 0.00402966 0.0125332 0.0305997
internal_weight=0 3.09343e+06 958866 275603 683263 96366 2.99706e+06 78361 99438 51555 36471 59895 40994 2.9187e+06 2.51787e+06 223646 43675 83426 2.29422e+06 400830 275332 112312 140220 163020 32098 1.86297e+06 583825 341573 85300 33776
internal_count=4052294 3093428 958866 275603 683263 96366 2997062 78361 99438 51555 36471 59895 40994 2918701 2517871 223646 43675 83426 2294225 400830 275332 112312 140220 163020 32098 1862966 583825 341573 85300 33776
is_linear=0
shrinkage=1


Tree=1
num_leaves=31
num_cat=0
split_feature=106 94 54 16 92 20 20 18 18 20 24 15 109 16 24 16 11 24 24 20 24 64 18 3 15 20 24 48 13 76
split_gain=65555.4 43428.9 29777 31004.4 23008.4 22714 33745 24029.6 20820.1 18591.8 24999.2 17829.7 15071.9 21784.4 15517.3 35485 14472.1 14447.1 13000.1 12935.9 34749.8 22749.4 20517.7 13841.9 15344 13530.2 18956.6 12872.9 12228.9 12202.8
threshold=0.6559870391944036 1.5704573017235439 -1.1117986577163901 -1.5314890792755949 -0.76444362446029235 -2.4804306959324771 -0.98895944861961216 1.5761542919435332 2.9503380616680173 -0.98895944861961216 0.3664485370426766 0.60305529728605678 0.90764678740231874 2.4751848777905536 -1.6722970945945179 0.11158219650492576 -0.82253752838319416 -2.5139819472321068 -1.2660976922063529 1.0408510298825868 0.73969003252673415 0.5119024676150149 -0.62185902084683609 -0.92205024218706944 -0.33505047552215178 0.56451171251227017 -0.10104257619247985 1.6540026346833017 0.27397084301506835 -1.1264192438772249
decision_type=10 10 2 2 10 2 2 2 2 2 2 2 8 2 2 2 2 2 2 2 2 2 2 2 2 2 2 2 2 2
left_child=1 8 4 9 -2 7 11 -3 12 -4 -11 -7 14 -14 15 -1 -16 -17 -18 20 22 29 23 -20 25 26 -25 -21 -10 -22
right_child=2 5 3 -5 -6 6 -8 -9 28 10 -12 -13 13 -15 16 17 18 -19 19 27 21 -23 -24 24 -26 -27 -28 -29 -30 -31
leaf_value=-0.00099795405398909174 0.023086777518826967 -0.016275220979603513 0.00086664448419619721 0.0022912667837104305 0.0019191325914255221 0.050560246048370235 -0.0030359460710041668 0.033212503642393788 0.030684317429270698 0.052603785338100242 -0.0050676284147627088 0.015492948947281902 -0.0080736115739580578 0.028127266129930814 -0.0069360354902240559 -0.0012192044998927843 -0.015075401224871821 0.054996838718525169 -0.0076756340107204547 -0.0098875427383277696 0.030876780360358243 0.022792315353043043 -0.0044485659301526847 0.0068440840481587229 -0.0041517616269742706 -0.010793914022095279 0.027021156823227258 0.020069228177907385 -0.0009603877117583809 0.0010418971560227999
leaf_weight=66152 150294 31636 17911 703515 66737 35223 27461 12250 26074 27162 9008 20729 635807 15321 515025 5341 58412 17913 69714 185797 13539 88694 802715 113061 76604 21626 66589 13874 18999 139111
leaf_count=66152 150294 31636 17911 703515 66737 35223 27461 12250 26074 27162 9008 20729 635807 15321 515025 5341 58412 17913 69714 185797 13539 88694 802715 113061 76604 21626 66589 13874 18999 139111
internal_value=0 -0.00214725 0.00678058 0.00397395 0.0165777 0.0150091 0.0242009 -0.00246149 -0.0028875 0.025863 0.0382409 0.0375687 -0.0032014 -0.0072218 -0.00204008 0.0102077 -0.00254592 0.042085 -0.00117539 -0.000665163 0.000359384 0.0107089 -0.00181203 0.00427664 0.00727522 0.0116243 0.0143229 -0.00780599 0.0173455 0.00368808
internal_weight=0 3.07767e+06 974627 757596 217031 127299 83413 43886 2.95037e+06 54081 36170 55952 2.9053e+06 651128 2.25417e+06 89406 2.16476e+06 23254 1.64974e+06 1.59132e+06 1.39165e+06 241344 1.15031e+06 347594 277880 201276 179650 199671 45073 152650
internal_count=4052294 3077667 974627 757596 217031 127299 83413 43886 2950368 54081 36170 55952 2905295 651128 2254167 89406 2164761 23254 1649736 1591324 1391653 241344 1150309 347594 277880 201276 179650 199671 45073 152650
is_linear=0
shrinkage=0.03


Tree=2
num_leaves=31
num_cat=0
split_feature=104 54 95 36 20 20 38 38 3 43 31 20 15 45 103 18 39 24 94 79 15 20 21 4 45 48 35 20 20 56
split_gain=57918.7 50500.5 41080.3 34072.1 25130.9 25438.3 23030.4 27127 23277 22927.9 19403.5 19212.5 16710.9 15828.7 14723.9 13231.4 18635.2 13835.8 12353.5 11393 16274.6 12023 25884.5 10702.4 21885.3 10282.2 13992.6 20801.9 10139.7 9719.22
threshold=0.89544125051442991 -0.8415828948609908 1.6331141657925852 -2.4493542174899363 -2.4804306959324771 -0.97769870164955652 -0.8028163466209064 1.6878984079667474 -0.89076443027559604 1.3635459849164977 -1.3863808620422009 -1.2927134572754635 0.62442815363206827 0.51532913026415383 -2.5373519929617498 -0.59690140169271844 -0.84365630633467703 -0.10104257619247985 0.55453716562839983 -0.57828440916444956 -0.12075371878713149 -1.1792586391955102 -2.0785983409367259 0.21484454755974627 -1.3510269498110321 0.73519831855814421 -0.24039726072893197 0.66260824125323514 0.30364324086785571 -0.35669960135368239
decision_type=2 2 10 2 2 2 2 2 2 2 2 2 2 2 2 2 2 2 8 2 2 2 2 2 2 2 2 2 2 2
left_child=2 -2 6 28 9 12 8 19 14 -4 15 -9 -6 -13 -1 16 -10 -18 29 20 -8 22 -22 -21 -25 -5 -27 -28 -3 -12
right_child=1 3 4 25 5 -7 7 11 10 -11 18 13 -14 -15 -16 -17 17 -19 -20 23 21 -23 -24 24 -26 26 27 -29 -30 -31
leaf_value=0.034110575816673788 0.021222655595826458 0.05017810635922057 -0.016526925818799307 -0.0019909414322910549 0.050838877800680193 -0.0014901493964898426 -0.0066263005908914693 0.029929992621138692 0.0034666610829998164 0.034359470793008523 -0.0014046654936233447 0.0084686597371365167 0.015155463760038786 -0.0088049331684704295 -0.0086374129289611568 -0.0078988267803222802 0.015945008198074821 0.039166771647013952 -0.0090624418834482912 -0.008188654346141043 -0.013977879015838761 0.0009734852625971342 0.031794762119042586 0.011076885998862668 -0.0050998888134996707 0.0020591649146834185 0.0056124619680630221 0.04318524251130805 0.0066155969979873816 0.010459083680290707
leaf_weight=7577 183353 17323 29517 312379 32957 20483 257992 26541 57822 10916 119814 148108 18410 70457 168808 22023 59375 37789 76101 888035 16475 266643 34202 84018 722713 169221 36689 20769 6657 129127
leaf_count=7577 183353 17323 29517 312379 32957 20483 257992 26541 57822 10916 119814 148108 18410 70457 168808 22023 59375 37789 76101 888035 16475 266643 34202 84018 722713 169221 36689 20769 6657 129127
internal_value=0 0.00754818 -0.00170419 0.00309508 0.016131 0.0267779 -0.00233125 -0.00365437 0.00257399 -0.00278862 0.00586772 0.0058272 0.03805 0.0029003 -0.00680105 0.0138598 0.0169516 0.0249765 0.00151545 -0.00467813 -0.00103039 0.00351927 0.0169141 -0.0059164 -0.00341513 0.00153854 0.00640242 0.0191938 0.0380851 0.00474911
internal_weight=0 746391 3.3059e+06 563038 112283 71850 3.19362e+06 2.51518e+06 678436 40433 502051 245106 51367 218565 176385 177009 154986 97164 325042 2.27008e+06 575312 317320 50677 1.69477e+06 806731 539058 226679 57458 23980 248941
internal_count=4052294 746391 3305903 563038 112283 71850 3193620 2515184 678436 40433 502051 245106 51367 218565 176385 177009 154986 97164 325042 2270078 575312 317320 50677 1694766 806731 539058 226679 57458 23980 248941
is_linear=0
shrinkage=0.03


end of trees

feature_importances:
win288_median_Etmp=15
win288_mean_Etmp=11
win288_var_Wspd=5
win288_mean_Wspd=4
win288_var_Patv=4
win288_amax_Wspd=3
win288_amax_Prtv=3
win288_mean_w_angle_cos=3
Patv__fft_coefficient__attr_abs__coeff_1=3
Etmp=2
Itmp=2
w_angle=2
win288_mean_Patv=2
win288_median_Patv=2
win288_mean_w_angle_sin=2
win288_var_w_angle_sin=2
win288_median_w_angle_cos=2
Patv__autocorrelation__lag_8=2
Patv__fft_aggregated__aggtype_centroid=2
w_angle_sin=1
win288_median_Wspd=1
win288_amax_Etmp=1
win288_amax_Patv=1
win288_mean_max_patv=1
win288_var_max_patv=1
Patv__change_quantiles__f_agg_mean__isabs_True__qh_10__ql_06=1
Patv__change_quantiles__f_agg_var__isabs_False__qh_10__ql_02=1
Patv__change_quantiles__f_agg_var__isabs_False__qh_10__ql_08=1
Patv__fft_coefficient__attr_abs__coeff_16=1
Patv__fft_coefficient__attr_abs__coeff_7=1
Patv__autocorrelation__lag_1=1
Patv__autocorrelation__lag_9=1
Patv__autocorrelation__lag_6=1
Patv__cid_ce__normalize_False=1
Patv__cid_ce__normalize_True=1
Patv__fft_aggregated__aggtype_kurtosis=1
Patv__fft_aggregated__aggtype_skew=1
Patv__partial_autocorrelation__lag_1=1

parameters:
[boosting: gbdt]
[objective: regression]
[metric: rmse]
[tree_learner: serial]
[device_type: cpu]
[data: ]
[valid: ]
[num_iterations: 500]
[learning_rate: 0.03]
[num_leaves: 31]
[num_threads: -1]
[deterministic: 0]
[force_col_wise: 0]
[force_row_wise: 0]
[histogram_pool_size: -1]
[max_depth: -1]
[min_data_in_leaf: 20]
[min_sum_hessian_in_leaf: 0.001]
[bagging_fraction: 0.6]
[pos_bagging_fraction: 1]
[neg_bagging_fraction: 1]
[bagging_freq: 0]
[bagging_seed: 7970]
[feature_fraction: 0.6]
[feature_fraction_bynode: 1]
[feature_fraction_seed: 8237]
[extra_trees: 0]
[extra_seed: 9082]
[early_stopping_round: 10]
[first_metric_only: 0]
[max_delta_step: 0]
[lambda_l1: 0.1]
[lambda_l2: 0.1]
[linear_lambda: 0]
[min_gain_to_split: 0]
[drop_rate: 0.1]
[max_drop: 50]
[skip_drop: 0.5]
[xgboost_dart_mode: 0]
[uniform_drop: 0]
[drop_seed: 7660]
[top_rate: 0.2]
[other_rate: 0.1]
[min_data_per_group: 100]
[max_cat_threshold: 32]
[cat_l2: 10]
[cat_smooth: 10]
[max_cat_to_onehot: 4]
[top_k: 20]
[monotone_constraints: ]
[monotone_constraints_method: basic]
[monotone_penalty: 0]
[feature_contri: ]
[forcedsplits_filename: ]
[refit_decay_rate: 0.9]
[cegb_tradeoff: 1]
[cegb_penalty_split: 0]
[cegb_penalty_feature_lazy: ]
[cegb_penalty_feature_coupled: ]
[path_smooth: 0]
[interaction_constraints: ]
[verbosity: -1]
[saved_feature_importance_type: 0]
[linear_tree: 0]
[max_bin: 255]
[max_bin_by_feature: ]
[min_data_in_bin: 3]
[bin_construct_sample_cnt: 200000]
[data_random_seed: 1671]
[is_enable_sparse: 1]
[enable_bundle: 1]
[use_missing: 1]
[zero_as_missing: 0]
[feature_pre_filter: 1]
[pre_partition: 0]
[two_round: 0]
[header: 0]
[label_column: ]
[weight_column: ]
[group_column: ]
[ignore_column: ]
[categorical_feature: 0]
[forcedbins_filename: ]
[precise_float_parser: 0]
[objective_seed: 21566]
[num_class: 1]
[is_unbalance: 0]
[scale_pos_weight: 1]
[sigmoid: 1]
[boost_from_average: 1]
[reg_sqrt: 0]
[alpha: 0.9]
[fair_c: 1]
[poisson_max_delta_step: 0.7]
[tweedie_variance_power: 1.5]
[lambdarank_truncation_level: 30]
[lambdarank_norm: 1]
[label_gain: ]
[eval_at: ]
[multi_error_top_k: 1]
[auc_mu_weights: ]
[num_machines: 1]
[local_listen_port: 12400]
[time_out: 120]
[machine_list_filename: ]
[machines: ]
[gpu_platform_id: -1]
[gpu_device_id: -1]
[gpu_use_dp: 0]
[num_gpu: 1]

end of parameters

pandas_categorical:[]
