tree
version=v3
num_class=1
num_tree_per_iteration=1
label_index=0
max_feature_idx=114
objective=regression
feature_names=TurbID Wspd Wdir Etmp Itmp Ndir Prtv Patv max_patv patv_residual diff_angle w_angle w_angle_adj w_angle_sin w_angle_cos win288_mean_Wspd win288_amax_Wspd win288_amin_Wspd win288_var_Wspd win288_median_Wspd win288_mean_Etmp win288_amax_Etmp win288_amin_Etmp win288_var_Etmp win288_median_Etmp win288_mean_Itmp win288_amax_Itmp win288_amin_Itmp win288_var_Itmp win288_median_Itmp win288_mean_Prtv win288_amax_Prtv win288_amin_Prtv win288_var_Prtv win288_median_Prtv win288_mean_Patv win288_amax_Patv win288_amin_Patv win288_var_Patv win288_median_Patv win288_mean_max_patv win288_amax_max_patv win288_amin_max_patv win288_var_max_patv win288_median_max_patv win288_mean_w_angle_sin win288_amax_w_angle_sin win288_amin_w_angle_sin win288_var_w_angle_sin win288_median_w_angle_sin win288_mean_w_angle_cos win288_amax_w_angle_cos win288_amin_w_angle_cos win288_var_w_angle_cos win288_median_w_angle_cos seasonal_Patv Patv__change_quantiles__f_agg_mean__isabs_True__qh_10__ql_06 Patv__change_quantiles__f_agg_var__isabs_True__qh_10__ql_06 Patv__change_quantiles__f_agg_var__isabs_False__qh_10__ql_06 Patv__change_quantiles__f_agg_var__isabs_True__qh_10__ql_04 Patv__change_quantiles__f_agg_mean__isabs_True__qh_10__ql_04 Patv__change_quantiles__f_agg_var__isabs_False__qh_10__ql_04 Patv__change_quantiles__f_agg_var__isabs_True__qh_10__ql_02 Patv__change_quantiles__f_agg_mean__isabs_True__qh_10__ql_02 Patv__change_quantiles__f_agg_var__isabs_False__qh_10__ql_02 Patv__change_quantiles__f_agg_var__isabs_False__qh_10__ql_08 Patv__change_quantiles__f_agg_mean__isabs_True__qh_10__ql_08 Patv__change_quantiles__f_agg_var__isabs_True__qh_10__ql_08 Patv__change_quantiles__f_agg_var__isabs_True__qh_10__ql_00 Patv__change_quantiles__f_agg_var__isabs_False__qh_10__ql_00 Patv__fourier_entropy__bins_5 Patv__fourier_entropy__bins_3 Patv__fft_coefficient__attr_abs__coeff_93 Patv__fft_coefficient__attr_abs__coeff_94 Patv__fft_coefficient__attr_abs__coeff_96 Patv__fft_coefficient__attr_abs__coeff_11 Patv__fft_coefficient__attr_abs__coeff_1 Patv__fft_coefficient__attr_abs__coeff_22 Patv__fft_coefficient__attr_abs__coeff_16 Patv__fft_coefficient__attr_abs__coeff_7 Patv__fft_coefficient__attr_abs__coeff_90 Patv__fft_coefficient__attr_abs__coeff_63 Patv__fft_coefficient__attr_abs__coeff_61 Patv__fft_coefficient__attr_abs__coeff_58 Patv__fft_coefficient__attr_abs__coeff_45 Patv__fft_coefficient__attr_abs__coeff_98 Patv__fft_coefficient__attr_abs__coeff_89 Patv__fft_coefficient__attr_abs__coeff_79 Patv__fft_coefficient__attr_abs__coeff_97 Patv__fft_coefficient__attr_abs__coeff_85 Patv__fft_coefficient__attr_abs__coeff_33 Patv__autocorrelation__lag_2 Patv__autocorrelation__lag_1 Patv__autocorrelation__lag_3 Patv__autocorrelation__lag_8 Patv__autocorrelation__lag_9 Patv__autocorrelation__lag_4 Patv__autocorrelation__lag_5 Patv__autocorrelation__lag_6 Patv__autocorrelation__lag_7 Patv__number_crossing_m__m_1 Patv__number_crossing_m__m_0 Patv__last_location_of_maximum Patv__cid_ce__normalize_False Patv__cid_ce__normalize_True Patv__longest_strike_above_mean Patv__fft_aggregated__aggtype_centroid Patv__fft_aggregated__aggtype_kurtosis Patv__fft_aggregated__aggtype_variance Patv__fft_aggregated__aggtype_skew Patv__ar_coefficient__coeff_1__k_10 Patv__linear_trend__attr_pvalue Patv__index_mass_quantile__q_04 Patv__partial_autocorrelation__lag_2 Patv__partial_autocorrelation__lag_1
feature_infos=-1:134:133:132:131:130:129:66:57:23:86:4:43:76:2:123:29:122:70:64:38:60:117:6:98:50:79:99:7:65:19:36:25:106:115:100:114:5:17:119:10:118:126:39:47:26:44:107:20:112:95:13:89:73:74:51:11:54:59:88:14:58:22:40:94:101:97:69:84:120:1:15:31:45:81:93:24:28:90:104:127:32:56:85:27:46:80:121:18:82:109:30:49:75:78:8:77:113:16:108:35:42:103:96:128:12:34:41:21:61:110:48:37:63:116:3:33:52:125:53:91:111:68:92:67:9:83:124:71:62:105:87:102:55 [-1.5688249894841568:5.5171326277046706] [-6.0688060980352159:33.469420437812829] [-29.634596403404867:23.779493701184439] [-28.20516912490049:4.8317162040072361] [-5.0877647858241577:3.1955472361452242] [-0.40320844917751758:14.269338997025271] [-0.99337512471393197:3.7830625458327702] [-1.381471773728149:2.2710717472987749] [-6.3142422500732787:9.9637188319475687] [-0.99998346601853361:0.99998346601853361] [-5.8408287706871862:7.3345535368426749] [-5.8408287706871862:7.3345535368426749] [-1.8819655553052004:1.4468028491724474] [-1.8122001175131539:1.3152184988979376] [-2.4893584826409692:4.6141018518528378] [-3.9174417788266478:3.6363709190295301] [-0.59968876481012345:11.024172311794384] [-1.7635991690730812:6.6961250070560805] [-2.2823675136092532:4.4402087490131361] [-5.4165112884452586:8.4567823176385648] [-4.1811358412993354:9.2705493075506435] [-9.4160139174432889:2.9726508700579362] [-1.623103913820108:11.792053580502705] [-6.0867629252400732:9.5347501185418757] [-11.1162011877159:2.715745815464452] [-4.7499289303726702:9.8302513133391543] [-5.8564035772570859:0.74267765039140599] [-0.29900658266413738:12.209372852317712] [-13.524740553547645:2.60259178388519] [-0.83902405416289128:10.725799899135406] [-1.6780991861046777:5.6736616552033761] [0:0] [-0.91186935406950265:9.1573932616633993] [-0.2769007098505416:19.12855854388928] [-1.7488610145456909:3.9700968826705889] [-5.305363548918276:1.1595549378238037] [-0.22012823883537971:21.121803303862787] [-1.7758425748351241:4.7772521504705319] [-1.2686015132909645:4.7226044407463439] [-2.0330516982878879:3.6179929535132129] [-9.8181903010440461:0.59221888250409027] [-0.37139650190865608:19.631557362150826] [-2.2582060960203947:3.65998628490448] [-1.6766695913517131:3.3036967294573198] [-3.0522232752202827:2.5730281701704789] [-15.186426772065298:0.35661486350439953] [-0.53387840763506744:7.0545014074003163] [-1.9019578199589533:3.478540774833633] [-2.6254986016202149:1.9607007803344043] [-2.9136268568437851:2.4384115370951118] [-21.197631226358936:0.37519976190800391] [-0.51252295708076401:5.571956937345381] [-2.0091796779650961:3.1495332888245811] [-2.3593361594382531:1.7396913580432161] [-3.0606314893323194:4.2915720893831217] [-3.1587216442606212:4.4555401313081822] [-1.9297355409438768:7.5653186934969847] [-1.9284575156717689:6.3388050345005116] [-2.2474003684347266:6.0781947216022765] [-3.1359764469144711:3.9286814930306089] [-2.132015312870152:6.1176007555669205] [-2.3068602827933598:5.0760867425258169] [-2.9486558118897577:4.0726468550577133] [-2.1525334955795321:5.3376482869468003] [-1.7057769780522769:8.6226783462685201] [-2.9546655737030152:5.5926261129673813] [-1.6886977411302235:7.541414400877497] [-2.0564567127216637:6.2891348974742129] [-1.9989013320589291:6.3739471971703079] [-2.0418648990688459:10.930046251733772] [-1.7072756716786666:9.2358445825569557] [-1.8372540171578609:6.46917122614453] [-1.8287556276136487:5.9379409003719283] [-1.7739668799718269:6.6307800343727479] [-1.767790501289153:5.3082967299023798] [-1.6705693505688799:3.4706849749056441] [-1.8154644084370373:5.724426525145871] [-1.7776594385122455:5.8474921417032792] [-1.8602174813683807:5.8050791937305748] [-1.8633063365421929:6.225373862863524] [-1.8619524780648411:6.6306677864637029] [-1.8654011442959328:6.0707984040349539] [-1.9656291866920961:6.2138620469627046] [-1.8266334783795519:5.9964959342651438] [-1.8814079528197321:6.576804285876432] [-1.875074300163716:5.9570347305117117] [-1.9035600309688965:6.5823822328385324] [-1.8500125776229708:6.4615756395716462] [-1.8788209180183884:6.996454371935501] [-1.807550853093344:5.7674401844152792] [-8.1445910402902406:1.7855055701114633] [-11.014346070089497:1.5874398009378097] [-7.3472284504832661:1.9284799355548901] [-5.9739960705426682:2.4029642201547987] [-5.4108433748535196:2.4185903119445618] [-7.2785779562138027:2.0319773546859698] [-7.2758931302497798:2.1222462790809589] [-6.6647576366283827:2.2386435447992281] [-6.1856272888250361:2.3245072378877407] [-2.0649821741149288:4.7790707298506154] [-2.0423165497157858:4.8231830778395617] [-1.7199330907248471:1.7159806740994474] [-3.4336196937346091:4.4384662656761513] [-2.9088442115311839:6.786338149073841] [-2.012438068981361:7.6832098989228212] [-3.1965126267581891:4.690896161831823] [-3.0218757177954063:8.3572439721494032] [-3.837217908482343:5.1152057958316579] [-3.665966438430809:4.6598320563773044] [-4.6915887942567434:3.7425862934364251] [-0.44928829186803643:5.4437837465070524] [-2.2372074124088552:3.2530147122052324] [-4.7069777780994944:4.3814736324117964] [-11.01434607008949:1.5874398009378099]
tree_sizes=3217 3218 3243

Tree=0
num_leaves=31
num_cat=0
split_feature=92 50 95 36 50 38 38 112 19 26 112 21 21 50 29 43 4 18 15 31 75 112 53 45 26 31 50 47 21 60
split_gain=68643.3 65402 46265.8 33152.1 25692.5 23127 29580.3 22201.9 42470.3 20563.8 19992.1 24438.5 19835.6 18805.8 22695.8 17969.1 16511.7 15645.4 14905.6 14570.2 13246.2 13954.1 11707.7 11587.7 11551.7 11518 11404.4 14336 11248.5 10968.6
threshold=-0.74323672131331242 -0.64894111160683321 1.6361761899252116 -2.4592690256056451 -1.4693759038827945 -0.80342737023275423 1.6933815600675801 -1.1065687616421747 0.68901069483264543 -0.53705475053957086 0.050456658944773851 0.9612311745962413 0.29376416215233919 0.22147937324872344 -1.3437690473890653 0.33678922036530762 0.076442440581626706 -0.88442827566490234 1.0254801673081313 -1.3994924087974869 0.5491480834375243 2.0133765013144154 -0.97033692432147445 -0.30172451463755134 0.26049341555374078 1.1848220812277004 -1.3662315730002847 0.84190685854203695 0.22355488394823828 -2.5751980309315665
decision_type=8 2 10 2 2 2 2 10 2 2 8 2 2 2 2 2 2 2 2 2 2 10 2 2 2 2 2 2 2 2
left_child=1 -1 5 28 -4 9 10 -6 24 29 -7 15 19 18 -15 -12 25 -14 -8 -11 21 23 -22 -18 -9 26 -17 -28 -3 -2
right_child=2 3 4 -5 7 6 13 8 -10 12 11 -13 17 14 -16 16 20 -19 -20 -21 22 -23 -24 -25 -26 -27 27 -29 -30 -31
leaf_value=0.022859753414823061 0.026045192145989701 0.051550370604270299 0.060939695998618641 0.0014077722177501331 -0.014466431673354029 -0.0078136379611741299 0.0076338118629866751 0.047143803617630459 -0.00151955763377162 0.028596728896663075 -0.0046188182434958635 -0.011660252313949208 -0.0079936354564986711 0.03371952639765044 -0.0096007824919911652 0.020887788955736199 0.01551230081324158 0.0089204013944625838 0.030380628894500262 0.0084788061805231279 0.034577896350393648 0.03898060074875255 0.011233879276692036 -0.0028322057164126128 -0.01894940123286553 -0.015369489832697458 -0.005769288383154941 0.017271616754624554 0.0044866760610526571 -0.003938348504740132
leaf_weight=199428 11373 16364 10881 544818 21684 1109664 111159 35287 40491 54072 440402 201871 86139 12474 85408 23077 40996 114834 33814 80838 26058 9520 74957 126978 2552 47714 135259 29627 6342 318213
leaf_count=199428 11373 16364 10881 544818 21684 1109664 111159 35287 40491 54072 440402 201871 86139 12474 85408 23077 40996 114834 33814 80838 26058 9520 74957 126978 2552 47714 135259 29627 6342 318213
internal_value=-2.94917e-10 0.0080812 -0.00188653 0.00288801 0.017161 -0.00255193 -0.00387068 0.012398 0.0198349 0.00242007 -0.00493705 -0.00217685 0.00764403 0.00607976 -0.00408002 -0.000171354 0.00363791 0.00167086 0.0129394 0.0165421 0.00858325 0.00364753 0.0172558 0.00164497 0.0426861 -0.00220619 0.00113527 -0.00162923 0.0384052 -0.00290369
internal_weight=0 766952 3.28534e+06 567524 110895 3.17445e+06 2.50898e+06 100014 78330 665469 2.26612e+06 1.15646e+06 335883 242855 97882 954588 514186 200973 144973 134910 278509 177494 101015 167974 37839 235677 187963 164886 22706 329586
internal_count=4052294 766952 3285342 567524 110895 3174447 2508978 100014 78330 665469 2266123 1156459 335883 242855 97882 954588 514186 200973 144973 134910 278509 177494 101015 167974 37839 235677 187963 164886 22706 329586
is_linear=0
shrinkage=1


Tree=1
num_leaves=31
num_cat=0
split_feature=106 95 54 16 20 20 18 38 92 109 20 24 20 35 45 38 3 31 16 20 18 36 75 53 39 24 20 103 31 53
split_gain=66302.8 45124.4 29840.2 29783.6 24680.9 33190.4 24013.4 21591.9 19540.3 19443.6 18576.5 24473.9 18319.8 18058.4 16038 14578.2 17979.7 18488.2 17733.3 37936.4 14096.8 13602.6 17475.7 13114.6 12006.1 12441.9 11521.9 11342.2 10072.7 10272.3
threshold=0.67303013790378874 1.602707494680889 -1.1912001736604925 -1.5362222930034346 -2.4819713317946341 -0.98201691921994194 1.6110496694391574 1.6933815600675801 -0.76536776744282997 0.90985114217156815 -0.98201691921994194 0.36665074729426611 -1.3019417774292086 0.97947472857149653 0.51962192877573254 -0.80342737023275423 -0.88010082037391513 -1.3802026668154386 0.12148328107193052 -1.6129637496505229 -0.59846649657749029 0.59792830145330378 0.88070161543935643 0.023735928022100155 -0.84261469665729072 -0.1010790285104395 -2.5637964874850399 -2.577298951442764 -0.048617923070904741 -1.554391926430408
decision_type=10 10 2 2 2 2 2 2 10 8 2 2 2 2 2 2 2 2 2 2 2 2 2 2 2 2 2 2 2 2
left_child=1 7 8 10 6 13 -3 9 -2 15 -4 -12 -9 -6 -14 16 27 20 28 26 24 22 -21 -5 -18 -26 -20 -1 29 -17
right_child=2 4 3 23 5 -7 -8 12 -10 -11 11 -13 14 -15 -16 18 17 -19 19 21 -22 -23 -24 -25 25 -27 -28 -29 -30 -31
leaf_value=0.035808936969077283 0.023300373884762724 -0.016361091340841214 0.0010103341545594422 -0.0029325433860233696 0.051009466409017552 -0.0026907338448488196 0.033713844978500572 0.03079551345725717 0.0027281143688508182 -0.0086706422116860707 0.053285020930261044 -0.0047866358504430164 0.0086664599762684077 0.015843184302999348 -0.0089797649496902946 0.017019008004835651 0.0043300273766975648 0.00040015832703905487 -0.005629554532226186 0.00055755335039075907 -0.0094421559732675402 -0.003241626236089196 0.025696294838765999 0.0056202715983176676 0.01538731457366627 0.039752782772882751 0.052889229603943336 -0.0089782030955596597 -0.010202775557016725 -0.0046583994938116163
leaf_weight=5293 140757 31898 17757 251514 35602 26465 11810 23765 58960 550015 26051 8717 145024 20833 68131 20638 38571 240317 3778 89209 19519 681442 34518 450112 49278 30559 15254 131959 403350 421198
leaf_count=5293 140757 31898 17757 251514 35602 26465 11810 23765 58960 550015 26051 8717 145024 20833 68131 20638 38571 240317 3778 89209 19519 681442 34518 450112 49278 30559 15254 131959 403350 421198
internal_value=0 -0.00212917 0.00691613 0.00418553 0.0154111 0.0250289 -0.00283062 -0.00287644 0.0172271 -0.00362908 0.0259752 0.0387253 0.00581168 0.0380279 0.00302616 -0.00235993 0.00204994 0.00542493 -0.00372167 -0.00059056 0.0141798 -0.0015801 0.00757093 0.00255431 0.0180738 0.0247137 0.0412727 -0.00725098 -0.00677503 -0.00364585
internal_weight=0 3.09843e+06 953868 754151 126608 82900 43708 2.97182e+06 199717 2.7349e+06 52525 34768 236920 56435 213155 2.18488e+06 515496 378244 1.66939e+06 824201 137927 805169 123727 701626 118408 79837 19032 137252 845186 441836
internal_count=4052294 3098426 953868 754151 126608 82900 43708 2971818 199717 2734898 52525 34768 236920 56435 213155 2184883 515496 378244 1669387 824201 137927 805169 123727 701626 118408 79837 19032 137252 845186 441836
is_linear=0
shrinkage=0.03


Tree=2
num_leaves=31
num_cat=0
split_feature=114 50 95 16 24 24 43 18 36 3 112 24 16 24 24 60 71 40 16 76 103 53 24 50 49 31 15 26 48 35
split_gain=61230.9 59925.3 41292.1 38634.5 25593.1 23891.7 23163.1 20736.5 18926 24774.8 16864.6 29426.2 38288.9 20226.8 24835.4 35021.9 19760.3 15995.5 15912.7 15217.8 14982.1 14559.4 14330.8 14201.9 13773 13623.6 12222.5 12080.9 11961.6 15546.5
threshold=-0.69804546658239597 -0.64894111160683321 1.6361761899252116 -1.5362222930034346 -2.448638255875212 -1.0299674536179431 1.3638859601655928 2.9646964205779045 -1.0808164240225768 -0.88010082037391513 0.050456658944773851 -1.5389952578109816 -0.11671466218297703 0.99634938123245786 0.70036126449603497 0.70490327933897512 2.0960679655662662 0.80202097335463807 2.480030162253422 0.38490389713621426 -2.577298951442764 0.65691345633439058 -1.0299674536179431 -1.7811500159126934 -0.77182354229108141 -0.076599706361321337 0.7179476467280651 -0.56375099925203409 0.70365465778395719 -0.24000415324380467
decision_type=8 2 10 2 2 2 2 2 2 2 10 2 2 2 2 2 8 2 2 2 2 2 2 2 2 2 2 2 2 2
left_child=1 -1 7 27 6 17 -4 8 9 20 11 12 -10 14 18 23 22 -6 -12 -11 -2 -9 -13 -16 -17 -24 -25 -3 -5 -30
right_child=2 3 4 28 5 -7 -8 21 10 19 13 16 -14 -15 15 24 -18 -19 -20 -21 -22 -23 25 26 -26 -27 -28 -29 29 -31
leaf_value=0.021382441824055909 0.035524571776092542 0.0049326210963189752 -0.017092332252566338 -0.002898281045477681 0.049820389511330811 -0.00013807850724025073 0.03450348554859093 0.0016284481450247559 -0.001807985376069624 0.010060580073904814 -0.0024706427225234641 -0.017574842963958972 0.042457850835353451 -0.009335962257843583 0.056898025322609687 0.037169983202113066 0.015910112751013655 0.013753783857732613 0.047081458967498144 -0.012963144750350453 -0.0096676033402477799 0.034878614350112191 -0.0028997313237534936 -0.0057070614977021723 0.012647483861954256 -0.0096814600513114423 0.011749185756749348 0.048278967470928177 0.0014460616690980849 0.018861742219605935
leaf_weight=205878 6947 7982 28960 323899 34005 20790 10733 25334 61458 271064 825631 123547 24636 233338 3987 40400 32226 16407 5874 28559 132971 22272 464253 118306 42088 626176 51952 21043 179489 62089
leaf_count=205878 6947 7982 28960 323899 34005 20790 10733 25334 61458 271064 825631 123547 24636 233338 3987 40400 32226 16407 5874 28559 132971 22272 464253 118306 42088 626176 51952 21043 179489 62089
internal_value=0 0.00743323 -0.00182951 0.00260256 0.0161619 0.0269225 -0.00314068 -0.0024647 -0.00276709 0.00299886 -0.00372207 -0.00610392 0.0108588 -0.00132089 0.000397689 0.00855386 -0.0072758 0.0380823 -0.00212058 0.00786603 -0.00742374 0.0171843 -0.00789129 0.000930143 0.0246579 -0.00679412 -0.000380495 0.0363587 0.000869903 0.00592216
internal_weight=0 800380 3.25191e+06 594502 110895 71202 39693 3.14102e+06 3.09341e+06 439541 2.65387e+06 1.3323e+06 86094 1.32158e+06 1.08824e+06 256733 1.2462e+06 50412 831505 299623 139918 47606 1.21398e+06 174245 82488 1.09043e+06 170258 29025 565477 241578
internal_count=4052294 800380 3251914 594502 110895 71202 39693 3141019 3093413 439541 2653872 1332296 86094 1321576 1088238 256733 1246202 50412 831505 299623 139918 47606 1213976 174245 82488 1090429 170258 29025 565477 241578
is_linear=0
shrinkage=0.03


end of trees

feature_importances:
win288_median_Etmp=8
win288_mean_Etmp=6
win288_mean_w_angle_cos=6
win288_amax_Wspd=5
win288_amax_Prtv=5
win288_var_Wspd=4
win288_var_Patv=4
win288_var_w_angle_cos=4
Patv__index_mass_quantile__q_04=4
win288_amax_Etmp=3
win288_amax_Itmp=3
win288_amax_Patv=3
Patv__autocorrelation__lag_9=3
Etmp=2
win288_mean_Wspd=2
win288_mean_Patv=2
win288_var_max_patv=2
win288_mean_w_angle_sin=2
Patv__change_quantiles__f_agg_mean__isabs_True__qh_10__ql_04=2
Patv__fft_coefficient__attr_abs__coeff_11=2
Patv__autocorrelation__lag_1=2
Patv__cid_ce__normalize_False=2
Itmp=1
win288_median_Wspd=1
win288_median_Itmp=1
win288_median_Patv=1
win288_mean_max_patv=1
win288_amin_w_angle_sin=1
win288_var_w_angle_sin=1
win288_median_w_angle_sin=1
win288_median_w_angle_cos=1
Patv__fourier_entropy__bins_3=1
Patv__fft_coefficient__attr_abs__coeff_1=1
Patv__fft_aggregated__aggtype_centroid=1
Patv__fft_aggregated__aggtype_skew=1
Patv__partial_autocorrelation__lag_1=1

parameters:
[boosting: gbdt]
[objective: regression]
[metric: rmse]
[tree_learner: serial]
[device_type: cpu]
[data: ]
[valid: ]
[num_iterations: 500]
[learning_rate: 0.03]
[num_leaves: 31]
[num_threads: -1]
[deterministic: 0]
[force_col_wise: 0]
[force_row_wise: 0]
[histogram_pool_size: -1]
[max_depth: -1]
[min_data_in_leaf: 20]
[min_sum_hessian_in_leaf: 0.001]
[bagging_fraction: 0.8]
[pos_bagging_fraction: 1]
[neg_bagging_fraction: 1]
[bagging_freq: 0]
[bagging_seed: 8724]
[feature_fraction: 0.8]
[feature_fraction_bynode: 1]
[feature_fraction_seed: 25640]
[extra_trees: 0]
[extra_seed: 937]
[early_stopping_round: 10]
[first_metric_only: 0]
[max_delta_step: 0]
[lambda_l1: 0.1]
[lambda_l2: 0.1]
[linear_lambda: 0]
[min_gain_to_split: 0]
[drop_rate: 0.1]
[max_drop: 50]
[skip_drop: 0.5]
[xgboost_dart_mode: 0]
[uniform_drop: 0]
[drop_seed: 32461]
[top_rate: 0.2]
[other_rate: 0.1]
[min_data_per_group: 100]
[max_cat_threshold: 32]
[cat_l2: 10]
[cat_smooth: 10]
[max_cat_to_onehot: 4]
[top_k: 20]
[monotone_constraints: ]
[monotone_constraints_method: basic]
[monotone_penalty: 0]
[feature_contri: ]
[forcedsplits_filename: ]
[refit_decay_rate: 0.9]
[cegb_tradeoff: 1]
[cegb_penalty_split: 0]
[cegb_penalty_feature_lazy: ]
[cegb_penalty_feature_coupled: ]
[path_smooth: 0]
[interaction_constraints: ]
[verbosity: -1]
[saved_feature_importance_type: 0]
[linear_tree: 0]
[max_bin: 255]
[max_bin_by_feature: ]
[min_data_in_bin: 3]
[bin_construct_sample_cnt: 200000]
[data_random_seed: 6569]
[is_enable_sparse: 1]
[enable_bundle: 1]
[use_missing: 1]
[zero_as_missing: 0]
[feature_pre_filter: 1]
[pre_partition: 0]
[two_round: 0]
[header: 0]
[label_column: ]
[weight_column: ]
[group_column: ]
[ignore_column: ]
[categorical_feature: 0]
[forcedbins_filename: ]
[precise_float_parser: 0]
[objective_seed: 26932]
[num_class: 1]
[is_unbalance: 0]
[scale_pos_weight: 1]
[sigmoid: 1]
[boost_from_average: 1]
[reg_sqrt: 0]
[alpha: 0.9]
[fair_c: 1]
[poisson_max_delta_step: 0.7]
[tweedie_variance_power: 1.5]
[lambdarank_truncation_level: 30]
[lambdarank_norm: 1]
[label_gain: ]
[eval_at: ]
[multi_error_top_k: 1]
[auc_mu_weights: ]
[num_machines: 1]
[local_listen_port: 12400]
[time_out: 120]
[machine_list_filename: ]
[machines: ]
[gpu_platform_id: -1]
[gpu_device_id: -1]
[gpu_use_dp: 0]
[num_gpu: 1]

end of parameters

pandas_categorical:[]
