tree
version=v3
num_class=1
num_tree_per_iteration=1
label_index=0
max_feature_idx=114
objective=regression
feature_names=TurbID Wspd Wdir Etmp Itmp Ndir Prtv Patv max_patv patv_residual diff_angle w_angle w_angle_adj w_angle_sin w_angle_cos win288_mean_Wspd win288_amax_Wspd win288_amin_Wspd win288_var_Wspd win288_median_Wspd win288_mean_Etmp win288_amax_Etmp win288_amin_Etmp win288_var_Etmp win288_median_Etmp win288_mean_Itmp win288_amax_Itmp win288_amin_Itmp win288_var_Itmp win288_median_Itmp win288_mean_Prtv win288_amax_Prtv win288_amin_Prtv win288_var_Prtv win288_median_Prtv win288_mean_Patv win288_amax_Patv win288_amin_Patv win288_var_Patv win288_median_Patv win288_mean_max_patv win288_amax_max_patv win288_amin_max_patv win288_var_max_patv win288_median_max_patv win288_mean_w_angle_sin win288_amax_w_angle_sin win288_amin_w_angle_sin win288_var_w_angle_sin win288_median_w_angle_sin win288_mean_w_angle_cos win288_amax_w_angle_cos win288_amin_w_angle_cos win288_var_w_angle_cos win288_median_w_angle_cos seasonal_Patv Patv__change_quantiles__f_agg_mean__isabs_True__qh_10__ql_06 Patv__change_quantiles__f_agg_var__isabs_True__qh_10__ql_06 Patv__change_quantiles__f_agg_var__isabs_False__qh_10__ql_06 Patv__change_quantiles__f_agg_var__isabs_True__qh_10__ql_04 Patv__change_quantiles__f_agg_mean__isabs_True__qh_10__ql_04 Patv__change_quantiles__f_agg_var__isabs_False__qh_10__ql_04 Patv__change_quantiles__f_agg_var__isabs_True__qh_10__ql_02 Patv__change_quantiles__f_agg_mean__isabs_True__qh_10__ql_02 Patv__change_quantiles__f_agg_var__isabs_False__qh_10__ql_02 Patv__change_quantiles__f_agg_var__isabs_False__qh_10__ql_08 Patv__change_quantiles__f_agg_mean__isabs_True__qh_10__ql_08 Patv__change_quantiles__f_agg_var__isabs_True__qh_10__ql_08 Patv__change_quantiles__f_agg_var__isabs_True__qh_10__ql_00 Patv__change_quantiles__f_agg_var__isabs_False__qh_10__ql_00 Patv__fourier_entropy__bins_5 Patv__fourier_entropy__bins_3 Patv__fft_coefficient__attr_abs__coeff_93 Patv__fft_coefficient__attr_abs__coeff_94 Patv__fft_coefficient__attr_abs__coeff_96 Patv__fft_coefficient__attr_abs__coeff_11 Patv__fft_coefficient__attr_abs__coeff_1 Patv__fft_coefficient__attr_abs__coeff_22 Patv__fft_coefficient__attr_abs__coeff_16 Patv__fft_coefficient__attr_abs__coeff_7 Patv__fft_coefficient__attr_abs__coeff_90 Patv__fft_coefficient__attr_abs__coeff_63 Patv__fft_coefficient__attr_abs__coeff_61 Patv__fft_coefficient__attr_abs__coeff_58 Patv__fft_coefficient__attr_abs__coeff_45 Patv__fft_coefficient__attr_abs__coeff_98 Patv__fft_coefficient__attr_abs__coeff_89 Patv__fft_coefficient__attr_abs__coeff_79 Patv__fft_coefficient__attr_abs__coeff_97 Patv__fft_coefficient__attr_abs__coeff_85 Patv__fft_coefficient__attr_abs__coeff_33 Patv__autocorrelation__lag_2 Patv__autocorrelation__lag_1 Patv__autocorrelation__lag_3 Patv__autocorrelation__lag_8 Patv__autocorrelation__lag_9 Patv__autocorrelation__lag_4 Patv__autocorrelation__lag_5 Patv__autocorrelation__lag_6 Patv__autocorrelation__lag_7 Patv__number_crossing_m__m_1 Patv__number_crossing_m__m_0 Patv__last_location_of_maximum Patv__cid_ce__normalize_False Patv__cid_ce__normalize_True Patv__longest_strike_above_mean Patv__fft_aggregated__aggtype_centroid Patv__fft_aggregated__aggtype_kurtosis Patv__fft_aggregated__aggtype_variance Patv__fft_aggregated__aggtype_skew Patv__ar_coefficient__coeff_1__k_10 Patv__linear_trend__attr_pvalue Patv__index_mass_quantile__q_04 Patv__partial_autocorrelation__lag_2 Patv__partial_autocorrelation__lag_1
feature_infos=-1:134:133:132:131:130:129:66:57:23:86:4:43:76:2:123:29:122:70:64:38:60:117:6:98:50:79:99:7:65:19:36:25:106:115:100:114:5:17:119:10:118:126:39:47:26:44:107:20:112:95:13:89:73:74:51:11:54:59:88:14:58:22:40:94:101:97:69:84:120:1:15:31:45:81:93:24:28:90:104:127:32:56:85:27:46:80:121:18:82:109:30:49:75:78:8:77:113:16:108:35:42:103:96:128:12:34:41:21:61:110:48:37:63:116:3:33:52:125:53:91:111:68:92:67:9:83:124:71:62:105:87:102:55 [-1.5688249894841568:5.5171326277046706] [-6.0688060980352159:33.469420437812829] [-29.634596403404867:23.779493701184439] [-28.20516912490049:4.8317162040072361] [-5.0877647858241577:3.1955472361452242] [-0.40320844917751758:14.269338997025271] [-0.99337512471393197:3.7830625458327702] [-1.381471773728149:2.2710717472987749] [-6.3142422500732787:9.9637188319475687] [-0.99998346601853361:0.99998346601853361] [-5.8408287706871862:7.3345535368426749] [-5.8408287706871862:7.3345535368426749] [-1.8819655553052004:1.4468028491724474] [-1.8122001175131539:1.3152184988979376] [-2.4893584826409692:4.6141018518528378] [-3.9174417788266478:3.6363709190295301] [-0.59968876481012345:11.024172311794384] [-1.7635991690730812:6.6961250070560805] [-2.2823675136092532:4.4402087490131361] [-5.4165112884452586:8.4567823176385648] [-4.1811358412993354:9.2705493075506435] [-9.4160139174432889:2.9726508700579362] [-1.623103913820108:11.792053580502705] [-6.0867629252400732:9.5347501185418757] [-11.1162011877159:2.715745815464452] [-4.7499289303726702:9.8302513133391543] [-5.8564035772570859:0.74267765039140599] [-0.29900658266413738:12.209372852317712] [-13.524740553547645:2.60259178388519] [-0.83902405416289128:10.725799899135406] [-1.6780991861046777:5.6736616552033761] [0:0] [-0.91186935406950265:9.1573932616633993] [-0.2769007098505416:19.12855854388928] [-1.7488610145456909:3.9700968826705889] [-5.305363548918276:1.1595549378238037] [-0.22012823883537971:21.121803303862787] [-1.7758425748351241:4.7772521504705319] [-1.2686015132909645:4.7226044407463439] [-2.0330516982878879:3.6179929535132129] [-9.8181903010440461:0.59221888250409027] [-0.37139650190865608:19.631557362150826] [-2.2582060960203947:3.65998628490448] [-1.6766695913517131:3.3036967294573198] [-3.0522232752202827:2.5730281701704789] [-15.186426772065298:0.35661486350439953] [-0.53387840763506744:7.0545014074003163] [-1.9019578199589533:3.478540774833633] [-2.6254986016202149:1.9607007803344043] [-2.9136268568437851:2.4384115370951118] [-21.197631226358936:0.37519976190800391] [-0.51252295708076401:5.571956937345381] [-2.0091796779650961:3.1495332888245811] [-2.3593361594382531:1.7396913580432161] [-3.0606314893323194:4.2915720893831217] [-3.1587216442606212:4.4555401313081822] [-1.9297355409438768:7.5653186934969847] [-1.9284575156717689:6.3388050345005116] [-2.2474003684347266:6.0781947216022765] [-3.1359764469144711:3.9286814930306089] [-2.132015312870152:6.1176007555669205] [-2.3068602827933598:5.0760867425258169] [-2.9486558118897577:4.0726468550577133] [-2.1525334955795321:5.3376482869468003] [-1.7057769780522769:8.6226783462685201] [-2.9546655737030152:5.5926261129673813] [-1.6886977411302235:7.541414400877497] [-2.0564567127216637:6.2891348974742129] [-1.9989013320589291:6.3739471971703079] [-2.0418648990688459:10.930046251733772] [-1.7072756716786666:9.2358445825569557] [-1.8372540171578609:6.46917122614453] [-1.8287556276136487:5.9379409003719283] [-1.7739668799718269:6.6307800343727479] [-1.767790501289153:5.3082967299023798] [-1.6705693505688799:3.4706849749056441] [-1.8154644084370373:5.724426525145871] [-1.7776594385122455:5.8474921417032792] [-1.8602174813683807:5.8050791937305748] [-1.8633063365421929:6.225373862863524] [-1.8619524780648411:6.6306677864637029] [-1.8654011442959328:6.0707984040349539] [-1.9656291866920961:6.2138620469627046] [-1.8266334783795519:5.9964959342651438] [-1.8814079528197321:6.576804285876432] [-1.875074300163716:5.9570347305117117] [-1.9035600309688965:6.5823822328385324] [-1.8500125776229708:6.4615756395716462] [-1.8788209180183884:6.996454371935501] [-1.807550853093344:5.7674401844152792] [-8.1445910402902406:1.7855055701114633] [-11.014346070089497:1.5874398009378097] [-7.3472284504832661:1.9284799355548901] [-5.9739960705426682:2.4029642201547987] [-5.4108433748535196:2.4185903119445618] [-7.2785779562138027:2.0319773546859698] [-7.2758931302497798:2.1222462790809589] [-6.6647576366283827:2.2386435447992281] [-6.1856272888250361:2.3245072378877407] [-2.0649821741149288:4.7790707298506154] [-2.0423165497157858:4.8231830778395617] [-1.7199330907248471:1.7159806740994474] [-3.4336196937346091:4.4384662656761513] [-2.9088442115311839:6.786338149073841] [-2.012438068981361:7.6832098989228212] [-3.1965126267581891:4.690896161831823] [-3.0218757177954063:8.3572439721494032] [-3.837217908482343:5.1152057958316579] [-3.665966438430809:4.6598320563773044] [-4.6915887942567434:3.7425862934364251] [-0.44928829186803643:5.4437837465070524] [-2.2372074124088552:3.2530147122052324] [-4.7069777780994944:4.3814736324117964] [-11.01434607008949:1.5874398009378099]
tree_sizes=3229 3208

Tree=0
num_leaves=31
num_cat=0
split_feature=114 50 95 36 50 112 19 18 36 105 112 29 15 21 15 39 29 45 29 21 91 30 112 26 26 35 45 45 21 63
split_gain=68643.3 65402 46265.8 33152.1 25692.5 22201.9 42470.3 21872.9 21123 21150.8 17738.8 24149.4 25680.6 22121.5 20155.3 17247.5 18365.4 20973.9 29913.9 15806.7 15592.8 14023.1 13212.4 12664.3 11551.7 11468.9 16068.2 15364.6 11248.5 11103.4
threshold=-0.74323672131331209 -0.64894111160683321 1.6361761899252116 -2.4592690256056451 -1.4693759038827945 -1.1065687616421747 0.68901069483264543 2.9646964205779045 -1.0808164240225768 -0.34339683530870135 0.050456658944773851 -1.4948961056468899 0.28388195043286696 0.9612311745962413 1.974249871033176 2.3663904405389129 -1.2871839994267364 -0.70244021010806323 0.75963551180215416 -0.98878694204036754 0.17836905611868037 2.5805780145205852 0.99793031078872052 0.048700550203950303 0.26049341555374078 -1.3031716724211371 0.60420691863499998 0.22299487636956439 0.22355488394823828 -0.74472322306091121
decision_type=8 2 10 2 2 10 2 2 2 2 8 2 2 2 2 2 2 2 2 2 10 2 10 2 2 2 2 2 2 2
left_child=1 -1 7 28 -4 -6 24 8 9 19 11 12 -10 14 15 16 -12 18 29 -2 -13 -17 -20 -9 -7 27 -27 -21 -3 -18
right_child=2 3 4 -5 5 6 -8 23 10 -11 13 20 -14 -15 -16 21 17 -19 22 25 -22 -23 -24 -25 -26 26 -28 -29 -30 -31
leaf_value=0.022859753414823061 -0.0061634644689937575 0.051550370604270299 0.060939695998618641 0.0014077722177501331 -0.014466431673354031 0.047143803617630459 -0.00151955763377162 0.033092048151958334 0.00059121990215921629 -0.0030131026402937999 -0.011943918499629997 -0.0031078407153621733 0.041533871494031878 -0.0098026958122261407 -0.010344348997016193 0.04131266892284801 -0.0082000043337092671 -0.00023166059538670835 0.035924146077486424 -0.015690803553432171 -0.0099461177306411873 -0.0056089565576701583 -0.0065500592164257866 0.0022749648541274016 -0.01894940123286553 0.023570891257176825 -0.0010156872133239661 0.030005040578893319 0.0044866760610526571 0.00902247554820668
leaf_weight=199428 42958 16364 10881 544818 21684 35287 40491 23787 61598 234503 86467 489063 17764 233602 138413 17537 46621 628965 46420 22186 776739 8516 7682 24224 2552 105560 30933 9440 6342 121469
leaf_count=199428 42958 16364 10881 544818 21684 35287 40491 23787 61598 234503 86467 489063 17764 233602 138413 17537 46621 628965 46420 22186 776739 8516 7682 24224 2552 105560 30933 9440 6342 121469
internal_value=-2.94917e-10 0.0080812 -0.00188653 0.00288801 0.017161 0.012398 0.0198349 -0.00255193 -0.00286053 0.00318798 -0.00386584 -0.00629755 0.0097557 -0.00141688 0.0003606 0.00189816 0.00122914 0.00256736 0.0104907 0.0100773 -0.00730404 0.0259752 0.0298931 0.0175434 0.0426861 0.0142272 0.0179989 -0.00205097 0.0384052 0.00424567
internal_weight=0 766952 3.28534e+06 567524 110895 100014 78330 3.17445e+06 3.12644e+06 445580 2.68086e+06 1.34516e+06 79362 1.33569e+06 1.10209e+06 963677 937624 851157 222192 211077 1.2658e+06 26053 54102 48011 37839 168119 136493 31626 22706 168090
internal_count=4052294 766952 3285342 567524 110895 100014 78330 3174447 3126436 445580 2680856 1345164 79362 1335692 1102090 963677 937624 851157 222192 211077 1265802 26053 54102 48011 37839 168119 136493 31626 22706 168090
is_linear=0
shrinkage=1


Tree=1
num_leaves=31
num_cat=0
split_feature=106 95 53 24 24 18 38 16 109 24 45 35 95 38 16 24 45 26 31 36 75 26 24 45 24 26 18 24 70 101
split_gain=65924.4 45045.5 29277.1 24149.9 31016.8 24130.1 22064.1 20012.8 19318.8 16754.3 16689 16472.1 16289.8 15173.7 17834.1 35243.3 14382.9 14253.1 18237.2 13820.2 17803.1 12081.5 11767.6 10853 12927.1 12604.4 12738.2 11349.6 10650.2 11849
threshold=0.67303013790378874 1.602707494680889 0.023735928022100155 -2.448638255875212 -1.0299674536179431 1.6110496694391574 1.6933815600675801 -1.6420099168793503 0.90985114217156815 -1.2910319345598944 0.51962192877573254 0.94652668795331507 0.30376742545251756 -0.80342737023275423 0.12148328107193052 -1.6782622581152327 -0.16263058538003641 -0.53705475053957086 -1.3994924087974869 0.59792830145330378 0.90296283897515195 -0.56375099925203409 -2.518513855679664 -1.3751376755297484 0.55885886304158483 -0.027254915910906646 -0.3808046139108468 -0.89510048871361658 0.21513507255838032 0.23919106044701643
decision_type=10 10 2 2 2 2 2 2 8 2 2 2 8 2 2 2 2 2 2 2 2 2 2 2 2 2 2 2 10 2
left_child=1 6 -2 5 11 -3 8 16 13 -8 -11 -5 23 17 -15 22 -4 -1 -19 20 -17 -18 -16 24 -9 26 27 -25 -27 -30
right_child=2 3 7 4 -6 -7 9 12 -10 10 -12 -13 -14 14 15 19 21 18 -20 -21 -22 -23 -24 25 -26 28 -28 -29 29 -31
leaf_value=-0.003001035037283968 -0.00085148935420319334 -0.016640750062393388 -0.011834676099562135 0.050172412838479022 -0.0014057678666148717 0.033775716793425573 0.030669663836532909 0.0076765065060363886 -0.008655885994181569 0.0090466217247395994 -0.0089254034198585561 0.016670610370392084 -0.0051946324355723311 -0.0068167498282891269 -0.0069474255551489105 0.00068954673148571139 0.013074256318827356 0.021701608794134485 0.002775728839455067 -0.0032017898762599574 0.026168693163317037 0.054303363245973957 0.053939464893280907 0.0028143386169349424 0.039796746950376292 0.011756417671099577 -0.0017049608364443358 0.025564340291753258 0.012915312915425723 -0.0037040667472880802
leaf_weight=250305 300610 31262 5514 35042 27347 11757 22288 21001 550015 146505 68127 21200 63359 845186 3593 89828 9449 58910 206281 682807 34032 19804 13941 24683 24355 178618 27124 98479 55863 125009
leaf_count=250305 300610 31262 5514 35042 27347 11757 22288 21001 550015 146505 68127 21200 63359 845186 3593 89828 9449 58910 206281 682807 34032 19804 13941 24683 24355 178618 27124 98479 55863 125009
internal_value=0 -0.00212309 0.00689637 0.0154019 0.0248013 -0.00286192 -0.0028697 0.0104617 -0.00363052 0.00591289 0.00334205 0.0375443 0.00921675 -0.00236545 -0.00375473 -0.000614741 0.0326087 0.00213358 0.00697998 -0.00152936 0.00769028 0.0409862 0.0414626 0.0108616 0.0249244 0.00961036 0.0169062 0.021005 0.00656028 0.00142888
internal_weight=0 3.09843e+06 953868 126608 83589 43019 2.97182e+06 653258 2.7349e+06 236920 214632 56242 618491 2.18488e+06 1.66939e+06 824201 34767 515496 265191 806667 123860 29253 17534 555132 45356 509776 150286 123162 359490 180872
internal_count=4052294 3098426 953868 126608 83589 43019 2971818 653258 2734898 236920 214632 56242 618491 2184883 1669387 824201 34767 515496 265191 806667 123860 29253 17534 555132 45356 509776 150286 123162 359490 180872
is_linear=0
shrinkage=0.03


end of trees

feature_importances:
win288_median_Etmp=7
win288_mean_w_angle_sin=6
win288_amax_Itmp=5
win288_var_Wspd=3
win288_amax_Etmp=3
win288_median_Itmp=3
win288_amax_Patv=3
Patv__autocorrelation__lag_9=3
Patv__index_mass_quantile__q_04=3
win288_mean_Wspd=2
win288_amax_Wspd=2
win288_mean_Patv=2
win288_var_Patv=2
win288_mean_w_angle_cos=2
win288_median_Wspd=1
win288_mean_Prtv=1
win288_amax_Prtv=1
win288_median_Patv=1
win288_var_w_angle_cos=1
Patv__change_quantiles__f_agg_mean__isabs_True__qh_10__ql_02=1
Patv__fourier_entropy__bins_5=1
Patv__fft_coefficient__attr_abs__coeff_11=1
Patv__autocorrelation__lag_2=1
Patv__number_crossing_m__m_0=1
Patv__longest_strike_above_mean=1
Patv__fft_aggregated__aggtype_centroid=1
Patv__fft_aggregated__aggtype_skew=1
Patv__partial_autocorrelation__lag_1=1

parameters:
[boosting: gbdt]
[objective: regression]
[metric: rmse]
[tree_learner: serial]
[device_type: cpu]
[data: ]
[valid: ]
[num_iterations: 500]
[learning_rate: 0.03]
[num_leaves: 31]
[num_threads: -1]
[deterministic: 0]
[force_col_wise: 0]
[force_row_wise: 0]
[histogram_pool_size: -1]
[max_depth: -1]
[min_data_in_leaf: 20]
[min_sum_hessian_in_leaf: 0.001]
[bagging_fraction: 0.6]
[pos_bagging_fraction: 1]
[neg_bagging_fraction: 1]
[bagging_freq: 0]
[bagging_seed: 8724]
[feature_fraction: 0.6]
[feature_fraction_bynode: 1]
[feature_fraction_seed: 25640]
[extra_trees: 0]
[extra_seed: 937]
[early_stopping_round: 10]
[first_metric_only: 0]
[max_delta_step: 0]
[lambda_l1: 0.1]
[lambda_l2: 0.1]
[linear_lambda: 0]
[min_gain_to_split: 0]
[drop_rate: 0.1]
[max_drop: 50]
[skip_drop: 0.5]
[xgboost_dart_mode: 0]
[uniform_drop: 0]
[drop_seed: 32461]
[top_rate: 0.2]
[other_rate: 0.1]
[min_data_per_group: 100]
[max_cat_threshold: 32]
[cat_l2: 10]
[cat_smooth: 10]
[max_cat_to_onehot: 4]
[top_k: 20]
[monotone_constraints: ]
[monotone_constraints_method: basic]
[monotone_penalty: 0]
[feature_contri: ]
[forcedsplits_filename: ]
[refit_decay_rate: 0.9]
[cegb_tradeoff: 1]
[cegb_penalty_split: 0]
[cegb_penalty_feature_lazy: ]
[cegb_penalty_feature_coupled: ]
[path_smooth: 0]
[interaction_constraints: ]
[verbosity: -1]
[saved_feature_importance_type: 0]
[linear_tree: 0]
[max_bin: 255]
[max_bin_by_feature: ]
[min_data_in_bin: 3]
[bin_construct_sample_cnt: 200000]
[data_random_seed: 6569]
[is_enable_sparse: 1]
[enable_bundle: 1]
[use_missing: 1]
[zero_as_missing: 0]
[feature_pre_filter: 1]
[pre_partition: 0]
[two_round: 0]
[header: 0]
[label_column: ]
[weight_column: ]
[group_column: ]
[ignore_column: ]
[categorical_feature: 0]
[forcedbins_filename: ]
[precise_float_parser: 0]
[objective_seed: 26932]
[num_class: 1]
[is_unbalance: 0]
[scale_pos_weight: 1]
[sigmoid: 1]
[boost_from_average: 1]
[reg_sqrt: 0]
[alpha: 0.9]
[fair_c: 1]
[poisson_max_delta_step: 0.7]
[tweedie_variance_power: 1.5]
[lambdarank_truncation_level: 30]
[lambdarank_norm: 1]
[label_gain: ]
[eval_at: ]
[multi_error_top_k: 1]
[auc_mu_weights: ]
[num_machines: 1]
[local_listen_port: 12400]
[time_out: 120]
[machine_list_filename: ]
[machines: ]
[gpu_platform_id: -1]
[gpu_device_id: -1]
[gpu_use_dp: 0]
[num_gpu: 1]

end of parameters

pandas_categorical:[]
