tree
version=v3
num_class=1
num_tree_per_iteration=1
label_index=0
max_feature_idx=114
objective=regression
feature_names=TurbID Wspd Wdir Etmp Itmp Ndir Prtv Patv max_patv patv_residual diff_angle w_angle w_angle_adj w_angle_sin w_angle_cos win288_mean_Wspd win288_amax_Wspd win288_amin_Wspd win288_var_Wspd win288_median_Wspd win288_mean_Etmp win288_amax_Etmp win288_amin_Etmp win288_var_Etmp win288_median_Etmp win288_mean_Itmp win288_amax_Itmp win288_amin_Itmp win288_var_Itmp win288_median_Itmp win288_mean_Prtv win288_amax_Prtv win288_amin_Prtv win288_var_Prtv win288_median_Prtv win288_mean_Patv win288_amax_Patv win288_amin_Patv win288_var_Patv win288_median_Patv win288_mean_max_patv win288_amax_max_patv win288_amin_max_patv win288_var_max_patv win288_median_max_patv win288_mean_w_angle_sin win288_amax_w_angle_sin win288_amin_w_angle_sin win288_var_w_angle_sin win288_median_w_angle_sin win288_mean_w_angle_cos win288_amax_w_angle_cos win288_amin_w_angle_cos win288_var_w_angle_cos win288_median_w_angle_cos seasonal_Patv Patv__change_quantiles__f_agg_mean__isabs_True__qh_10__ql_06 Patv__change_quantiles__f_agg_var__isabs_True__qh_10__ql_06 Patv__change_quantiles__f_agg_var__isabs_False__qh_10__ql_06 Patv__change_quantiles__f_agg_var__isabs_True__qh_10__ql_04 Patv__change_quantiles__f_agg_mean__isabs_True__qh_10__ql_04 Patv__change_quantiles__f_agg_var__isabs_False__qh_10__ql_04 Patv__change_quantiles__f_agg_var__isabs_True__qh_10__ql_02 Patv__change_quantiles__f_agg_mean__isabs_True__qh_10__ql_02 Patv__change_quantiles__f_agg_var__isabs_False__qh_10__ql_02 Patv__change_quantiles__f_agg_var__isabs_False__qh_10__ql_08 Patv__change_quantiles__f_agg_mean__isabs_True__qh_10__ql_08 Patv__change_quantiles__f_agg_var__isabs_True__qh_10__ql_08 Patv__change_quantiles__f_agg_var__isabs_True__qh_10__ql_00 Patv__change_quantiles__f_agg_var__isabs_False__qh_10__ql_00 Patv__fourier_entropy__bins_5 Patv__fourier_entropy__bins_3 Patv__fft_coefficient__attr_abs__coeff_93 Patv__fft_coefficient__attr_abs__coeff_94 Patv__fft_coefficient__attr_abs__coeff_96 Patv__fft_coefficient__attr_abs__coeff_11 Patv__fft_coefficient__attr_abs__coeff_1 Patv__fft_coefficient__attr_abs__coeff_22 Patv__fft_coefficient__attr_abs__coeff_16 Patv__fft_coefficient__attr_abs__coeff_7 Patv__fft_coefficient__attr_abs__coeff_90 Patv__fft_coefficient__attr_abs__coeff_63 Patv__fft_coefficient__attr_abs__coeff_61 Patv__fft_coefficient__attr_abs__coeff_58 Patv__fft_coefficient__attr_abs__coeff_45 Patv__fft_coefficient__attr_abs__coeff_98 Patv__fft_coefficient__attr_abs__coeff_89 Patv__fft_coefficient__attr_abs__coeff_79 Patv__fft_coefficient__attr_abs__coeff_97 Patv__fft_coefficient__attr_abs__coeff_85 Patv__fft_coefficient__attr_abs__coeff_33 Patv__autocorrelation__lag_2 Patv__autocorrelation__lag_1 Patv__autocorrelation__lag_3 Patv__autocorrelation__lag_8 Patv__autocorrelation__lag_9 Patv__autocorrelation__lag_4 Patv__autocorrelation__lag_5 Patv__autocorrelation__lag_6 Patv__autocorrelation__lag_7 Patv__number_crossing_m__m_1 Patv__number_crossing_m__m_0 Patv__last_location_of_maximum Patv__cid_ce__normalize_False Patv__cid_ce__normalize_True Patv__longest_strike_above_mean Patv__fft_aggregated__aggtype_centroid Patv__fft_aggregated__aggtype_kurtosis Patv__fft_aggregated__aggtype_variance Patv__fft_aggregated__aggtype_skew Patv__ar_coefficient__coeff_1__k_10 Patv__linear_trend__attr_pvalue Patv__index_mass_quantile__q_04 Patv__partial_autocorrelation__lag_2 Patv__partial_autocorrelation__lag_1
feature_infos=-1:134:133:132:131:130:41:129:97:77:33:111:68:108:88:63:35:82:112:59:95:117:66:67:53:55:16:18:24:78:109:120:21:49:52:20:75:81:80:70:83:31:69:101:38:15:36:5:10:86:4:30:56:125:13:50:64:89:105:94:79:96:98:25:12:100:8:34:128:14:22:44:102:46:42:47:19:114:124:45:87:107:60:48:92:51:85:116:118:71:73:84:6:39:1:76:37:2:26:74:93:23:57:121:115:103:7:9:119:126:43:58:17:40:65:91:11:99:27:62:104:54:61:106:28:29:110:3:123:90:127:72:32:122 [-1.5688249894841568:5.5910899353035832] [-24.196002039929063:45.044422519542152] [-28.46070474179789:22.61416411374158] [-26.581780950196858:8.5560618759505846] [-5.0877647858241577:3.1722473608480244] [-0.40320844917751758:11.503239690216333] [-0.99337512471393197:3.7900845841884152] [-1.381471773728149:2.2710717472987749] [-6.5544327978170136:10.880723913726165] [-0.99998346601853361:0.99998346601853361] [-5.9866711860418871:8.2441240212598004] [-5.9866711860418871:8.2441240212598004] [-1.8821596728952357:1.4464141408526046] [-1.8121927236381112:1.3152141799608623] [-2.4893584826409692:4.6688693535369472] [-3.9174417788266478:3.6363709190295301] [-0.59968876481012345:10.537021322272786] [-1.7635991690730812:7.2075720377177142] [-2.2823675136092532:4.4402087490131361] [-5.4211212946442702:8.4557058028253511] [-4.3316672163337371:9.2705493075506435] [-9.4160139174432889:2.9726508700579362] [-1.6268618660113667:10.922071199738864] [-6.0867629252400732:9.2250089228968246] [-11.121811707588282:2.7156079246641469] [-4.7499289303726702:9.8302513133391543] [-5.8564035772570859:0.74267765039140599] [-0.2988275593524502:11.25696855557525] [-13.524740553547645:2.60259178388519] [-0.83902405416289128:10.712377887584337] [-1.6780991861046777:5.6736616552033761] [0:0] [-0.91186935406950265:9.1573932616633993] [-0.2769007098505416:18.300049421308408] [-1.7305664398331482:3.944446223398018] [-4.9241145476487693:1.1595549378238037] [-0.22012823883537971:28.298094140183132] [-1.7509445632406919:4.5028832099461962] [-1.2686015132909645:4.649279186512965] [-2.0330516982878879:3.6245374869220619] [-10.081962975310242:0.59221888250409027] [-0.37139650190865608:16.832545695439791] [-2.2460429888799598:3.6537210847345336] [-1.6766695913517131:3.3036967294573198] [-3.0503253535396118:2.5869946315896226] [-15.186426772065298:0.35661486350439953] [-0.53387840763506744:7.0545014074003163] [-1.904394989708007:3.4857071649793432] [-2.6302142620971942:1.9646153932339487] [-2.924278250618408:2.4429630839496945] [-26.266412668126321:0.37519976190800391] [-0.51252295708076401:5.571956937345381] [-2.0092070195330414:3.0779218453333881] [-2.3541642852500919:1.7396913580432161] [-3.150193740688441:4.4770565771295496] [-3.1575095257551467:4.4596565157004031] [-1.9295456506022104:7.5920070085018736] [-1.9285747881020063:6.218598302224887] [-2.2472451127194724:6.0781947216022765] [-3.1298699189204338:3.9537487439207855] [-2.1320616987392969:6.1139525550823803] [-2.307931368963648:5.2566594013589079] [-2.9486558118897577:4.0767158617134536] [-2.1544161571932783:5.3215206884389188] [-1.7058810495471386:7.7090356042032528] [-2.9631043097309293:5.1948299380291498] [-1.6897191430745993:7.7712833975481308] [-2.0560142611844809:6.2870228618951636] [-2.0006023548259839:6.3759116176911608] [-2.0418648990688459:11.648315914139292] [-1.7072756716786666:11.284217968659849] [-1.8647613349841865:7.1069046082779241] [-1.822573650639264:5.9330999020799364] [-1.7747028188681888:6.627331089401908] [-1.8170002949615112:5.5869770829973406] [-1.6801599831945004:3.4187956601632283] [-1.7686180712841062:5.8784879525471814] [-1.7828509647397519:5.8734661075258003] [-1.865647185647856:5.5765286358964463] [-1.81688970913812:6.5052906711578746] [-1.8123358349150924:6.7364299933310843] [-1.9039657594112287:6.0707984040349539] [-1.9682131164198509:6.3287101212458863] [-1.8419918430859945:5.9964959342651438] [-1.8814054356191292:7.0055972625679219] [-1.9095903482886227:6.0394079929694131] [-1.8192595929546369:6.8975570888414142] [-1.8921839364691115:6.5764889925416874] [-1.8770254474875636:6.9010420751123913] [-1.8152073784390861:5.6773637407637869] [-11.544995291361891:1.7884296910331596] [-15.676550638494836:1.6074328208801911] [-9.3299959872476936:1.9391484799064147] [-5.9557295341907572:2.4435771539898852] [-5.3933063902241134:2.4580204747742225] [-7.8515078892656076:2.0435630754551011] [-7.0407877027898751:2.1554880264585128] [-6.4370115564295913:2.2747934766532341] [-6.1824756979557343:2.36244857445541] [-2.0649821741149288:4.6080626388566062] [-2.0423165497157858:4.6835494815494778] [-1.7199330907248471:1.7159806740994474] [-3.431543300882685:4.4393871561613709] [-2.9088442115311839:6.8178305082139072] [-2.012438068981361:7.42419045746293] [-3.3209305256559838:6.8701329860421216] [-3.0330150326763858:36.574065172079898] [-4.1110750261314655:5.0032058332253291] [-4.2344335785012532:5.0455382218141072] [-4.3905593318875837:3.6331685952470512] [-0.44928829186803643:5.4201095238235135] [-2.3082254788041001:3.1721681809750808] [-4.0098000287154223:4.3695116502559799] [-15.676550638494836:1.6074328208801965]
tree_sizes=3221 3257 3227 3214

Tree=0
num_leaves=31
num_cat=0
split_feature=106 95 50 16 91 50 38 112 44 38 3 31 50 3 112 21 15 15 16 3 3 95 36 15 25 21 31 78 103 47
split_gain=69725.7 48123.9 36542.6 33937.9 29950.5 26076.1 23283.5 22430.8 40947.6 19143.7 21849.7 22828.2 18668.7 23447.5 17491.6 22006.8 14925.5 14774.4 26050 19033.9 25309.5 13739.9 13270.5 12658.7 12634.2 12628.2 12560.5 12466.6 11050.3 10747
threshold=0.66144726802282283 1.6311991212368435 -0.65928488638603855 -1.5337067058498848 -0.61004708765701166 -1.470922433676354 1.6950346135820702 -1.1133764626785199 0.77390345414003647 -0.80018646187383113 -0.87077993790477126 -1.387144021957438 0.22315748016143683 -1.7453409005019467 0.038295646802581511 0.96224496041544205 1.098174628536406 1.9230335743421862 0.13532539328906681 -1.7453409005019467 -0.010789416313485898 -0.68554189637921603 0.56892654241597773 -1.4566528391671614 0.42087774631713687 -2.6841902767170556 1.1892760898458385 0.072850686893486269 -2.5448595427082963 1.1755365623516008
decision_type=10 10 2 2 10 2 2 10 2 2 2 2 2 2 8 2 2 2 2 2 2 10 2 2 2 2 2 2 2 2
left_child=1 6 4 21 -2 -3 9 -7 24 10 28 27 16 -14 -11 17 -8 18 29 25 26 23 -22 -4 -9 -20 -21 -12 -1 -16
right_child=2 5 3 -5 -6 7 12 8 -10 14 11 -13 13 -15 15 -17 -18 -19 19 20 22 -23 -24 -25 -26 -27 -28 -29 -30 -31
leaf_value=0.03184715871822321 0.022398999227176544 0.060928240845351478 -0.0063317300264101465 0.00155658774322118 0.00058107733779897222 -0.014689776088162377 0.0078442647225672648 0.045546584719076279 -0.0018028470336079472 -0.0077285052183582647 0.0094093821894069979 -0.00028155034679126534 0.034605064705428783 -0.0097767180426896385 -0.0063902588109139751 -0.011992478429336331 0.031443320563915432 -0.0099412466371131217 -0.015641338927244675 0.0024164585487947438 0.030549621493747684 0.010823403253763983 0.0085772537201718874 0.053353725037219912 -0.021903128533961504 0.048134466976860468 -0.015787940519977985 0.029826308940869312 -0.009660936656657489 0.0074922925171044524
leaf_weight=5994 199266 10982 3797 644297 79107 21825 112301 37446 40169 1072703 104179 264345 12269 84493 338222 177776 30718 127238 3431 85791 28218 21217 200641 20273 2678 15055 56626 36293 156013 58931
leaf_count=5994 199266 10982 3797 644297 79107 21825 112301 37446 40169 1072703 104179 264345 12269 84493 338222 177776 30718 127238 3431 85791 28218 21217 200641 20273 2678 15055 56626 36293 156013 58931
internal_value=-2.94917e-10 -0.00220452 0.00702457 0.00332106 0.0161989 0.0170024 -0.00293563 0.0122784 0.0196089 -0.00372247 0.00118553 0.00491166 0.00602762 -0.00414924 -0.00500767 -0.00233474 0.012913 -0.000456589 0.001077 0.00658686 0.00510754 0.0284241 0.0112864 0.0439383 0.0410447 0.0362975 -0.00482172 0.0146844 -0.00812517 -0.00433031
internal_weight=0 3.08434e+06 967957 689584 278373 113100 2.97124e+06 102118 80293 2.73146e+06 566824 404817 239781 96762 2.16463e+06 1.09193e+06 143019 914153 786915 389762 371276 45287 228859 24070 40124 18486 142417 140472 162007 397153
internal_count=4052294 3084337 967957 689584 278373 113100 2971237 102118 80293 2731456 566824 404817 239781 96762 2164632 1091929 143019 914153 786915 389762 371276 45287 228859 24070 40124 18486 142417 140472 162007 397153
is_linear=0
shrinkage=1


Tree=1
num_leaves=31
num_cat=0
split_feature=106 94 50 41 92 50 112 44 18 36 3 112 24 15 20 20 49 70 63 112 24 24 76 13 102 23 15 39 24 51
split_gain=65604.9 43154.3 34382.9 30433.9 28543.5 26276.4 21896.9 37573.8 20734.4 14478.2 24575.1 15939.5 24290.7 26718.9 21130.3 30809.8 40737.5 20331.4 19437.3 16331.1 13342 12926.5 12740.3 12460.4 11910 11366.2 11221.5 23053.7 14045.4 18082.1
threshold=0.66144726802282283 1.5686901058827543 -0.65928488638603855 -3.3544130000319838 -0.7474578305457994 -1.4435103115227714 -1.1015942851916254 0.67492566681737542 2.9346465636857175 -1.0780642389088415 -0.87077993790477126 0.038295646802581511 -1.5234165614228699 0.39431761601950266 1.0029533065069891 0.74573851592167861 -0.76877015161996642 1.4863823741917364 0.75880645379951883 1.0254488807511406 0.54391524147569059 -1.0458550028281066 0.38987746170896748 0.27544420133988307 -0.98119242105756765 -0.13610590094560091 1.9230335743421862 2.3569165892608495 -1.3096277099871478 0.084453746878926053
decision_type=10 10 2 2 10 2 10 2 2 2 2 8 2 2 2 2 2 10 2 10 2 2 2 2 2 2 2 2 2 2
left_child=1 8 4 -4 -2 -3 -7 20 9 10 -1 12 13 25 15 26 19 21 -18 -17 -8 -14 -12 -10 -5 -11 27 28 -13 -30
right_child=2 5 3 24 -6 6 7 -9 23 11 22 14 17 -15 -16 16 18 -19 -20 -21 -22 -23 -24 -25 -26 -27 -28 -29 29 -31
leaf_value=-0.0083296104697426956 0.022191801496679285 0.057171413931355955 0.034538346822617506 0.0099317070081822514 0.0014691818704215492 -0.014205014442590227 0.042923602537380506 -0.00081751661709649696 0.030384832025864887 -0.0056377330895120061 0.010395038048185007 -0.012720163068203949 -0.017931855722686137 0.045021688023735171 -0.010103460373961627 0.041351653036868212 -0.0026162462822419347 0.0066660259986276831 0.023725088911059029 -0.0091109517519061788 -0.016817326410050248 -0.0073752420273002876 -0.012269350130661274 -0.001249063109562002 -7.4025080344269266e-05 0.026377262289449904 -0.010684419172788015 0.030132911995593464 0.011071762704649633 -0.0025470914362470411
leaf_weight=126068 191340 11997 26841 134269 87033 25208 39228 48090 26694 47859 214466 92535 116546 15647 218015 42452 117919 85944 32068 6680 3680 1001251 24915 19315 528474 12610 123641 20915 106221 504373
leaf_count=126068 191340 11997 26841 134269 87033 25208 39228 48090 26694 47859 214466 92535 116546 15647 218015 42452 117919 85944 32068 6680 3680 1001251 24915 19315 528474 12610 123641 20915 106221 504373
internal_value=0 -0.00213839 0.00681384 0.00322143 0.0157129 0.0149014 0.0105375 0.0173916 -0.00287738 -0.00319329 0.00239045 -0.00399519 -0.00635554 0.0100802 -0.00160678 0.000162798 0.0107821 -0.00739482 0.00301566 0.0344907 0.0377998 -0.00847592 0.00803609 0.0171046 0.00195309 0.00103855 -0.00233163 -0.00090527 -0.00182853 -0.000177903
internal_weight=0 3.08434e+06 967957 689584 278373 128203 116206 90998 2.95613e+06 2.91012e+06 365449 2.54468e+06 1.27986e+06 76116 1.26482e+06 1.0468e+06 199119 1.20374e+06 149987 49132 42908 1.1178e+06 239381 46009 662743 60469 847685 724044 703129 610594
internal_count=4052294 3084337 967957 689584 278373 128203 116206 90998 2956134 2910125 365449 2544676 1279857 76116 1264819 1046804 199119 1203741 149987 49132 42908 1117797 239381 46009 662743 60469 847685 724044 703129 610594
is_linear=0
shrinkage=0.03


Tree=2
num_leaves=31
num_cat=0
split_feature=106 95 53 76 20 20 24 19 20 16 76 20 24 54 15 16 44 109 31 55 20 24 103 76 31 112 17 24 16 3
split_gain=61742.8 42989.8 28592.8 28695 25809 26476.2 19408.7 27249.1 23749.7 22143.9 18856.9 30992.2 17403 16909.3 16440.7 15668 23853.1 20221 14694.6 14398.2 12535.4 23692.1 22974.7 19999.8 18484.1 24929.2 17448.6 17315.1 16436.2 18208.9
threshold=0.63457140121243183 1.6311991212368435 0.012995633039511451 -0.56360811449693771 -2.4804167859927335 -0.98499719816206988 0.21656902963554711 -0.024822791608413098 -0.98499719816206988 -1.5026400590321825 2.1602725116279484 -1.2899489040050784 0.68985205787383419 -1.2671258269188017 0.6119394852773542 2.7584552973683927 0.92144101651713561 0.89519950679500915 -0.18966442426128022 -0.94488725715287003 1.0351865377112708 0.73908123264589709 0.52823236927770134 -1.0835384000536106 -0.17521435790761952 1.8722670154546619 -0.3751731287757985 -0.35826028292320161 0.12437942125362937 -1.7453409005019467
decision_type=10 10 2 2 2 2 2 2 2 2 2 2 2 2 2 2 2 8 2 2 2 2 2 2 2 8 2 2 2 2
left_child=1 10 -2 6 19 14 8 13 -4 -10 15 -12 -9 18 -6 17 -17 20 -8 -3 21 24 23 -23 26 27 -1 28 -26 -30
right_child=2 4 3 -5 5 -7 7 12 9 -11 11 -13 -14 -15 -16 16 -18 -19 -20 -21 -22 22 -24 -25 25 -27 -28 -29 29 -31
leaf_value=0.0046957551224741205 -0.0010348529984057339 0.026135333117701293 0.0010878069652739855 0.0001733439620107698 0.05109174536702063 -0.0017107915555461513 0.02792773690973541 0.0097602148823915918 0.051604822780205041 0.021527097871895259 0.03291801477590383 -0.0072497921755447781 0.0455990599346731 0.0010166958050279069 0.015868755190454303 -0.014361059461383068 0.040515401846123643 -0.0081413533478447517 -0.0033094875020704185 -0.014034689132029446 -0.0081958051073828773 0.028704422023003585 0.016746473470222869 -0.002632846220476531 -0.0082287781767982644 0.016929443148605866 -0.0044351627323696392 -0.0093226519060566754 0.042666191439557084 0.0046229958052770295
leaf_weight=424076 314193 11025 39601 195696 32844 20922 45688 21948 27371 112893 34277 34879 27441 197530 18727 11907 17764 634169 19270 29566 263998 20201 117084 197812 84636 41280 338859 624566 13222 78849
leaf_count=424076 314193 11025 39601 195696 32844 20922 45688 21948 27371 112893 34277 34879 27441 197530 18727 11907 17764 634169 19270 29566 263998 20201 117084 197812 84636 41280 338859 624566 13222 78849
internal_value=0 -0.00212188 0.0064626 0.00988931 0.0160291 0.0267535 0.0137559 0.0092297 0.0216041 0.0273965 -0.00282061 0.0126593 0.0296727 0.00538317 0.0383013 -0.00319383 0.0184934 -0.00342051 0.0186611 -0.00312392 -0.00206251 -0.00122813 0.0060275 0.000270851 -0.00274252 -0.00580563 0.000640237 -0.0069769 0.00131406 0.0100863
internal_weight=0 3.05066e+06 1.00163e+06 687438 113084 72493 491742 311877 179865 140264 2.93758e+06 69156 49389 262488 51571 2.86842e+06 29671 2.83875e+06 64958 40591 2.20458e+06 1.94058e+06 335097 218013 1.60549e+06 842553 762935 801273 176707 92071
internal_count=4052294 3050663 1001631 687438 113084 72493 491742 311877 179865 140264 2937579 69156 49389 262488 51571 2868423 29671 2838752 64958 40591 2204583 1940585 335097 218013 1605488 842553 762935 801273 176707 92071
is_linear=0
shrinkage=0.03


Tree=3
num_leaves=31
num_cat=0
split_feature=92 54 16 95 20 20 18 18 31 24 17 16 24 20 45 20 16 24 112 20 40 53 20 47 31 4 16 24 48 35
split_gain=58439.6 48547.4 39526.4 38886 24285.6 24909.3 20844.2 18931 17074.3 30263.3 19507.2 17693.2 47625.1 28259.5 22229.7 34486.6 33812.7 21451.3 19228.2 17828.1 16355 14829.2 14026.6 13360.4 12665.9 12422.4 15909.6 11651.8 11551 14589.5
threshold=-0.7474578305457994 -0.85317480340667762 -1.5337067058498848 1.6311991212368435 -2.4804167859927335 -0.98499719816206988 1.6756471721881863 2.9346465636857175 -1.0969944195724222 -0.99122152269677599 -0.32457171153684888 0.11265341552961768 -1.6644847066588233 -2.5251103212167183 -0.71606896908684992 0.73890667123556597 1.7672571530271344 -1.1041335172613949 1.0254488807511406 -0.78154270038614426 0.78412565583676141 0.65546336821925633 -0.98499719816206988 -0.33767062328490388 -0.16055024005975158 0.27678886507822759 2.4751848777905536 0.36630382199148531 0.71255278249979048 -0.24102502073412127
decision_type=8 2 2 10 2 2 2 2 2 2 2 2 2 2 2 2 2 2 10 2 2 2 2 2 2 2 2 2 2 2
left_child=1 -1 22 7 6 20 -5 8 9 -2 -11 24 13 -13 15 17 18 -14 -17 -19 -6 -9 -3 -15 -10 26 -16 -24 -4 -30
right_child=3 2 28 4 5 -7 -8 21 11 10 -12 12 14 23 25 16 -18 19 -20 -21 -22 -23 27 -25 -26 -27 -28 -29 29 -31
leaf_value=0.020831928101876319 -0.0070871963104298177 0.0012804651367839554 -0.0024941129015434377 -0.01583232508592174 0.049128120287130622 -0.0016594675601997605 0.033006779654111758 0.00093307342915826478 -0.0028897735064909494 0.012177623709276367 -0.00090780667652796119 -0.0013040941591390771 -0.022701579233730177 0.0065983882305389319 -0.008964371533057543 0.039025330142596862 -0.0087968266878280851 0.025660118583813514 -0.010646972455457001 -0.00097531139450007082 0.013329027717536118 0.033798162868195529 0.058034958740416184 0.056903895704230038 -0.0091684058892904929 -0.0011360588763931121 0.029961807292806758 0.0032135415190692519 0.0020159100000650006 0.019177617734261469
leaf_weight=185446 228042 7755 309342 29978 34324 20922 10662 26944 511133 236416 181054 17972 36785 5983 480832 53017 25284 25433 8083 204233 17262 22823 18870 23087 665885 412624 9639 4281 178791 59392
leaf_count=185446 228042 7755 309342 29978 34324 20922 10662 26944 511133 236416 181054 17972 36785 5983 480832 53017 25284 25433 8083 204233 17262 22823 18870 23087 665885 412624 9639 4281 178791 59392
internal_value=0 0.00747492 0.00319263 -0.00173637 0.0155455 0.0259508 -0.00301915 -0.0023522 -0.0026445 0.00170166 0.00650255 -0.00377575 -0.00136738 0.028268 -0.00247741 0.00390796 0.0203802 -0.00143236 0.0324541 0.00197427 0.0371489 0.016005 0.0362006 0.0465505 -0.00644184 -0.00497214 -0.00819936 0.0478978 0.00132942 0.00629528
internal_weight=0 763877 578431 3.28842e+06 113148 72508 40640 3.17527e+06 3.1255e+06 645512 417470 2.47999e+06 1.30297e+06 47042 1.25593e+06 352835 86384 266451 61100 229666 51586 49767 30906 29070 1.17702e+06 903095 490471 23151 547525 238183
internal_count=4052294 763877 578431 3288417 113148 72508 40640 3175269 3125502 645512 417470 2479990 1302972 47042 1255930 352835 86384 266451 61100 229666 51586 49767 30906 29070 1177018 903095 490471 23151 547525 238183
is_linear=0
shrinkage=0.03


end of trees

feature_importances:
win288_mean_Etmp=13
win288_median_Etmp=12
win288_amax_Wspd=9
Patv__index_mass_quantile__q_04=7
Etmp=6
win288_mean_Wspd=6
win288_amax_Prtv=6
win288_mean_w_angle_cos=5
Patv__fft_coefficient__attr_abs__coeff_1=4
Patv__autocorrelation__lag_9=4
win288_var_Wspd=3
win288_median_max_patv=3
Patv__fft_aggregated__aggtype_centroid=3
win288_amin_Wspd=2
win288_amax_Etmp=2
win288_amax_Patv=2
win288_var_Patv=2
win288_amin_w_angle_sin=2
win288_var_w_angle_cos=2
win288_median_w_angle_cos=2
Patv__autocorrelation__lag_1=2
Patv__cid_ce__normalize_False=2
Itmp=1
w_angle_sin=1
win288_median_Wspd=1
win288_var_Etmp=1
win288_mean_Itmp=1
win288_mean_Patv=1
win288_median_Patv=1
win288_mean_max_patv=1
win288_amax_max_patv=1
win288_mean_w_angle_sin=1
win288_var_w_angle_sin=1
win288_median_w_angle_sin=1
win288_amax_w_angle_cos=1
seasonal_Patv=1
Patv__change_quantiles__f_agg_mean__isabs_True__qh_10__ql_02=1
Patv__fourier_entropy__bins_5=1
Patv__fft_coefficient__attr_abs__coeff_16=1
Patv__autocorrelation__lag_2=1
Patv__autocorrelation__lag_8=1
Patv__last_location_of_maximum=1
Patv__fft_aggregated__aggtype_skew=1

parameters:
[boosting: gbdt]
[objective: regression]
[metric: rmse]
[tree_learner: serial]
[device_type: cpu]
[data: ]
[valid: ]
[num_iterations: 500]
[learning_rate: 0.03]
[num_leaves: 31]
[num_threads: -1]
[deterministic: 0]
[force_col_wise: 0]
[force_row_wise: 0]
[histogram_pool_size: -1]
[max_depth: -1]
[min_data_in_leaf: 20]
[min_sum_hessian_in_leaf: 0.001]
[bagging_fraction: 0.6]
[pos_bagging_fraction: 1]
[neg_bagging_fraction: 1]
[bagging_freq: 0]
[bagging_seed: 20851]
[feature_fraction: 0.6]
[feature_fraction_bynode: 1]
[feature_fraction_seed: 25954]
[extra_trees: 0]
[extra_seed: 11525]
[early_stopping_round: 10]
[first_metric_only: 0]
[max_delta_step: 0]
[lambda_l1: 0.1]
[lambda_l2: 0.1]
[linear_lambda: 0]
[min_gain_to_split: 0]
[drop_rate: 0.1]
[max_drop: 50]
[skip_drop: 0.5]
[xgboost_dart_mode: 0]
[uniform_drop: 0]
[drop_seed: 29710]
[top_rate: 0.2]
[other_rate: 0.1]
[min_data_per_group: 100]
[max_cat_threshold: 32]
[cat_l2: 10]
[cat_smooth: 10]
[max_cat_to_onehot: 4]
[top_k: 20]
[monotone_constraints: ]
[monotone_constraints_method: basic]
[monotone_penalty: 0]
[feature_contri: ]
[forcedsplits_filename: ]
[refit_decay_rate: 0.9]
[cegb_tradeoff: 1]
[cegb_penalty_split: 0]
[cegb_penalty_feature_lazy: ]
[cegb_penalty_feature_coupled: ]
[path_smooth: 0]
[interaction_constraints: ]
[verbosity: -1]
[saved_feature_importance_type: 0]
[linear_tree: 0]
[max_bin: 255]
[max_bin_by_feature: ]
[min_data_in_bin: 3]
[bin_construct_sample_cnt: 200000]
[data_random_seed: 201]
[is_enable_sparse: 1]
[enable_bundle: 1]
[use_missing: 1]
[zero_as_missing: 0]
[feature_pre_filter: 1]
[pre_partition: 0]
[two_round: 0]
[header: 0]
[label_column: ]
[weight_column: ]
[group_column: ]
[ignore_column: ]
[categorical_feature: 0]
[forcedbins_filename: ]
[precise_float_parser: 0]
[objective_seed: 296]
[num_class: 1]
[is_unbalance: 0]
[scale_pos_weight: 1]
[sigmoid: 1]
[boost_from_average: 1]
[reg_sqrt: 0]
[alpha: 0.9]
[fair_c: 1]
[poisson_max_delta_step: 0.7]
[tweedie_variance_power: 1.5]
[lambdarank_truncation_level: 30]
[lambdarank_norm: 1]
[label_gain: ]
[eval_at: ]
[multi_error_top_k: 1]
[auc_mu_weights: ]
[num_machines: 1]
[local_listen_port: 12400]
[time_out: 120]
[machine_list_filename: ]
[machines: ]
[gpu_platform_id: -1]
[gpu_device_id: -1]
[gpu_use_dp: 0]
[num_gpu: 1]

end of parameters

pandas_categorical:[]
