tree
version=v3
num_class=1
num_tree_per_iteration=1
label_index=0
max_feature_idx=114
objective=regression
feature_names=TurbID Wspd Wdir Etmp Itmp Ndir Prtv Patv max_patv patv_residual diff_angle w_angle w_angle_adj w_angle_sin w_angle_cos win288_mean_Wspd win288_amax_Wspd win288_amin_Wspd win288_var_Wspd win288_median_Wspd win288_mean_Etmp win288_amax_Etmp win288_amin_Etmp win288_var_Etmp win288_median_Etmp win288_mean_Itmp win288_amax_Itmp win288_amin_Itmp win288_var_Itmp win288_median_Itmp win288_mean_Prtv win288_amax_Prtv win288_amin_Prtv win288_var_Prtv win288_median_Prtv win288_mean_Patv win288_amax_Patv win288_amin_Patv win288_var_Patv win288_median_Patv win288_mean_max_patv win288_amax_max_patv win288_amin_max_patv win288_var_max_patv win288_median_max_patv win288_mean_w_angle_sin win288_amax_w_angle_sin win288_amin_w_angle_sin win288_var_w_angle_sin win288_median_w_angle_sin win288_mean_w_angle_cos win288_amax_w_angle_cos win288_amin_w_angle_cos win288_var_w_angle_cos win288_median_w_angle_cos seasonal_Patv Patv__change_quantiles__f_agg_mean__isabs_True__qh_10__ql_06 Patv__change_quantiles__f_agg_var__isabs_True__qh_10__ql_06 Patv__change_quantiles__f_agg_var__isabs_False__qh_10__ql_06 Patv__change_quantiles__f_agg_var__isabs_True__qh_10__ql_04 Patv__change_quantiles__f_agg_mean__isabs_True__qh_10__ql_04 Patv__change_quantiles__f_agg_var__isabs_False__qh_10__ql_04 Patv__change_quantiles__f_agg_var__isabs_True__qh_10__ql_02 Patv__change_quantiles__f_agg_mean__isabs_True__qh_10__ql_02 Patv__change_quantiles__f_agg_var__isabs_False__qh_10__ql_02 Patv__change_quantiles__f_agg_var__isabs_False__qh_10__ql_08 Patv__change_quantiles__f_agg_mean__isabs_True__qh_10__ql_08 Patv__change_quantiles__f_agg_var__isabs_True__qh_10__ql_08 Patv__change_quantiles__f_agg_var__isabs_True__qh_10__ql_00 Patv__change_quantiles__f_agg_var__isabs_False__qh_10__ql_00 Patv__fourier_entropy__bins_5 Patv__fourier_entropy__bins_3 Patv__fft_coefficient__attr_abs__coeff_93 Patv__fft_coefficient__attr_abs__coeff_94 Patv__fft_coefficient__attr_abs__coeff_96 Patv__fft_coefficient__attr_abs__coeff_11 Patv__fft_coefficient__attr_abs__coeff_1 Patv__fft_coefficient__attr_abs__coeff_22 Patv__fft_coefficient__attr_abs__coeff_16 Patv__fft_coefficient__attr_abs__coeff_7 Patv__fft_coefficient__attr_abs__coeff_90 Patv__fft_coefficient__attr_abs__coeff_63 Patv__fft_coefficient__attr_abs__coeff_61 Patv__fft_coefficient__attr_abs__coeff_58 Patv__fft_coefficient__attr_abs__coeff_45 Patv__fft_coefficient__attr_abs__coeff_98 Patv__fft_coefficient__attr_abs__coeff_89 Patv__fft_coefficient__attr_abs__coeff_79 Patv__fft_coefficient__attr_abs__coeff_97 Patv__fft_coefficient__attr_abs__coeff_85 Patv__fft_coefficient__attr_abs__coeff_33 Patv__autocorrelation__lag_2 Patv__autocorrelation__lag_1 Patv__autocorrelation__lag_3 Patv__autocorrelation__lag_8 Patv__autocorrelation__lag_9 Patv__autocorrelation__lag_4 Patv__autocorrelation__lag_5 Patv__autocorrelation__lag_6 Patv__autocorrelation__lag_7 Patv__number_crossing_m__m_1 Patv__number_crossing_m__m_0 Patv__last_location_of_maximum Patv__cid_ce__normalize_False Patv__cid_ce__normalize_True Patv__longest_strike_above_mean Patv__fft_aggregated__aggtype_centroid Patv__fft_aggregated__aggtype_kurtosis Patv__fft_aggregated__aggtype_variance Patv__fft_aggregated__aggtype_skew Patv__ar_coefficient__coeff_1__k_10 Patv__linear_trend__attr_pvalue Patv__index_mass_quantile__q_04 Patv__partial_autocorrelation__lag_2 Patv__partial_autocorrelation__lag_1
feature_infos=-1:134:133:132:131:130:129:42:119:21:3:19:7:23:86:40:66:26:10:78:85:17:34:102:97:88:111:114:74:32:99:50:118:73:64:77:127:115:28:35:87:30:89:55:94:100:126:15:58:60:96:12:16:27:53:57:90:93:49:71:101:24:6:52:92:103:106:44:62:107:108:109:61:79:48:29:84:91:43:20:59:31:18:33:116:75:5:45:2:72:76:123:1:37:67:70:46:80:22:47:54:125:36:124:122:14:121:65:41:56:8:68:4:81:69:95:120:51:112:11:82:9:105:110:83:39:98:117:113:13:25:63:104:128 [-1.5688249894841568:5.321959516852405] [-26.100349840222187:13.451134563388694] [-29.634596403404867:21.097409178404771] [-28.199628584585088:3.9468884037422014] [-5.0877647858241577:3.331073743046296] [-0.40320844917751758:13.263758955383436] [-0.99337512471393197:3.78152934968525] [-1.381471773728149:2.2710717472987749] [-6.0276521373867347:9.0371936541366207] [-0.99998346601853361:0.99998346601853361] [-5.8411081575441086:3.4284916681960778] [-5.8411081575441086:3.4284916681960782] [-1.8821659270219036:1.4468001585876999] [-1.8121789113706941:1.3152158999625134] [-2.4893584826409692:4.6688693535369472] [-3.9174417788266478:3.6363709190295301] [-0.59968876481012345:10.856188041516798] [-1.7635991690730812:7.2277047746802756] [-2.2823675136092532:4.4402087490131361] [-5.4065677078923358:8.4981990429523808] [-4.2410696295074768:9.2705493075506435] [-9.4160139174432889:2.9726508700579362] [-1.6349758516395851:11.776526498318894] [-6.0867629252400732:9.5347501185418757] [-11.114258344834376:2.6890639456055263] [-4.7499289303726702:9.8302513133391543] [-5.8564035772570859:0.74267765039140599] [-0.2989812196712186:12.209191199267508] [-13.524740553547645:2.60259178388519] [-0.83902405416289128:10.725799899135406] [-1.6780991861046777:5.6736616552033761] [0:0] [-0.91186935406950265:9.1573932616633993] [-0.2769007098505416:19.12855854388928] [-1.7329122565973001:3.9599325423127798] [-5.305363548918276:1.1595549378238037] [-0.22012823883537971:28.298094140183132] [-1.7760252124887523:4.718537399715661] [-1.2686015132909645:4.6558744743258051] [-2.0330516982878879:3.6542892667656801] [-9.6429421812463207:0.59221888250409027] [-0.37139650190865608:18.586086616067035] [-2.2582060960203947:3.4854260819597429] [-1.6766695913517131:3.3036967294573198] [-3.0529232540749489:2.5730281701704789] [-14.172608431949376:0.35661486350439953] [-0.53387840763506744:6.9046066296088142] [-1.9045495265895671:3.4930921491947502] [-2.6356717998364019:1.9646153932339487] [-2.9204899463224501:2.4549941032249025] [-26.266412668126321:0.37519976190800391] [-0.51252295708076401:5.571956937345381] [-2.0091237643905133:3.1487168729970079] [-2.3593361594382531:1.74079590850632] [-3.0606314893323194:4.3374136452155625] [-3.1512075623026372:4.4858565425743882] [-1.9318259913229905:7.5653186934969847] [-1.931290550247682:6.3388050345005116] [-2.2645792297712601:6.0188644811258447] [-3.1512504381050377:3.957356814044187] [-2.1535955802372961:6.0608528183841148] [-2.3085779360325369:5.2722779795326851] [-2.9486558118897577:4.0401095517311827] [-2.157293158758022:5.3842589254137225] [-1.7012411942651411:8.6226783462685201] [-2.9548266536708723:5.609218392948252] [-1.6883471700077477:7.4983284609864294] [-2.0572146864591638:6.2853659465104892] [-2.0092881782431911:6.3669144612964859] [-2.0418648990688459:13.344394951800268] [-1.7072756716786666:11.673463634928764] [-1.8593162791440967:7.0173609765472884] [-1.8139133559950984:6.1490911660307974] [-1.7473238030979583:6.5123921143007948] [-1.80503980425666:5.4979354352813594] [-1.7302083264334411:3.4783678723642382] [-1.8052520573094704:5.6734906646392416] [-1.8061206328823349:5.8880355318656781] [-1.858238457215535:5.5815362889549993] [-1.8117672291241409:6.5052906711578746] [-1.8834442651974272:6.3051783608740415] [-1.8998096925817056:5.9740944346050826] [-1.9590117477104705:6.1125949912059996] [-1.820818061908523:5.6810102501292619] [-1.8619292642442959:6.9922026019601491] [-1.9063017594231029:6.5391972241492935] [-1.9266521502770413:6.5295407717963148] [-1.9305423352124216:6.4571843399033408] [-1.849684764430398:6.8327277663602386] [-1.8296108225852763:5.7432742058218471] [-8.1960578063054363:1.7742525450769455] [-10.636808705256696:1.5961492983494323] [-7.4711794029586391:1.9117685239552689] [-5.8004174570980238:2.4331473553683609] [-5.2405674423852009:2.4462429156233703] [-7.2817289010315855:2.0365338273141163] [-7.2786157789778398:2.147224474259632] [-6.6756908604045728:2.2661736022778918] [-6.0426408578594062:2.3527710864103764] [-2.0649821741149288:4.7790707298506154] [-2.0423165497157858:4.8231830778395617] [-1.7199330907248471:1.7159806740994474] [-3.4402245390180091:4.4353430317756262] [-2.4112205459439444:6.6266615756055343] [-1.8836506633215917:7.4565678876454156] [-3.2435100496314919:4.5477350135934085] [-3.0245865381587032:8.4061270264580017] [-3.892387089748452:5.050626110856868] [-3.6595500535623691:4.7966877315819643] [-4.4237209982221684:3.6612653705406286] [-0.44928829186803643:5.4437837465070524] [-2.279818252246002:3.1216760338683218] [-4.354078647684454:4.3700850422241135] [-10.636808705256692:1.5961492983494143]
tree_sizes=3221 3188 3226

Tree=0
num_leaves=31
num_cat=0
split_feature=106 95 54 16 20 20 18 114 18 40 20 24 109 16 24 16 5 53 24 21 31 24 49 49 24 20 53 16 112 24
split_gain=69656.4 47697.2 31689.6 31550.8 25720.2 34536.8 24578.9 22511.8 21515.7 20548.8 19216.1 25302.1 16011.6 22178.3 15592.7 36646.2 15754.8 14885.5 14259.3 13485 17713.6 20395.7 24078.1 16063.7 17770.8 29949.6 12702.8 12612.5 13978.8 10275.2
threshold=0.6830040570306507 1.6046539095195902 -1.1293393049129909 -1.5319556642227214 -2.4726309727960492 -0.98745126363292379 1.6255392037966057 -0.75241260943096411 2.9460387147522953 0.78157775803983098 -0.98745126363292379 0.35924362673676141 0.90485455765127398 2.483253569671191 -1.6748913953559337 0.10911360855244702 -0.80367418726032269 0.6501106656634984 -2.5182645881829742 -1.4183344434210148 -1.3061457761992599 -0.10098212858705564 -0.21133574375611 -1.117813692954738 0.6686473716767235 1.0161942460493318 0.024690927438111004 -0.18385807681821698 1.0099080727633958 0.24547659396208138
decision_type=10 10 2 2 2 2 2 10 2 2 2 2 8 2 2 2 2 2 2 2 2 2 2 2 2 2 2 2 10 2
left_child=1 8 7 10 6 9 -3 -2 12 -6 -4 -12 14 -14 15 -1 -16 -10 -17 -18 21 -21 -23 24 -22 27 -5 -26 -29 -24
right_child=2 4 3 26 5 -7 -8 -9 17 -11 11 -13 13 -15 16 18 19 -19 -20 20 23 22 29 -25 25 -27 -28 28 -30 -31
leaf_value=-0.0010462287153365757 0.023731507763674983 -0.016275770044808593 0.0010962715504278283 -0.0029549531192622626 0.052464323023486942 -0.0025857348252900599 0.034578782892816497 0.0019410381618490593 0.0012935298118635454 0.01425071226033419 0.054120462398340105 -0.0047932781943767115 -0.0082220007349220591 0.028651060953702526 -0.007040364590772172 -0.0013897439375791334 -0.015469805496171872 0.035543295410855595 0.055883022786530172 0.0014277583483202881 -0.0010024748054540758 -0.0096791668856784085 0.041159359140852836 -0.003583318446119305 -0.00060363172941851689 -0.0079749441449520377 0.0055696196684598799 0.039873017227668665 -0.0069993862970934486 0.012797008311567206
leaf_weight=65768 148507 31961 17716 246637 36413 26184 11679 59873 24179 19419 26314 8740 640731 15025 533681 5027 56882 21644 17644 173777 181981 17358 32960 1084306 11865 33379 434453 43953 6584 17654
leaf_count=65768 148507 31961 17716 246637 36413 26184 11679 59873 24179 19419 26314 8740 640731 15025 533681 5027 56882 21644 17644 173777 181981 17358 32960 1084306 11865 33379 434453 43953 6584 17654
internal_value=-2.94917e-10 -0.00216495 0.00714586 0.00421415 0.0159409 0.0258415 -0.00266588 0.0174706 -0.00292729 0.0391733 0.0265616 0.0394315 -0.00324538 -0.00737714 -0.0020585 0.0102919 -0.00255625 0.0174711 0.0431834 -0.00111524 -0.000606125 0.00687754 0.0208104 -0.00193438 0.00450262 0.0149621 0.00248269 0.0272313 0.0337664 0.0312668
internal_weight=0 3.11005e+06 942240 733860 125656 82016 43640 208380 2.9844e+06 55832 52770 35054 2.93858e+06 655756 2.28282e+06 88439 2.19438e+06 45823 22671 1.6607e+06 1.60382e+06 241749 67972 1.36207e+06 277762 95781 681090 62402 50537 50614
internal_count=4052294 3110054 942240 733860 125656 82016 43640 208380 2984398 55832 52770 35054 2938575 655756 2282819 88439 2194380 45823 22671 1660699 1603817 241749 67972 1362068 277762 95781 681090 62402 50537 50614
is_linear=0
shrinkage=1


Tree=1
num_leaves=31
num_cat=0
split_feature=92 54 16 94 38 16 20 20 112 40 21 20 3 20 20 43 47 31 40 16 20 103 18 44 21 16 75 20 112 94
split_gain=65129.9 53509.7 42089.1 41625.9 22971.9 32488.8 49285.9 25807 24915.5 24593.3 30611 32002.9 23792.6 22723.6 32908.8 26276 21023.7 19195.6 18959.7 17280.2 14590.4 14571.6 13052.5 12365.8 12295.6 12280 14920.2 14259.8 12376.3 12153.9
threshold=-0.75241260943096766 -0.85453936487857374 -1.5319556642227214 1.5737972792649246 -0.80595122918101814 0.12125628315428812 -1.5810243798910537 -2.5190162467436443 1.0000000180025095e-35 1.6177518536588178 0.97256557282247746 -1.3716005364808608 -0.88844662170628885 -2.4726309727960492 -0.98745126363292379 1.3467232038450778 -0.29311115857648623 -1.386318412383637 0.78157775803983098 2.483253569671191 -0.98745126363292379 -2.5348926667924725 -0.59948945382076146 -0.86400829736441198 0.23219891983894894 1.127229588978276 0.55885890113335301 0.71073080241875242 1.3786397262816534 0.58380900068719777
decision_type=8 2 2 10 2 2 2 2 8 2 2 2 2 2 2 2 2 2 2 2 2 2 2 2 2 2 2 2 10 10
left_child=1 -1 20 4 12 -6 7 -7 -8 10 11 -10 21 15 18 -5 -9 22 -15 25 -3 -2 23 -14 -22 26 -13 -28 -29 -19
right_child=3 2 -4 13 5 6 8 16 9 -11 -12 19 17 14 -16 -17 -18 29 -20 -21 24 -23 -24 -25 -26 -27 27 28 -30 -31
leaf_value=0.021973118838665335 0.033627142418749804 0.0019300134808102999 0.0014675564982840163 -0.0168109736521499 -0.0074366635551117366 -0.0018360907442380519 -0.0070753950276968361 0.0060208014190178474 -0.022780498786264425 -0.0079945800479268025 -0.0082068785726031965 0.0074444148016774439 0.0054566435830164873 0.050109433729211166 -0.0029396589993866723 0.03495711488242402 0.059189642037238567 0.004648878292022967 0.0129240301070983 0.036531284663770786 0.059542862116344207 -0.0088947508938079616 -0.0077254733864148342 0.023382330114532397 0.0032533122487799944 0.0017849663451537227 0.01198665448866698 0.04211648965084959 -0.0066227063111552013 -0.009433866017728873
leaf_weight=184525 7583 7848 544482 31580 1178973 16500 485945 9340 28420 185602 133226 179681 53671 36729 26700 12246 23621 242907 18585 21135 19044 166660 21960 97652 4277 148377 53125 35132 5411 71357
leaf_count=184525 7583 7848 544482 31580 1178973 16500 485945 9340 28420 185602 133226 179681 53671 36729 26700 12246 23621 242907 18585 21135 19044 166660 21960 97652 4277 148377 53125 35132 5411 71357
internal_value=0 0.00791483 0.00340843 -0.0018276 -0.00250011 -0.00381366 -0.00059119 0.0287916 -0.0017301 0.00155745 0.00449021 0.00807955 0.0024709 0.0150936 0.0244126 -0.00234565 0.0441236 0.00587147 0.0376156 0.01006 0.0373128 -0.00704418 0.0138879 0.0170245 0.0492197 0.00873333 0.012505 0.0222124 0.0356115 0.00145123
internal_weight=0 760176 575651 3.29212e+06 3.16628e+06 2.50449e+06 1.32552e+06 49461 1.27605e+06 790109 604507 471281 661790 125840 82014 43826 32961 487547 55314 442861 31169 174243 173283 151323 23321 421726 273349 93668 40543 314264
internal_count=4052294 760176 575651 3292118 3166278 2504488 1325515 49461 1276054 790109 604507 471281 661790 125840 82014 43826 32961 487547 55314 442861 31169 174243 173283 151323 23321 421726 273349 93668 40543 314264
is_linear=0
shrinkage=0.03


Tree=2
num_leaves=31
num_cat=0
split_feature=106 99 50 91 31 20 20 43 38 20 20 20 50 112 38 3 31 112 21 43 15 3 75 20 112 20 21 66 20 50
split_gain=62306.2 38851.2 32766.3 27663.3 26545.3 22459.5 24869.5 23110.8 21579.4 20373.7 36789.3 19203.6 24612.3 18929.6 17443.7 19563.5 20451.1 16304.9 21086.5 17088.6 15301.3 15234.7 13256.4 18132 15285 11874.7 17059 12375.7 11875.1 11652.3
threshold=0.65562157661155174 1.5772215602724109 -0.66835789026491255 -0.59817177574476055 -1.386318412383637 -2.4726309727960492 -0.98745126363292379 1.3284503265655692 1.691302985023162 -0.41433504017773998 0.29787374894646729 -1.2926305810196916 0.28480919336938176 0.050763634781759957 -0.80595122918101814 -0.87132824746961224 -1.386318412383637 0.037959738214481856 0.95673099004313122 0.3510170084552221 0.63129180360512471 -0.011068774904937148 0.54268224773330698 0.71073080241875242 2.015841571874136 -1.523242447923655 -2.0306651841151009 -0.82778155236104911 -1.0318844619561418 0.4974867481085779
decision_type=10 10 2 10 2 2 2 2 2 2 2 2 2 10 2 2 2 10 2 2 2 2 2 2 10 2 2 2 2 2
left_child=1 8 3 -2 9 7 20 -3 14 -4 -11 -10 13 -13 15 -1 -17 25 19 -19 -7 -21 24 -24 -23 26 -16 -28 -27 -26
right_child=2 5 4 -5 -6 6 -8 -9 11 10 -12 12 -14 -15 17 16 -18 18 -20 21 -22 22 23 -25 29 28 27 -29 -30 -31
leaf_value=-0.0076401538949545759 0.021296793175665664 -0.016731969399447578 0.0035521886940424845 0.00024383180592895835 0.00073292471989128138 0.049219870691777502 -0.0024868225072051833 0.033820746507808835 0.030439723532413452 0.053228633575772955 0.0024882495874052318 -0.0075027769126188113 -0.010312459754395126 0.017607206575745941 -0.0060158158379393254 0.014038602434519197 -0.00021370703986305583 -0.0045818556125727904 -0.011452082471908254 -0.0021917717419789101 0.013502509667846385 0.0010217225215480331 0.0045156696323289287 0.030577049029684975 -0.00044976030312696369 -0.017667463413607414 0.050168023321121177 0.0049629967667804125 -0.007017417075810415 0.066048616634896612
leaf_weight=159372 198562 28583 49481 78332 596708 32728 19707 11379 25591 28643 23340 37244 79435 98431 41576 139809 257507 434350 182224 218808 16108 153372 48617 47503 3947 105138 10514 11318 908026 5941
leaf_count=159372 198562 28583 49481 78332 596708 32728 19707 11379 25591 28643 23340 37244 79435 98431 41576 139809 257507 434350 182224 218808 16108 153372 48617 47503 3947 105138 10514 11318 908026 5941
internal_value=0 -0.00209398 0.00660844 0.015341 0.00314511 0.0155381 0.0259598 -0.00233719 -0.00273843 0.0173311 0.0304467 0.00587232 0.00294958 0.0107143 -0.00349818 0.00123958 0.00480144 -0.00471285 -0.00213487 -0.00027432 0.037439 0.00363831 0.00855647 0.0173954 0.0033525 -0.00733438 0.00526004 0.0267334 -0.0081226 0.0395044
internal_weight=0 3.07723e+06 975066 276894 698172 108505 68543 39962 2.96872e+06 101464 51983 240701 215110 135675 2.72802e+06 556688 397316 2.17133e+06 1.09476e+06 912538 48836 478188 259380 96120 163260 1.07657e+06 63408 21832 1.01316e+06 9888
internal_count=4052294 3077228 975066 276894 698172 108505 68543 39962 2968723 101464 51983 240701 215110 135675 2728022 556688 397316 2171334 1094762 912538 48836 478188 259380 96120 163260 1076572 63408 21832 1013164 9888
is_linear=0
shrinkage=0.03


end of trees

feature_importances:
win288_mean_Etmp=19
win288_amax_Wspd=8
win288_median_Etmp=6
Patv__index_mass_quantile__q_04=6
win288_amax_Etmp=5
win288_amax_Prtv=4
Etmp=3
win288_var_Wspd=3
win288_var_Patv=3
win288_mean_max_patv=3
win288_var_max_patv=3
win288_mean_w_angle_cos=3
win288_median_w_angle_sin=2
win288_var_w_angle_cos=2
win288_median_w_angle_cos=2
Patv__fft_coefficient__attr_abs__coeff_11=2
Patv__autocorrelation__lag_8=2
Patv__fft_aggregated__aggtype_centroid=2
Ndir=1
win288_mean_Wspd=1
win288_median_max_patv=1
win288_amin_w_angle_sin=1
Patv__change_quantiles__f_agg_mean__isabs_True__qh_10__ql_08=1
Patv__autocorrelation__lag_2=1
Patv__autocorrelation__lag_1=1
Patv__autocorrelation__lag_9=1
Patv__autocorrelation__lag_7=1
Patv__cid_ce__normalize_False=1
Patv__fft_aggregated__aggtype_skew=1
Patv__partial_autocorrelation__lag_1=1

parameters:
[boosting: gbdt]
[objective: regression]
[metric: rmse]
[tree_learner: serial]
[device_type: cpu]
[data: ]
[valid: ]
[num_iterations: 500]
[learning_rate: 0.03]
[num_leaves: 31]
[num_threads: -1]
[deterministic: 0]
[force_col_wise: 0]
[force_row_wise: 0]
[histogram_pool_size: -1]
[max_depth: -1]
[min_data_in_leaf: 20]
[min_sum_hessian_in_leaf: 0.001]
[bagging_fraction: 0.6]
[pos_bagging_fraction: 1]
[neg_bagging_fraction: 1]
[bagging_freq: 0]
[bagging_seed: 1216]
[feature_fraction: 0.6]
[feature_fraction_bynode: 1]
[feature_fraction_seed: 16704]
[extra_trees: 0]
[extra_seed: 11254]
[early_stopping_round: 10]
[first_metric_only: 0]
[max_delta_step: 0]
[lambda_l1: 0.1]
[lambda_l2: 0.1]
[linear_lambda: 0]
[min_gain_to_split: 0]
[drop_rate: 0.1]
[max_drop: 50]
[skip_drop: 0.5]
[xgboost_dart_mode: 0]
[uniform_drop: 0]
[drop_seed: 5415]
[top_rate: 0.2]
[other_rate: 0.1]
[min_data_per_group: 100]
[max_cat_threshold: 32]
[cat_l2: 10]
[cat_smooth: 10]
[max_cat_to_onehot: 4]
[top_k: 20]
[monotone_constraints: ]
[monotone_constraints_method: basic]
[monotone_penalty: 0]
[feature_contri: ]
[forcedsplits_filename: ]
[refit_decay_rate: 0.9]
[cegb_tradeoff: 1]
[cegb_penalty_split: 0]
[cegb_penalty_feature_lazy: ]
[cegb_penalty_feature_coupled: ]
[path_smooth: 0]
[interaction_constraints: ]
[verbosity: -1]
[saved_feature_importance_type: 0]
[linear_tree: 0]
[max_bin: 255]
[max_bin_by_feature: ]
[min_data_in_bin: 3]
[bin_construct_sample_cnt: 200000]
[data_random_seed: 365]
[is_enable_sparse: 1]
[enable_bundle: 1]
[use_missing: 1]
[zero_as_missing: 0]
[feature_pre_filter: 1]
[pre_partition: 0]
[two_round: 0]
[header: 0]
[label_column: ]
[weight_column: ]
[group_column: ]
[ignore_column: ]
[categorical_feature: 0]
[forcedbins_filename: ]
[precise_float_parser: 0]
[objective_seed: 24504]
[num_class: 1]
[is_unbalance: 0]
[scale_pos_weight: 1]
[sigmoid: 1]
[boost_from_average: 1]
[reg_sqrt: 0]
[alpha: 0.9]
[fair_c: 1]
[poisson_max_delta_step: 0.7]
[tweedie_variance_power: 1.5]
[lambdarank_truncation_level: 30]
[lambdarank_norm: 1]
[label_gain: ]
[eval_at: ]
[multi_error_top_k: 1]
[auc_mu_weights: ]
[num_machines: 1]
[local_listen_port: 12400]
[time_out: 120]
[machine_list_filename: ]
[machines: ]
[gpu_platform_id: -1]
[gpu_device_id: -1]
[gpu_use_dp: 0]
[num_gpu: 1]

end of parameters

pandas_categorical:[]
